1000 132
0.000000 0.000000 0.000000 0.000000 0.000000 0.000000 0.000000 0.000000 0.000000 0.000000 0.000000 0.000000 0.293388 0.069444 0.027778 0.027778 0.000000 0.000000 0.000000 0.000000 0.000000 0.065274 0.000000 0.000000 0.000000 0.000000 0.000000 0.000000 0.000000 0.000000 0.000000 0.103306 0.000000 0.000000 0.000000 0.000000 0.000000 0.083333 0.083333 0.027778 0.000000 0.000000 0.000000 0.206266 0.000000 0.000000 0.000000 0.000000 0.024793 0.000000 0.000000 0.000000 0.000000 0.000000 0.000000 0.000000 0.128099 0.027778 0.083333 0.000000 0.000000 0.000000 0.000000 0.000000 0.000000 0.154047 0.000000 0.000000 0.000000 0.000000 0.074380 0.000000 0.000000 0.000000 0.000000 0.000000 0.004132 0.000000 0.000000 0.000000 0.000000 0.000000 0.000000 0.097222 0.013889 0.000000 0.000000 0.221932 0.000000 0.000000 0.000000 0.000000 0.045455 0.000000 0.000000 0.008264 0.012397 0.000000 0.012397 0.024793 0.024793 0.055556 0.027778 0.013889 0.000000 0.000000 0.027778 0.083333 0.055556 0.201044 0.000000 0.000000 0.000000 0.000000 0.033058 0.000000 0.000000 0.000000 0.000000 0.000000 0.210744 0.000000 0.000000 0.000000 0.000000 0.000000 0.000000 0.027778 0.069444 0.097222 0.000000 0.151436 0
0.000000 0.000000 0.000000 0.000000 0.000000 0.000000 0.000000 0.000000 0.000000 0.000000 0.000000 0.000000 0.255000 0.022727 0.068182 0.034091 0.000000 0.000000 0.000000 0.000000 0.000000 0.083503 0.000000 0.000000 0.000000 0.000000 0.000000 0.002500 0.000000 0.000000 0.000000 0.085000 0.000000 0.000000 0.012500 0.000000 0.034091 0.045455 0.045455 0.090909 0.000000 0.000000 0.000000 0.232179 0.000000 0.000000 0.000000 0.000000 0.090000 0.000000 0.000000 0.000000 0.000000 0.000000 0.000000 0.005000 0.037500 0.068182 0.045455 0.000000 0.000000 0.000000 0.000000 0.000000 0.011364 0.183299 0.000000 0.000000 0.000000 0.000000 0.130000 0.000000 0.002500 0.000000 0.000000 0.022500 0.005000 0.000000 0.000000 0.000000 0.000000 0.011364 0.022727 0.079545 0.022727 0.011364 0.000000 0.183299 0.000000 0.000000 0.000000 0.000000 0.072500 0.000000 0.000000 0.000000 0.000000 0.000000 0.000000 0.077500 0.000000 0.068182 0.000000 0.000000 0.000000 0.000000 0.000000 0.068182 0.056818 0.169043 0.000000 0.000000 0.000000 0.000000 0.052500 0.000000 0.000000 0.002500 0.000000 0.000000 0.147500 0.000000 0.000000 0.000000 0.000000 0.000000 0.000000 0.056818 0.068182 0.056818 0.011364 0.148676 0
0.000000 0.000000 0.000000 0.000000 0.000000 0.000000 0.000000 0.000000 0.000000 0.000000 0.000000 0.000000 0.241379 0.000000 0.055556 0.083333 0.000000 0.000000 0.000000 0.000000 0.000000 0.094972 0.000000 0.000000 0.000000 0.000000 0.000000 0.000000 0.000000 0.000000 0.000000 0.065517 0.000000 0.000000 0.037931 0.000000 0.041667 0.069444 0.069444 0.041667 0.000000 0.000000 0.000000 0.229050 0.000000 0.000000 0.000000 0.000000 0.117241 0.000000 0.000000 0.000000 0.000000 0.000000 0.000000 0.000000 0.034483 0.069444 0.041667 0.000000 0.000000 0.000000 0.000000 0.000000 0.000000 0.167598 0.000000 0.000000 0.000000 0.000000 0.224138 0.000000 0.000000 0.000000 0.000000 0.000000 0.000000 0.000000 0.000000 0.000000 0.000000 0.000000 0.000000 0.097222 0.013889 0.000000 0.000000 0.131285 0.000000 0.000000 0.000000 0.000000 0.041379 0.000000 0.000000 0.000000 0.000000 0.000000 0.000000 0.068966 0.000000 0.041667 0.000000 0.000000 0.000000 0.000000 0.000000 0.097222 0.069444 0.201117 0.000000 0.000000 0.000000 0.000000 0.044828 0.000000 0.000000 0.000000 0.000000 0.000000 0.124138 0.000000 0.000000 0.000000 0.000000 0.000000 0.000000 0.027778 0.069444 0.111111 0.000000 0.175978 0
0.000000 0.000000 0.000000 0.000000 0.000000 0.000000 0.000000 0.000000 0.000000 0.000000 0.000000 0.000000 0.350230 0.013514 0.054054 0.067568 0.000000 0.000000 0.000000 0.000000 0.000000 0.049140 0.000000 0.000000 0.000000 0.000000 0.000000 0.000000 0.000000 0.000000 0.000000 0.082949 0.000000 0.000000 0.009217 0.013514 0.013514 0.081081 0.054054 0.054054 0.000000 0.000000 0.000000 0.186732 0.000000 0.000000 0.000000 0.000000 0.069124 0.000000 0.000000 0.000000 0.000000 0.000000 0.000000 0.000000 0.027650 0.067568 0.040541 0.000000 0.000000 0.000000 0.000000 0.000000 0.000000 0.184275 0.000000 0.000000 0.000000 0.000000 0.087558 0.000000 0.004608 0.000000 0.000000 0.000000 0.000000 0.000000 0.000000 0.000000 0.000000 0.000000 0.000000 0.094595 0.013514 0.000000 0.000000 0.186732 0.000000 0.000000 0.000000 0.000000 0.059908 0.000000 0.000000 0.000000 0.000000 0.000000 0.000000 0.129032 0.000000 0.067568 0.000000 0.000000 0.000000 0.000000 0.000000 0.094595 0.054054 0.194103 0.000000 0.000000 0.000000 0.000000 0.073733 0.000000 0.004608 0.000000 0.000000 0.000000 0.101382 0.000000 0.000000 0.000000 0.000000 0.000000 0.013514 0.040541 0.067568 0.081081 0.013514 0.199017 0
0.000000 0.000000 0.000000 0.000000 0.000000 0.002755 0.000000 0.000000 0.002755 0.000000 0.000000 0.000000 0.242424 0.011765 0.070588 0.023529 0.011765 0.000000 0.000000 0.000000 0.011765 0.088757 0.000000 0.000000 0.000000 0.000000 0.005510 0.000000 0.000000 0.000000 0.000000 0.082645 0.000000 0.000000 0.013774 0.000000 0.011765 0.082353 0.070588 0.035294 0.000000 0.000000 0.000000 0.193294 0.000000 0.000000 0.000000 0.000000 0.044077 0.000000 0.000000 0.000000 0.000000 0.000000 0.000000 0.000000 0.082645 0.047059 0.058824 0.011765 0.000000 0.000000 0.000000 0.000000 0.000000 0.175542 0.000000 0.000000 0.000000 0.000000 0.170799 0.000000 0.000000 0.000000 0.000000 0.000000 0.013774 0.000000 0.000000 0.000000 0.000000 0.000000 0.000000 0.070588 0.035294 0.000000 0.000000 0.134122 0.000000 0.000000 0.000000 0.000000 0.082645 0.000000 0.000000 0.000000 0.000000 0.000000 0.000000 0.024793 0.000000 0.082353 0.011765 0.000000 0.000000 0.000000 0.000000 0.129412 0.035294 0.248521 0.000000 0.000000 0.000000 0.000000 0.038567 0.000000 0.000000 0.000000 0.000000 0.000000 0.192837 0.000000 0.000000 0.000000 0.000000 0.000000 0.000000 0.047059 0.070588 0.070588 0.000000 0.159763 0
0.000000 0.000000 0.000000 0.000000 0.000000 0.000000 0.000000 0.000000 0.000000 0.000000 0.000000 0.000000 0.260780 0.010417 0.020833 0.052083 0.000000 0.000000 0.000000 0.000000 0.000000 0.038902 0.000000 0.000000 0.000000 0.000000 0.010267 0.000000 0.004107 0.000000 0.002053 0.047228 0.000000 0.000000 0.039014 0.010417 0.031250 0.104167 0.062500 0.010417 0.020833 0.000000 0.010417 0.235698 0.000000 0.000000 0.000000 0.000000 0.071869 0.000000 0.000000 0.000000 0.002053 0.000000 0.000000 0.000000 0.063655 0.031250 0.052083 0.041667 0.000000 0.000000 0.000000 0.000000 0.010417 0.176201 0.000000 0.000000 0.000000 0.000000 0.186858 0.000000 0.004107 0.000000 0.000000 0.000000 0.000000 0.000000 0.000000 0.000000 0.000000 0.000000 0.020833 0.052083 0.020833 0.000000 0.000000 0.137300 0.000000 0.000000 0.000000 0.000000 0.082136 0.000000 0.000000 0.000000 0.000000 0.000000 0.000000 0.049281 0.000000 0.062500 0.010417 0.000000 0.000000 0.000000 0.000000 0.125000 0.031250 0.219680 0.000000 0.000000 0.000000 0.000000 0.090349 0.000000 0.000000 0.002053 0.000000 0.000000 0.084189 0.000000 0.000000 0.000000 0.000000 0.000000 0.000000 0.031250 0.072917 0.093750 0.010417 0.192220 0
0.000000 0.000000 0.000000 0.000000 0.000000 0.000000 0.000000 0.000000 0.000000 0.000000 0.000000 0.000000 0.266904 0.027778 0.069444 0.041667 0.000000 0.000000 0.000000 0.000000 0.000000 0.088305 0.000000 0.000000 0.000000 0.000000 0.000000 0.000000 0.000000 0.000000 0.000000 0.081851 0.000000 0.000000 0.000000 0.000000 0.000000 0.111111 0.055556 0.055556 0.000000 0.000000 0.000000 0.212411 0.000000 0.000000 0.000000 0.000000 0.088968 0.000000 0.000000 0.000000 0.000000 0.000000 0.000000 0.007117 0.039146 0.027778 0.069444 0.013889 0.000000 0.000000 0.000000 0.000000 0.013889 0.176611 0.000000 0.000000 0.000000 0.000000 0.120996 0.000000 0.000000 0.000000 0.000000 0.010676 0.010676 0.000000 0.000000 0.000000 0.000000 0.000000 0.013889 0.083333 0.013889 0.000000 0.000000 0.171838 0.000000 0.000000 0.000000 0.000000 0.021352 0.000000 0.000000 0.000000 0.000000 0.000000 0.000000 0.177936 0.000000 0.027778 0.000000 0.000000 0.000000 0.000000 0.000000 0.069444 0.097222 0.167064 0.000000 0.000000 0.000000 0.000000 0.039146 0.000000 0.000000 0.000000 0.000000 0.000000 0.135231 0.000000 0.000000 0.000000 0.000000 0.000000 0.000000 0.027778 0.083333 0.097222 0.000000 0.183771 0
0.000000 0.000000 0.000000 0.000000 0.002941 0.000000 0.000000 0.000000 0.000000 0.000000 0.000000 0.000000 0.194118 0.041322 0.082645 0.016529 0.000000 0.000000 0.000000 0.000000 0.000000 0.128109 0.000000 0.000000 0.000000 0.000000 0.044118 0.000000 0.000000 0.000000 0.000000 0.057843 0.000000 0.000000 0.000000 0.000000 0.000000 0.074380 0.074380 0.057851 0.000000 0.000000 0.000000 0.248756 0.000000 0.000000 0.000000 0.000000 0.117647 0.000000 0.000000 0.000000 0.000000 0.000000 0.000000 0.000000 0.048039 0.082645 0.049587 0.000000 0.000000 0.000000 0.000000 0.000000 0.000000 0.167910 0.000000 0.000000 0.000000 0.000000 0.176471 0.000000 0.000000 0.000000 0.000000 0.000000 0.020588 0.000000 0.000000 0.000000 0.000000 0.000000 0.000000 0.099174 0.033058 0.000000 0.000000 0.128109 0.000000 0.000000 0.000000 0.000000 0.105882 0.000000 0.000000 0.000000 0.000000 0.000000 0.002941 0.018627 0.000000 0.082645 0.008264 0.000000 0.000000 0.000000 0.008264 0.099174 0.041322 0.216418 0.000000 0.000000 0.000000 0.000000 0.041176 0.000000 0.000000 0.000000 0.000000 0.000000 0.169608 0.000000 0.000000 0.000000 0.000000 0.000000 0.000000 0.024793 0.090909 0.033058 0.000000 0.110697 0
0.000000 0.000000 0.000000 0.000000 0.004161 0.000000 0.000000 0.000000 0.000000 0.000000 0.000000 0.000000 0.224688 0.017391 0.078261 0.026087 0.000000 0.000000 0.000000 0.000000 0.000000 0.104312 0.000000 0.000000 0.000000 0.000000 0.006935 0.000000 0.022191 0.000000 0.000000 0.037448 0.000000 0.000000 0.009709 0.008696 0.017391 0.078261 0.034783 0.069565 0.026087 0.008696 0.000000 0.257302 0.000000 0.000000 0.000000 0.000000 0.153953 0.000000 0.000000 0.000000 0.002774 0.000000 0.000000 0.000000 0.022191 0.078261 0.043478 0.000000 0.000000 0.000000 0.000000 0.000000 0.008696 0.154381 0.000000 0.000000 0.000000 0.000000 0.148405 0.000000 0.009709 0.000000 0.000000 0.009709 0.000000 0.000000 0.000000 0.000000 0.000000 0.000000 0.034783 0.095652 0.000000 0.000000 0.000000 0.165508 0.000000 0.000000 0.000000 0.000000 0.095700 0.000000 0.000000 0.000000 0.000000 0.000000 0.000000 0.066574 0.000000 0.060870 0.000000 0.000000 0.000000 0.000000 0.000000 0.060870 0.069565 0.171071 0.000000 0.000000 0.000000 0.000000 0.088766 0.000000 0.000000 0.000000 0.000000 0.000000 0.097087 0.000000 0.000000 0.000000 0.000000 0.000000 0.000000 0.043478 0.078261 0.060870 0.000000 0.147427 0
0.000000 0.000000 0.000000 0.000000 0.000000 0.000000 0.000000 0.000000 0.000000 0.000000 0.000000 0.000000 0.232295 0.008929 0.062500 0.000000 0.000000 0.000000 0.000000 0.000000 0.000000 0.048295 0.000000 0.000000 0.000000 0.000000 0.000000 0.000000 0.003777 0.000000 0.000000 0.109537 0.000000 0.000000 0.013220 0.008929 0.035714 0.053571 0.080357 0.026786 0.017857 0.000000 0.000000 0.227273 0.000000 0.000000 0.000000 0.000000 0.048159 0.000000 0.000000 0.000000 0.000000 0.000000 0.000000 0.000000 0.084042 0.044643 0.080357 0.017857 0.000000 0.000000 0.000000 0.000000 0.000000 0.198864 0.000000 0.000000 0.000000 0.000000 0.154863 0.000000 0.000000 0.000000 0.000000 0.012276 0.006610 0.000000 0.000000 0.000000 0.000000 0.000000 0.026786 0.071429 0.026786 0.000000 0.000000 0.156250 0.000000 0.000000 0.000000 0.000000 0.100094 0.000000 0.000000 0.000000 0.000000 0.000000 0.001889 0.016997 0.003777 0.071429 0.017857 0.000000 0.000000 0.000000 0.008929 0.116071 0.044643 0.241477 0.000000 0.000000 0.000000 0.000000 0.066100 0.000000 0.000000 0.000000 0.000000 0.000000 0.146364 0.000000 0.000000 0.000000 0.000000 0.000000 0.000000 0.017857 0.098214 0.062500 0.000000 0.127841 0
0.000000 0.000000 0.000000 0.000000 0.023839 0.000000 0.000000 0.000000 0.000000 0.001255 0.000000 0.000000 0.148055 0.038462 0.067308 0.048077 0.009615 0.000000 0.000000 0.000000 0.000000 0.139319 0.000000 0.000000 0.000000 0.000000 0.030113 0.000000 0.000000 0.000000 0.000000 0.111669 0.000000 0.000000 0.000000 0.000000 0.000000 0.086538 0.086538 0.019231 0.000000 0.000000 0.000000 0.196594 0.000000 0.000000 0.000000 0.000000 0.139272 0.000000 0.000000 0.000000 0.000000 0.000000 0.000000 0.000000 0.032622 0.057692 0.057692 0.000000 0.000000 0.000000 0.000000 0.000000 0.000000 0.140867 0.000000 0.000000 0.000000 0.000000 0.169385 0.000000 0.000000 0.000000 0.000000 0.002509 0.000000 0.000000 0.000000 0.000000 0.000000 0.000000 0.009615 0.096154 0.009615 0.000000 0.000000 0.159443 0.000000 0.000000 0.000000 0.000000 0.075282 0.000000 0.000000 0.001255 0.000000 0.000000 0.000000 0.074028 0.000000 0.038462 0.000000 0.000000 0.000000 0.000000 0.009615 0.067308 0.096154 0.196594 0.000000 0.000000 0.000000 0.000000 0.079046 0.000000 0.000000 0.000000 0.000000 0.000000 0.111669 0.000000 0.000000 0.000000 0.000000 0.000000 0.000000 0.019231 0.096154 0.086538 0.000000 0.167183 0
0.000000 0.000000 0.000000 0.000000 0.005398 0.000000 0.000000 0.000000 0.000000 0.000000 0.000000 0.000000 0.171390 0.036036 0.063063 0.045045 0.000000 0.000000 0.000000 0.000000 0.000000 0.154705 0.000000 0.000000 0.000000 0.000000 0.045884 0.000000 0.002699 0.000000 0.000000 0.047233 0.000000 0.000000 0.000000 0.000000 0.000000 0.117117 0.054054 0.045045 0.009009 0.000000 0.000000 0.250399 0.000000 0.000000 0.000000 0.000000 0.095816 0.000000 0.000000 0.000000 0.000000 0.000000 0.000000 0.000000 0.080972 0.081081 0.027027 0.000000 0.000000 0.000000 0.000000 0.000000 0.000000 0.154705 0.000000 0.000000 0.000000 0.000000 0.188934 0.000000 0.000000 0.000000 0.000000 0.000000 0.025641 0.000000 0.000000 0.000000 0.000000 0.000000 0.000000 0.081081 0.027027 0.000000 0.000000 0.110048 0.000000 0.000000 0.000000 0.000000 0.056680 0.000000 0.000000 0.009447 0.000000 0.000000 0.000000 0.075574 0.008097 0.054054 0.018018 0.018018 0.000000 0.000000 0.018018 0.090090 0.054054 0.186603 0.000000 0.000000 0.000000 0.000000 0.040486 0.000000 0.000000 0.000000 0.000000 0.000000 0.145749 0.000000 0.000000 0.000000 0.000000 0.000000 0.000000 0.018018 0.081081 0.063063 0.000000 0.143541 0
0.000000 0.000000 0.000000 0.000000 0.005144 0.000000 0.000000 0.000000 0.000000 0.000000 0.000000 0.000000 0.137860 0.047619 0.055556 0.079365 0.000000 0.000000 0.000000 0.000000 0.000000 0.192922 0.000000 0.000000 0.000000 0.000000 0.002058 0.001029 0.000000 0.000000 0.000000 0.162551 0.000000 0.000000 0.000000 0.000000 0.007937 0.047619 0.071429 0.047619 0.000000 0.000000 0.000000 0.167808 0.000000 0.000000 0.000000 0.000000 0.160494 0.000000 0.000000 0.000000 0.000000 0.000000 0.000000 0.000000 0.019547 0.071429 0.039683 0.000000 0.000000 0.000000 0.000000 0.000000 0.000000 0.151826 0.000000 0.000000 0.000000 0.000000 0.156379 0.000000 0.000000 0.000000 0.000000 0.021605 0.000000 0.000000 0.000000 0.000000 0.000000 0.007937 0.031746 0.079365 0.000000 0.000000 0.000000 0.154110 0.000000 0.000000 0.000000 0.000000 0.091564 0.000000 0.000000 0.000000 0.000000 0.000000 0.000000 0.056584 0.000000 0.047619 0.000000 0.000000 0.000000 0.000000 0.000000 0.103175 0.063492 0.187215 0.000000 0.000000 0.000000 0.000000 0.091564 0.000000 0.000000 0.000000 0.000000 0.000000 0.093621 0.000000 0.000000 0.000000 0.000000 0.000000 0.000000 0.023810 0.079365 0.095238 0.000000 0.146119 0
0.000000 0.000000 0.000000 0.000000 0.008940 0.000000 0.000000 0.000000 0.000000 0.000000 0.000000 0.000000 0.203065 0.018182 0.081818 0.027273 0.000000 0.000000 0.000000 0.000000 0.000000 0.106038 0.000000 0.000000 0.000000 0.000000 0.030651 0.000000 0.000000 0.000000 0.000000 0.047254 0.000000 0.000000 0.005109 0.000000 0.018182 0.072727 0.054545 0.072727 0.000000 0.000000 0.000000 0.254786 0.000000 0.000000 0.000000 0.000000 0.148148 0.000000 0.000000 0.000000 0.000000 0.000000 0.000000 0.000000 0.022989 0.081818 0.045455 0.000000 0.000000 0.000000 0.000000 0.000000 0.000000 0.153166 0.000000 0.000000 0.000000 0.000000 0.182631 0.000000 0.000000 0.000000 0.000000 0.000000 0.014049 0.000000 0.000000 0.000000 0.000000 0.000000 0.000000 0.109091 0.018182 0.000000 0.000000 0.123711 0.000000 0.000000 0.000000 0.000000 0.097063 0.000000 0.000000 0.000000 0.000000 0.000000 0.000000 0.052363 0.000000 0.081818 0.000000 0.000000 0.000000 0.000000 0.000000 0.090909 0.054545 0.203240 0.000000 0.000000 0.000000 0.000000 0.062580 0.000000 0.000000 0.000000 0.000000 0.000000 0.125160 0.000000 0.000000 0.000000 0.000000 0.000000 0.000000 0.036364 0.090909 0.045455 0.000000 0.159057 0
0.000000 0.000000 0.000000 0.000000 0.016634 0.000000 0.000000 0.000000 0.000000 0.000000 0.000000 0.000000 0.137965 0.026549 0.088496 0.044248 0.000000 0.000000 0.000000 0.000000 0.000000 0.164642 0.000000 0.000000 0.000000 0.000000 0.007828 0.000000 0.000000 0.000000 0.000000 0.157534 0.000000 0.000000 0.000000 0.000000 0.000000 0.026549 0.123894 0.000000 0.000000 0.000000 0.000000 0.168691 0.000000 0.000000 0.000000 0.000000 0.141879 0.000000 0.000000 0.000000 0.000000 0.000000 0.000000 0.000000 0.021526 0.079646 0.044248 0.000000 0.000000 0.000000 0.000000 0.000000 0.000000 0.152497 0.000000 0.000000 0.000000 0.000000 0.167319 0.000000 0.000000 0.000000 0.000000 0.009785 0.001957 0.000000 0.000000 0.000000 0.000000 0.000000 0.026549 0.079646 0.017699 0.000000 0.000000 0.149798 0.000000 0.000000 0.000000 0.000000 0.099804 0.000000 0.000000 0.000000 0.000000 0.000000 0.002935 0.029354 0.000000 0.079646 0.000000 0.000000 0.000000 0.000000 0.008850 0.106195 0.053097 0.222672 0.000000 0.000000 0.000000 0.000000 0.069472 0.000000 0.000000 0.000000 0.000000 0.000000 0.136008 0.000000 0.000000 0.000000 0.000000 0.000000 0.000000 0.026549 0.088496 0.079646 0.000000 0.141700 0
0.000000 0.000000 0.000000 0.000000 0.021918 0.000000 0.000000 0.000000 0.000000 0.000000 0.000000 0.000000 0.138356 0.029412 0.078431 0.049020 0.009804 0.000000 0.000000 0.000000 0.000000 0.154930 0.000000 0.000000 0.000000 0.000000 0.005479 0.000000 0.000000 0.000000 0.000000 0.176712 0.000000 0.000000 0.000000 0.000000 0.000000 0.039216 0.098039 0.009804 0.000000 0.000000 0.000000 0.148670 0.000000 0.000000 0.000000 0.000000 0.154795 0.000000 0.000000 0.000000 0.000000 0.000000 0.000000 0.000000 0.024658 0.078431 0.039216 0.000000 0.000000 0.000000 0.000000 0.000000 0.000000 0.133020 0.000000 0.000000 0.000000 0.000000 0.143836 0.000000 0.000000 0.000000 0.000000 0.023288 0.000000 0.000000 0.000000 0.000000 0.000000 0.000000 0.039216 0.078431 0.000000 0.000000 0.000000 0.165884 0.000000 0.000000 0.000000 0.000000 0.095890 0.000000 0.000000 0.000000 0.000000 0.000000 0.000000 0.034247 0.000000 0.068627 0.000000 0.000000 0.000000 0.000000 0.000000 0.107843 0.058824 0.217527 0.000000 0.000000 0.000000 0.000000 0.094521 0.000000 0.000000 0.000000 0.000000 0.000000 0.086301 0.000000 0.000000 0.000000 0.000000 0.000000 0.000000 0.029412 0.088235 0.098039 0.000000 0.179969 0
0.000000 0.000000 0.000000 0.000000 0.000000 0.000000 0.000000 0.000000 0.000000 0.000000 0.000000 0.000000 0.213732 0.026549 0.079646 0.017699 0.000000 0.000000 0.000000 0.000000 0.000000 0.099863 0.000000 0.000000 0.000000 0.000000 0.008859 0.000000 0.000000 0.000000 0.000000 0.128461 0.000000 0.000000 0.001107 0.000000 0.008850 0.035398 0.088496 0.035398 0.000000 0.000000 0.000000 0.192886 0.000000 0.000000 0.000000 0.000000 0.100775 0.000000 0.000000 0.000000 0.000000 0.000000 0.000000 0.000000 0.053156 0.053097 0.070796 0.000000 0.000000 0.000000 0.000000 0.000000 0.000000 0.173735 0.000000 0.000000 0.000000 0.000000 0.149502 0.000000 0.000000 0.000000 0.000000 0.017719 0.000000 0.000000 0.000000 0.000000 0.000000 0.000000 0.026549 0.097345 0.000000 0.000000 0.000000 0.157319 0.000000 0.000000 0.000000 0.000000 0.096346 0.000000 0.000000 0.000000 0.000000 0.000000 0.000000 0.055371 0.000000 0.070796 0.000000 0.000000 0.000000 0.000000 0.000000 0.097345 0.061947 0.202462 0.000000 0.000000 0.000000 0.000000 0.101883 0.000000 0.000000 0.000000 0.000000 0.000000 0.073090 0.000000 0.000000 0.000000 0.000000 0.000000 0.000000 0.061947 0.061947 0.106195 0.000000 0.173735 0
0.000000 0.000000 0.000000 0.000000 0.010889 0.000000 0.000000 0.000000 0.000000 0.000000 0.000000 0.000000 0.165154 0.035088 0.078947 0.035088 0.000000 0.000000 0.000000 0.000000 0.000000 0.151057 0.000000 0.000000 0.000000 0.000000 0.030853 0.000000 0.000000 0.000000 0.000000 0.095281 0.000000 0.000000 0.000000 0.000000 0.000000 0.070175 0.087719 0.035088 0.000000 0.000000 0.000000 0.234139 0.000000 0.000000 0.000000 0.000000 0.136116 0.000000 0.000000 0.000000 0.000000 0.000000 0.000000 0.000000 0.038113 0.070175 0.052632 0.008772 0.000000 0.000000 0.000000 0.000000 0.000000 0.154079 0.000000 0.000000 0.000000 0.000000 0.161525 0.000000 0.000000 0.000000 0.000000 0.005445 0.008167 0.000000 0.000000 0.000000 0.000000 0.000000 0.017544 0.078947 0.026316 0.000000 0.000000 0.152568 0.000000 0.000000 0.000000 0.000000 0.095281 0.000000 0.000000 0.000000 0.000000 0.000000 0.006352 0.040835 0.000907 0.052632 0.008772 0.000000 0.000000 0.000000 0.008772 0.105263 0.061404 0.205438 0.000000 0.000000 0.000000 0.000000 0.068058 0.000000 0.000000 0.000000 0.000000 0.000000 0.137024 0.000000 0.000000 0.000000 0.000000 0.000000 0.000000 0.008772 0.096491 0.061404 0.000000 0.102719 0
0.000000 0.000000 0.000000 0.000000 0.000000 0.000000 0.000000 0.000000 0.000000 0.000000 0.000000 0.000000 0.159800 0.046729 0.074766 0.037383 0.000000 0.000000 0.000000 0.000000 0.000000 0.166415 0.000000 0.000000 0.000000 0.000000 0.000000 0.000000 0.000000 0.000000 0.000000 0.179775 0.000000 0.000000 0.000000 0.000000 0.000000 0.028037 0.093458 0.037383 0.000000 0.000000 0.000000 0.142209 0.000000 0.000000 0.000000 0.000000 0.112360 0.000000 0.000000 0.000000 0.000000 0.000000 0.000000 0.000000 0.029963 0.084112 0.046729 0.000000 0.000000 0.000000 0.000000 0.000000 0.000000 0.187595 0.000000 0.000000 0.000000 0.000000 0.157303 0.000000 0.000000 0.000000 0.000000 0.009988 0.004994 0.000000 0.000000 0.000000 0.000000 0.000000 0.028037 0.093458 0.009346 0.000000 0.000000 0.151286 0.000000 0.000000 0.000000 0.000000 0.099875 0.000000 0.000000 0.000000 0.000000 0.000000 0.001248 0.048689 0.000000 0.084112 0.000000 0.000000 0.000000 0.000000 0.009346 0.084112 0.056075 0.204236 0.000000 0.000000 0.000000 0.000000 0.063670 0.000000 0.000000 0.000000 0.000000 0.000000 0.132335 0.000000 0.000000 0.000000 0.000000 0.000000 0.000000 0.037383 0.084112 0.065421 0.000000 0.148260 0
0.000000 0.000000 0.000000 0.000000 0.000000 0.000000 0.000000 0.000000 0.000000 0.000000 0.000000 0.000000 0.213376 0.017699 0.061947 0.044248 0.000000 0.000000 0.000000 0.000000 0.000000 0.088435 0.000000 0.000000 0.000000 0.000000 0.045648 0.000000 0.000000 0.000000 0.000000 0.049894 0.000000 0.000000 0.016985 0.008850 0.026549 0.070796 0.070796 0.053097 0.000000 0.000000 0.000000 0.236735 0.000000 0.000000 0.000000 0.000000 0.107219 0.000000 0.000000 0.000000 0.000000 0.000000 0.000000 0.000000 0.042463 0.070796 0.053097 0.000000 0.000000 0.000000 0.000000 0.000000 0.000000 0.170068 0.000000 0.000000 0.000000 0.000000 0.173036 0.000000 0.000000 0.000000 0.000000 0.000000 0.010616 0.000000 0.000000 0.000000 0.000000 0.000000 0.000000 0.106195 0.017699 0.000000 0.000000 0.145578 0.000000 0.000000 0.000000 0.000000 0.067941 0.000000 0.000000 0.000000 0.000000 0.000000 0.007431 0.050955 0.001062 0.053097 0.008850 0.000000 0.000000 0.000000 0.017699 0.070796 0.070796 0.224490 0.000000 0.000000 0.000000 0.000000 0.021231 0.000000 0.000000 0.002123 0.000000 0.000000 0.190021 0.000000 0.000000 0.000000 0.000000 0.000000 0.000000 0.017699 0.097345 0.053097 0.008850 0.134694 0
0.000000 0.000000 0.000000 0.000000 0.001351 0.000000 0.000000 0.000000 0.000000 0.000000 0.000000 0.000000 0.193243 0.010101 0.070707 0.040404 0.000000 0.000000 0.000000 0.000000 0.000000 0.097297 0.000000 0.000000 0.000000 0.000000 0.074324 0.000000 0.000000 0.000000 0.000000 0.048649 0.000000 0.000000 0.010811 0.000000 0.020202 0.101010 0.050505 0.060606 0.000000 0.000000 0.000000 0.198198 0.000000 0.000000 0.000000 0.000000 0.100000 0.000000 0.000000 0.000000 0.000000 0.000000 0.000000 0.000000 0.032432 0.040404 0.070707 0.000000 0.000000 0.000000 0.000000 0.000000 0.000000 0.180180 0.000000 0.000000 0.000000 0.000000 0.198649 0.000000 0.000000 0.000000 0.000000 0.005405 0.002703 0.000000 0.000000 0.000000 0.000000 0.000000 0.010101 0.090909 0.010101 0.000000 0.000000 0.100901 0.000000 0.000000 0.000000 0.000000 0.056757 0.000000 0.000000 0.000000 0.000000 0.000000 0.010811 0.048649 0.000000 0.060606 0.000000 0.000000 0.000000 0.000000 0.020202 0.080808 0.070707 0.266667 0.000000 0.000000 0.000000 0.000000 0.032432 0.000000 0.000000 0.000000 0.000000 0.000000 0.183784 0.000000 0.000000 0.000000 0.000000 0.000000 0.000000 0.010101 0.090909 0.090909 0.000000 0.156757 0
0.000000 0.000000 0.000000 0.000000 0.006637 0.000000 0.000000 0.000000 0.000000 0.000000 0.000000 0.000000 0.188053 0.007812 0.078125 0.031250 0.000000 0.000000 0.000000 0.000000 0.000000 0.106719 0.000000 0.000000 0.000000 0.000000 0.090708 0.002212 0.000000 0.000000 0.000000 0.007375 0.000000 0.000000 0.025811 0.000000 0.031250 0.109375 0.039062 0.085938 0.000000 0.000000 0.000000 0.249012 0.000000 0.000000 0.000000 0.000000 0.116519 0.000000 0.000000 0.000000 0.000000 0.000000 0.000000 0.000000 0.047935 0.054688 0.062500 0.000000 0.000000 0.000000 0.000000 0.000000 0.000000 0.160738 0.000000 0.000000 0.000000 0.000000 0.164454 0.000000 0.000000 0.000000 0.000000 0.000000 0.032448 0.000000 0.000000 0.000000 0.000000 0.000000 0.000000 0.054688 0.062500 0.007812 0.000000 0.122530 0.000000 0.000000 0.000000 0.000000 0.088496 0.000000 0.000000 0.000000 0.001475 0.000000 0.008850 0.016224 0.000737 0.054688 0.015625 0.000000 0.000000 0.000000 0.023438 0.109375 0.046875 0.247694 0.000000 0.000000 0.000000 0.000000 0.016962 0.000000 0.000000 0.000000 0.000000 0.000000 0.185103 0.000000 0.000000 0.000000 0.000000 0.000000 0.000000 0.007812 0.078125 0.039062 0.000000 0.113307 0
0.000000 0.000000 0.000000 0.000000 0.008649 0.000000 0.000000 0.000000 0.000000 0.000000 0.000000 0.000000 0.192432 0.017241 0.068966 0.051724 0.000000 0.000000 0.000000 0.000000 0.000000 0.105939 0.000000 0.000000 0.000000 0.000000 0.097297 0.006486 0.003243 0.000000 0.000000 0.016216 0.006486 0.000000 0.004324 0.000000 0.025862 0.103448 0.060345 0.034483 0.025862 0.008621 0.000000 0.224719 0.000000 0.000000 0.000000 0.000000 0.103784 0.000000 0.000000 0.000000 0.002162 0.000000 0.000000 0.000000 0.058378 0.034483 0.051724 0.017241 0.000000 0.000000 0.000000 0.000000 0.017241 0.160514 0.000000 0.000000 0.000000 0.000000 0.154595 0.000000 0.001081 0.000000 0.000000 0.000000 0.044324 0.000000 0.000000 0.000000 0.000000 0.000000 0.008621 0.051724 0.043103 0.000000 0.000000 0.126806 0.000000 0.000000 0.000000 0.000000 0.056216 0.000000 0.000000 0.000000 0.004324 0.000000 0.016216 0.011892 0.003243 0.025862 0.025862 0.000000 0.000000 0.000000 0.017241 0.120690 0.051724 0.268058 0.000000 0.000000 0.000000 0.000000 0.018378 0.000000 0.000000 0.000000 0.000000 0.000000 0.190270 0.000000 0.000000 0.000000 0.000000 0.000000 0.000000 0.008621 0.068966 0.060345 0.000000 0.113965 0
0.000000 0.000000 0.000000 0.000000 0.000000 0.000000 0.000000 0.000000 0.000000 0.000000 0.000000 0.000000 0.224000 0.010309 0.051546 0.030928 0.000000 0.000000 0.000000 0.000000 0.000000 0.067925 0.000000 0.000000 0.000000 0.000000 0.046400 0.004800 0.000000 0.000000 0.000000 0.025600 0.000000 0.000000 0.022400 0.000000 0.051546 0.082474 0.030928 0.092784 0.000000 0.000000 0.000000 0.235849 0.000000 0.000000 0.000000 0.000000 0.067200 0.000000 0.000000 0.000000 0.000000 0.000000 0.000000 0.000000 0.075200 0.051546 0.061856 0.010309 0.000000 0.000000 0.000000 0.000000 0.000000 0.164151 0.000000 0.000000 0.000000 0.000000 0.164800 0.000000 0.000000 0.000000 0.000000 0.000000 0.027200 0.000000 0.000000 0.000000 0.000000 0.000000 0.000000 0.082474 0.030928 0.000000 0.000000 0.126415 0.000000 0.000000 0.000000 0.000000 0.081600 0.000000 0.000000 0.000000 0.000000 0.000000 0.006400 0.016000 0.001600 0.092784 0.010309 0.000000 0.000000 0.000000 0.010309 0.113402 0.030928 0.267925 0.000000 0.000000 0.000000 0.000000 0.046400 0.000000 0.000000 0.000000 0.000000 0.000000 0.190400 0.000000 0.000000 0.000000 0.000000 0.000000 0.000000 0.010309 0.103093 0.041237 0.000000 0.137736 0
0.000000 0.000000 0.000000 0.000000 0.000000 0.000000 0.000000 0.000000 0.000000 0.000000 0.000000 0.000000 0.245958 0.000000 0.000000 0.000000 0.000000 0.000000 0.000000 0.000000 0.000000 0.060372 0.000000 0.000000 0.000000 0.000000 0.054273 0.000000 0.000000 0.000000 0.000000 0.043880 0.000000 0.000000 0.019630 0.500000 0.000000 0.000000 0.000000 0.500000 0.000000 0.000000 0.000000 0.232198 0.000000 0.000000 0.000000 0.000000 0.061201 0.000000 0.000000 0.000000 0.002309 0.000000 0.000000 0.000000 0.085450 0.000000 0.000000 0.000000 0.000000 0.000000 0.000000 0.000000 0.000000 0.190402 0.000000 0.000000 0.000000 0.000000 0.118938 0.000000 0.003464 0.000000 0.000000 0.000000 0.064665 0.000000 0.000000 0.000000 0.000000 0.000000 0.000000 0.000000 0.000000 0.000000 0.000000 0.139319 0.000000 0.000000 0.000000 0.000000 0.026559 0.000000 0.000000 0.000000 0.000000 0.000000 0.009238 0.046189 0.002309 0.000000 0.000000 0.000000 0.000000 0.000000 0.000000 0.000000 0.000000 0.277090 0.000000 0.000000 0.000000 0.000000 0.002309 0.000000 0.000000 0.000000 0.000000 0.000000 0.213626 0.000000 0.000000 0.000000 0.000000 0.000000 0.000000 0.000000 0.000000 0.000000 0.000000 0.100619 0
0.000000 0.000000 0.000000 0.000000 0.003261 0.000000 0.000000 0.000000 0.000000 0.000000 0.000000 0.000000 0.207609 0.008772 0.061404 0.052632 0.000000 0.000000 0.000000 0.000000 0.000000 0.103125 0.000000 0.000000 0.000000 0.000000 0.097826 0.001087 0.000000 0.000000 0.000000 0.019565 0.000000 0.000000 0.017391 0.008772 0.035088 0.078947 0.052632 0.070175 0.000000 0.000000 0.000000 0.210938 0.000000 0.000000 0.000000 0.000000 0.127174 0.000000 0.000000 0.000000 0.000000 0.000000 0.000000 0.000000 0.041304 0.061404 0.052632 0.008772 0.000000 0.000000 0.000000 0.000000 0.000000 0.164062 0.000000 0.000000 0.000000 0.000000 0.181522 0.000000 0.000000 0.000000 0.000000 0.000000 0.014130 0.000000 0.000000 0.000000 0.000000 0.000000 0.000000 0.078947 0.035088 0.000000 0.000000 0.125000 0.000000 0.000000 0.000000 0.000000 0.073913 0.000000 0.000000 0.000000 0.000000 0.000000 0.006522 0.018478 0.000000 0.070175 0.000000 0.000000 0.000000 0.000000 0.017544 0.105263 0.043860 0.264062 0.000000 0.000000 0.000000 0.000000 0.026087 0.000000 0.000000 0.000000 0.000000 0.000000 0.164130 0.000000 0.000000 0.000000 0.000000 0.000000 0.000000 0.017544 0.070175 0.070175 0.000000 0.132812 0
0.000000 0.000000 0.000000 0.000000 0.015831 0.000000 0.000000 0.000000 0.002639 0.000000 0.000000 0.000000 0.162269 0.009174 0.073394 0.045872 0.000000 0.000000 0.000000 0.000000 0.009174 0.137631 0.000000 0.000000 0.000000 0.000000 0.097625 0.000000 0.001319 0.000000 0.000000 0.034301 0.000000 0.000000 0.002639 0.000000 0.009174 0.119266 0.036697 0.055046 0.018349 0.000000 0.000000 0.196864 0.000000 0.000000 0.000000 0.000000 0.120053 0.000000 0.000000 0.000000 0.001319 0.000000 0.000000 0.000000 0.042216 0.055046 0.045872 0.009174 0.000000 0.000000 0.000000 0.000000 0.009174 0.160279 0.000000 0.000000 0.000000 0.000000 0.156992 0.000000 0.003958 0.000000 0.000000 0.000000 0.025066 0.000000 0.000000 0.000000 0.000000 0.000000 0.027523 0.027523 0.055046 0.000000 0.000000 0.130662 0.000000 0.000000 0.000000 0.000000 0.081794 0.000000 0.000000 0.002639 0.005277 0.000000 0.006596 0.022427 0.005277 0.036697 0.027523 0.000000 0.000000 0.000000 0.027523 0.082569 0.064220 0.243902 0.000000 0.000000 0.000000 0.000000 0.021108 0.000000 0.000000 0.000000 0.000000 0.000000 0.188654 0.000000 0.000000 0.000000 0.000000 0.000000 0.000000 0.027523 0.064220 0.064220 0.000000 0.130662 0
0.000000 0.000000 0.000000 0.000000 0.006770 0.000000 0.000000 0.000000 0.000000 0.000000 0.000000 0.000000 0.195358 0.025210 0.075630 0.016807 0.000000 0.000000 0.000000 0.000000 0.000000 0.105409 0.000000 0.000000 0.000000 0.000000 0.088008 0.000967 0.000000 0.000000 0.000000 0.024178 0.000000 0.000000 0.002901 0.000000 0.025210 0.100840 0.033613 0.100840 0.000000 0.000000 0.000000 0.249653 0.000000 0.000000 0.000000 0.000000 0.105416 0.000000 0.000000 0.000000 0.000000 0.000000 0.000000 0.000000 0.059961 0.075630 0.050420 0.000000 0.000000 0.000000 0.000000 0.000000 0.000000 0.158114 0.000000 0.000000 0.000000 0.000000 0.135397 0.000000 0.000000 0.000000 0.000000 0.000000 0.055126 0.000000 0.000000 0.000000 0.000000 0.000000 0.000000 0.058824 0.067227 0.008403 0.000000 0.142857 0.000000 0.000000 0.000000 0.000000 0.066731 0.000000 0.000000 0.000000 0.000000 0.000000 0.009671 0.012573 0.009671 0.075630 0.016807 0.000000 0.000000 0.000000 0.025210 0.092437 0.033613 0.253814 0.000000 0.000000 0.000000 0.000000 0.012573 0.000000 0.000000 0.000000 0.000000 0.000000 0.214700 0.000000 0.000000 0.000000 0.000000 0.000000 0.000000 0.025210 0.067227 0.025210 0.000000 0.090153 0
0.000000 0.000000 0.000000 0.000000 0.001060 0.000000 0.000000 0.000000 0.000000 0.000000 0.000000 0.000000 0.222694 0.000000 0.076271 0.033898 0.000000 0.000000 0.000000 0.000000 0.000000 0.091799 0.000000 0.000000 0.000000 0.000000 0.011665 0.000000 0.000000 0.000000 0.000000 0.059385 0.000000 0.000000 0.012725 0.000000 0.025424 0.093220 0.059322 0.050847 0.000000 0.000000 0.000000 0.253366 0.000000 0.000000 0.000000 0.000000 0.111347 0.000000 0.000000 0.000000 0.000000 0.000000 0.000000 0.000000 0.064687 0.050847 0.059322 0.000000 0.000000 0.000000 0.000000 0.000000 0.000000 0.146879 0.000000 0.000000 0.000000 0.000000 0.180276 0.000000 0.000000 0.000000 0.000000 0.000000 0.010604 0.000000 0.000000 0.000000 0.000000 0.000000 0.000000 0.067797 0.042373 0.000000 0.000000 0.129743 0.000000 0.000000 0.000000 0.000000 0.071050 0.000000 0.000000 0.011665 0.000000 0.000000 0.000000 0.022269 0.005302 0.059322 0.016949 0.000000 0.000000 0.000000 0.016949 0.118644 0.042373 0.249694 0.000000 0.000000 0.000000 0.000000 0.018028 0.000000 0.001060 0.002121 0.000000 0.000000 0.194062 0.000000 0.000000 0.008475 0.000000 0.000000 0.008475 0.016949 0.084746 0.059322 0.008475 0.128519 0
0.000000 0.000000 0.000000 0.000000 0.000000 0.000000 0.000000 0.000000 0.000000 0.000000 0.000000 0.000000 0.254448 0.019048 0.047619 0.028571 0.000000 0.000000 0.000000 0.000000 0.000000 0.062738 0.000000 0.000000 0.000000 0.005338 0.023132 0.000000 0.039146 0.000000 0.000000 0.000000 0.000000 0.000000 0.028470 0.000000 0.028571 0.123810 0.028571 0.066667 0.019048 0.038095 0.009524 0.231939 0.000000 0.000000 0.000000 0.000000 0.080071 0.000000 0.000000 0.000000 0.000000 0.000000 0.000000 0.000000 0.071174 0.047619 0.057143 0.009524 0.000000 0.000000 0.000000 0.000000 0.000000 0.173004 0.000000 0.000000 0.000000 0.000000 0.154804 0.000000 0.021352 0.000000 0.000000 0.000000 0.012456 0.000000 0.000000 0.000000 0.000000 0.000000 0.038095 0.038095 0.028571 0.000000 0.000000 0.133080 0.000000 0.000000 0.000000 0.000000 0.060498 0.000000 0.000000 0.000000 0.001779 0.000000 0.008897 0.023132 0.003559 0.047619 0.019048 0.000000 0.000000 0.000000 0.019048 0.085714 0.047619 0.260456 0.000000 0.000000 0.000000 0.000000 0.017794 0.000000 0.000000 0.000000 0.000000 0.000000 0.193950 0.000000 0.000000 0.000000 0.000000 0.000000 0.000000 0.019048 0.066667 0.066667 0.000000 0.138783 0
0.000000 0.000000 0.000000 0.000000 0.002664 0.000000 0.000000 0.000000 0.000000 0.000000 0.000000 0.000000 0.207815 0.008403 0.067227 0.033613 0.000000 0.000000 0.000000 0.000000 0.000000 0.086835 0.000000 0.000000 0.000000 0.000000 0.064831 0.000000 0.000888 0.000000 0.000000 0.031972 0.001776 0.000000 0.015986 0.000000 0.025210 0.117647 0.050420 0.042017 0.016807 0.000000 0.000000 0.236695 0.000000 0.000000 0.000000 0.000000 0.094139 0.000000 0.000000 0.000000 0.000000 0.000000 0.000000 0.000000 0.066607 0.042017 0.067227 0.008403 0.000000 0.000000 0.000000 0.000000 0.000000 0.165266 0.000000 0.000000 0.000000 0.000000 0.130551 0.000000 0.002664 0.000000 0.000000 0.000000 0.042629 0.000000 0.000000 0.000000 0.000000 0.000000 0.008403 0.042017 0.058824 0.025210 0.000000 0.141457 0.000000 0.000000 0.000000 0.000000 0.071936 0.000000 0.000000 0.000000 0.000000 0.000000 0.018650 0.017762 0.002664 0.067227 0.016807 0.000000 0.000000 0.000000 0.033613 0.117647 0.033613 0.275910 0.000000 0.000000 0.000000 0.000000 0.003552 0.000000 0.000000 0.000000 0.000000 0.000000 0.222913 0.000000 0.000000 0.000000 0.000000 0.000000 0.000000 0.008403 0.067227 0.042017 0.000000 0.093838 0
0.000000 0.000000 0.000000 0.000000 0.000000 0.000000 0.000000 0.000000 0.000000 0.000000 0.000000 0.000000 0.224649 0.000000 0.000000 0.000000 0.000000 0.000000 0.000000 0.000000 0.000000 0.091278 0.000000 0.000000 0.000000 0.000000 0.039782 0.000000 0.000000 0.000000 0.000000 0.045242 0.000000 0.000000 0.003900 0.000000 0.000000 0.000000 0.000000 0.000000 0.000000 0.000000 0.000000 0.267748 0.000000 0.000000 0.000000 0.000000 0.095944 0.000000 0.000000 0.000000 0.000000 0.000000 0.000000 0.000000 0.059282 0.125000 0.125000 0.125000 0.000000 0.250000 0.125000 0.000000 0.000000 0.181542 0.000000 0.000000 0.000000 0.000000 0.166927 0.000000 0.000000 0.000000 0.000000 0.000000 0.026521 0.000000 0.000000 0.000000 0.000000 0.000000 0.000000 0.000000 0.000000 0.000000 0.000000 0.131846 0.000000 0.000000 0.000000 0.000000 0.088924 0.000000 0.000000 0.000780 0.000000 0.000000 0.006240 0.012480 0.000000 0.125000 0.000000 0.000000 0.000000 0.000000 0.000000 0.125000 0.000000 0.242394 0.000000 0.000000 0.000000 0.000000 0.010920 0.000000 0.000000 0.000000 0.000000 0.000000 0.218409 0.000000 0.000000 0.000000 0.000000 0.000000 0.000000 0.000000 0.000000 0.000000 0.000000 0.085193 0
0.000000 0.000000 0.000000 0.000000 0.001095 0.000000 0.000000 0.000000 0.000000 0.000000 0.000000 0.000000 0.216320 0.026667 0.040000 0.026667 0.000000 0.000000 0.000000 0.000000 0.000000 0.055399 0.000000 0.000000 0.000000 0.000000 0.048740 0.000000 0.000000 0.000000 0.000000 0.028478 0.000000 0.000000 0.021906 0.006667 0.046667 0.060000 0.053333 0.073333 0.000000 0.000000 0.000000 0.276056 0.000000 0.000000 0.000000 0.000000 0.090361 0.000000 0.000000 0.000000 0.000000 0.000000 0.000000 0.000000 0.072289 0.046667 0.080000 0.000000 0.000000 0.000000 0.000000 0.000000 0.000000 0.149296 0.000000 0.000000 0.000000 0.000000 0.165936 0.000000 0.000000 0.000000 0.000000 0.000000 0.014786 0.000000 0.000000 0.000000 0.000000 0.000000 0.000000 0.093333 0.033333 0.000000 0.000000 0.136150 0.000000 0.000000 0.000000 0.000000 0.115005 0.000000 0.000000 0.000548 0.000000 0.000000 0.004381 0.014239 0.003286 0.086667 0.013333 0.000000 0.000000 0.000000 0.020000 0.086667 0.046667 0.237559 0.000000 0.000000 0.000000 0.000000 0.053122 0.000000 0.000000 0.000000 0.000000 0.000000 0.149507 0.000000 0.000000 0.000000 0.000000 0.000000 0.000000 0.026667 0.093333 0.040000 0.000000 0.145540 0
0.000000 0.000000 0.000000 0.000000 0.000000 0.000000 0.000000 0.000000 0.000000 0.000000 0.000000 0.000000 0.223006 0.021583 0.071942 0.007194 0.000000 0.000000 0.000000 0.000000 0.000000 0.085028 0.000000 0.000000 0.000000 0.000000 0.062809 0.000000 0.000000 0.000000 0.000000 0.028934 0.000000 0.000000 0.011291 0.000000 0.021583 0.107914 0.043165 0.079137 0.000000 0.000000 0.000000 0.257856 0.000000 0.000000 0.000000 0.000000 0.067043 0.000000 0.000000 0.000000 0.000000 0.000000 0.000000 0.000000 0.072689 0.050360 0.071942 0.014388 0.000000 0.000000 0.000000 0.000000 0.000000 0.194085 0.000000 0.000000 0.000000 0.000000 0.175723 0.000000 0.000000 0.000000 0.000000 0.000000 0.019760 0.000000 0.000000 0.000000 0.000000 0.000000 0.000000 0.079137 0.043165 0.000000 0.000000 0.136784 0.000000 0.000000 0.000000 0.000000 0.096683 0.000000 0.000000 0.002117 0.000000 0.000000 0.003529 0.031052 0.000000 0.057554 0.007194 0.000000 0.000000 0.000000 0.021583 0.079137 0.064748 0.202403 0.000000 0.000000 0.000000 0.000000 0.035992 0.000000 0.000000 0.000000 0.000000 0.000000 0.169372 0.000000 0.000000 0.000000 0.000000 0.000000 0.000000 0.021583 0.079137 0.057554 0.000000 0.123845 0
0.000000 0.000000 0.000000 0.000000 0.000000 0.000000 0.000000 0.000000 0.000000 0.000000 0.000000 0.000000 0.233986 0.000000 0.000000 0.000000 0.000000 0.000000 0.000000 0.000000 0.000000 0.068386 0.000000 0.000000 0.000000 0.000000 0.024021 0.000000 0.011566 0.000000 0.000000 0.047153 0.000000 0.000000 0.019573 0.000000 0.000000 0.000000 0.000000 0.000000 0.000000 0.000000 0.000000 0.234305 0.000000 0.000000 0.000000 0.000000 0.093416 0.000000 0.000000 0.000000 0.000000 0.000000 0.000000 0.000000 0.066726 0.000000 0.000000 0.000000 0.000000 0.000000 0.000000 0.000000 0.000000 0.161435 0.000000 0.000000 0.000000 0.000000 0.162811 0.000000 0.000000 0.000000 0.000000 0.001779 0.001779 0.000000 0.000000 1.000000 0.000000 0.000000 0.000000 0.000000 0.000000 0.000000 0.000000 0.153587 0.000000 0.000000 0.000000 0.000000 0.114769 0.000000 0.000000 0.000000 0.000000 0.000000 0.002669 0.021352 0.000000 0.000000 0.000000 0.000000 0.000000 0.000000 0.000000 0.000000 0.000000 0.228700 0.000000 0.000000 0.000000 0.000000 0.055160 0.000000 0.000000 0.000000 0.000000 0.000000 0.143238 0.000000 0.000000 0.000000 0.000000 0.000000 0.000000 0.000000 0.000000 0.000000 0.000000 0.153587 0
0.000000 0.000000 0.000000 0.000000 0.001965 0.000000 0.000000 0.000000 0.000000 0.000000 0.000000 0.000000 0.200393 0.042553 0.070922 0.007092 0.000000 0.000000 0.000000 0.000000 0.000000 0.087613 0.000000 0.000000 0.000000 0.000000 0.049116 0.000000 0.000000 0.000000 0.000000 0.042567 0.000000 0.000000 0.003929 0.000000 0.007092 0.078014 0.070922 0.056738 0.000000 0.000000 0.000000 0.269889 0.000000 0.000000 0.000000 0.000000 0.090373 0.000000 0.000000 0.000000 0.000000 0.000000 0.000000 0.000000 0.065488 0.056738 0.070922 0.000000 0.000000 0.000000 0.000000 0.000000 0.000000 0.159114 0.000000 0.000000 0.000000 0.000000 0.178782 0.000000 0.000000 0.000000 0.000000 0.000000 0.009168 0.000000 0.000000 0.000000 0.000000 0.000000 0.000000 0.092199 0.035461 0.000000 0.000000 0.127895 0.000000 0.000000 0.000000 0.000000 0.108055 0.000000 0.000000 0.000000 0.000000 0.000000 0.009823 0.018337 0.005239 0.092199 0.007092 0.000000 0.000000 0.000000 0.021277 0.085106 0.042553 0.225579 0.000000 0.000000 0.000000 0.000000 0.035363 0.000000 0.000000 0.000000 0.000000 0.000000 0.181401 0.000000 0.000000 0.000000 0.000000 0.000000 0.000000 0.035461 0.078014 0.049645 0.000000 0.129909 0
0.000000 0.000000 0.000000 0.000000 0.001759 0.000000 0.000000 0.000000 0.000000 0.000000 0.000000 0.000000 0.214600 0.031496 0.062992 0.023622 0.000000 0.000000 0.000000 0.000000 0.000000 0.086466 0.000000 0.000000 0.000000 0.000000 0.080035 0.000000 0.001759 0.000000 0.000000 0.038698 0.000000 0.000000 0.005277 0.000000 0.015748 0.102362 0.062992 0.039370 0.015748 0.000000 0.000000 0.234336 0.000000 0.000000 0.000000 0.000000 0.096746 0.000000 0.000000 0.000000 0.000880 0.000000 0.000000 0.000000 0.062445 0.047244 0.062992 0.015748 0.000000 0.000000 0.000000 0.000000 0.007874 0.166667 0.000000 0.000000 0.000000 0.000000 0.161829 0.000000 0.003518 0.000000 0.000000 0.000000 0.022867 0.000000 0.000000 0.000000 0.000000 0.000000 0.007874 0.055118 0.055118 0.007874 0.000000 0.145363 0.000000 0.000000 0.000000 0.000000 0.081794 0.000000 0.000000 0.000000 0.002639 0.000000 0.007916 0.021988 0.000000 0.047244 0.023622 0.000000 0.000000 0.000000 0.015748 0.110236 0.047244 0.231830 0.000000 0.000000 0.000000 0.000000 0.016711 0.000000 0.000000 0.000000 0.000000 0.000000 0.178540 0.000000 0.000000 0.000000 0.000000 0.000000 0.000000 0.023622 0.070866 0.047244 0.000000 0.135338 0
0.000000 0.000000 0.000000 0.000000 0.000000 0.000000 0.000000 0.000000 0.000000 0.000000 0.000000 0.000000 0.210443 0.015625 0.062500 0.015625 0.000000 0.000000 0.000000 0.000000 0.000000 0.075206 0.000000 0.000000 0.000000 0.000000 0.060127 0.000000 0.000000 0.000000 0.000000 0.043513 0.000000 0.000000 0.009494 0.000000 0.031250 0.070312 0.070312 0.046875 0.000000 0.000000 0.000000 0.237368 0.000000 0.000000 0.000000 0.000000 0.085443 0.000000 0.000000 0.000000 0.000000 0.000000 0.000000 0.000000 0.064082 0.046875 0.070312 0.015625 0.000000 0.000000 0.000000 0.000000 0.000000 0.165687 0.000000 0.000000 0.000000 0.000000 0.167722 0.000000 0.000000 0.000000 0.000000 0.000000 0.015032 0.000000 0.000000 0.000000 0.000000 0.000000 0.000000 0.093750 0.023438 0.000000 0.000000 0.133960 0.000000 0.000000 0.000000 0.000000 0.128165 0.000000 0.000000 0.000000 0.000000 0.000000 0.000000 0.014241 0.003165 0.093750 0.007812 0.000000 0.000000 0.000000 0.000000 0.132812 0.031250 0.223267 0.000000 0.000000 0.000000 0.000000 0.060127 0.000000 0.000000 0.000000 0.000000 0.000000 0.138449 0.000000 0.000000 0.000000 0.000000 0.000000 0.000000 0.015625 0.109375 0.046875 0.000000 0.164512 0
0.000000 0.000000 0.000000 0.000000 0.002672 0.000000 0.000000 0.000000 0.000000 0.000000 0.000000 0.000000 0.186373 0.020979 0.062937 0.048951 0.000000 0.000000 0.000000 0.000000 0.000000 0.126815 0.000000 0.000000 0.000000 0.000000 0.049432 0.000000 0.000000 0.000000 0.000000 0.048764 0.000000 0.000000 0.017368 0.000000 0.034965 0.069930 0.048951 0.076923 0.000000 0.000000 0.000000 0.233301 0.000000 0.000000 0.000000 0.000000 0.106212 0.000000 0.000000 0.000000 0.000000 0.000000 0.000000 0.000000 0.046092 0.076923 0.048951 0.000000 0.000000 0.000000 0.000000 0.000000 0.000000 0.180058 0.000000 0.000000 0.000000 0.000000 0.155645 0.000000 0.000000 0.000000 0.000000 0.000000 0.026052 0.000000 0.000000 0.000000 0.000000 0.000000 0.000000 0.069930 0.055944 0.000000 0.000000 0.137464 0.000000 0.000000 0.000000 0.000000 0.111556 0.000000 0.000000 0.000000 0.000000 0.000000 0.015364 0.010020 0.000000 0.104895 0.000000 0.000000 0.000000 0.000000 0.034965 0.090909 0.027972 0.224589 0.000000 0.000000 0.000000 0.000000 0.014696 0.000000 0.000000 0.000000 0.000000 0.000000 0.209753 0.000000 0.000000 0.000000 0.000000 0.000000 0.000000 0.020979 0.069930 0.034965 0.000000 0.097773 0
0.000000 0.000000 0.000000 0.000000 0.004728 0.000000 0.000000 0.000000 0.000000 0.000000 0.000000 0.000000 0.157801 0.012821 0.064103 0.070513 0.000000 0.000000 0.000000 0.000000 0.000000 0.153475 0.000000 0.000000 0.000000 0.000000 0.045508 0.000000 0.000000 0.000000 0.000000 0.073286 0.000000 0.000000 0.000591 0.000000 0.006410 0.102564 0.070513 0.019231 0.000000 0.000000 0.000000 0.223938 0.000000 0.000000 0.000000 0.000000 0.150709 0.000000 0.000000 0.000000 0.000000 0.000000 0.000000 0.000000 0.019504 0.038462 0.051282 0.012821 0.000000 0.000000 0.000000 0.000000 0.000000 0.140927 0.000000 0.000000 0.000000 0.000000 0.199173 0.000000 0.000000 0.000000 0.000000 0.003546 0.000000 0.000000 0.000000 0.000000 0.000000 0.000000 0.012821 0.076923 0.000000 0.000000 0.000000 0.087838 0.000000 0.000000 0.000000 0.000000 0.133570 0.000000 0.000000 0.000591 0.000591 0.000000 0.000000 0.034279 0.000000 0.038462 0.006410 0.000000 0.000000 0.000000 0.006410 0.128205 0.064103 0.202703 0.000000 0.000000 0.000000 0.000000 0.093972 0.000000 0.000000 0.001182 0.000000 0.000000 0.080969 0.000000 0.000000 0.000000 0.000000 0.000000 0.000000 0.019231 0.083333 0.108974 0.006410 0.191120 0
0.000000 0.000000 0.000000 0.000000 0.013526 0.000000 0.000000 0.000000 0.000000 0.000902 0.000000 0.000000 0.119928 0.016667 0.083333 0.041667 0.016667 0.000000 0.000000 0.000000 0.000000 0.197122 0.000000 0.000000 0.000000 0.000000 0.032462 0.003607 0.000000 0.000000 0.000000 0.125338 0.000000 0.000000 0.000000 0.000000 0.008333 0.058333 0.075000 0.025000 0.000000 0.000000 0.000000 0.153957 0.000000 0.000000 0.000000 0.000000 0.155095 0.000000 0.000000 0.000000 0.000000 0.000000 0.000000 0.000000 0.017133 0.075000 0.033333 0.008333 0.000000 0.000000 0.000000 0.000000 0.000000 0.136691 0.000000 0.000000 0.000000 0.000000 0.176736 0.000000 0.000000 0.000000 0.000000 0.018034 0.000000 0.000000 0.000000 0.000000 0.000000 0.000000 0.033333 0.066667 0.008333 0.000000 0.000000 0.100719 0.000000 0.000000 0.000000 0.000000 0.103697 0.000000 0.000000 0.000000 0.000000 0.000000 0.000000 0.076646 0.000000 0.041667 0.000000 0.000000 0.000000 0.000000 0.000000 0.091667 0.083333 0.187050 0.000000 0.000000 0.000000 0.000000 0.100992 0.000000 0.000000 0.000000 0.000000 0.000000 0.055906 0.000000 0.000000 0.000000 0.000000 0.000000 0.000000 0.058333 0.058333 0.116667 0.000000 0.224460 0
0.000000 0.000000 0.000000 0.000000 0.008644 0.001330 0.000000 0.000000 0.000665 0.000000 0.000000 0.000000 0.093750 0.006369 0.070064 0.108280 0.012739 0.000000 0.000000 0.000000 0.006369 0.241573 0.000000 0.000000 0.000000 0.000000 0.004654 0.000000 0.000000 0.000000 0.000000 0.183511 0.000000 0.000000 0.000000 0.000000 0.000000 0.063694 0.057325 0.019108 0.000000 0.000000 0.000000 0.113483 0.000000 0.000000 0.000000 0.000000 0.168883 0.000000 0.000000 0.000000 0.003324 0.000000 0.000000 0.000665 0.001330 0.000000 0.038217 0.006369 0.000000 0.000000 0.000000 0.000000 0.038217 0.123596 0.000000 0.000000 0.000000 0.000000 0.156250 0.000000 0.001330 0.000000 0.000000 0.042553 0.000000 0.000000 0.000000 0.000000 0.000000 0.038217 0.044586 0.012739 0.019108 0.000000 0.000000 0.093258 0.000000 0.000000 0.000000 0.000000 0.055186 0.000000 0.000000 0.000000 0.000000 0.000000 0.000000 0.120346 0.000000 0.012739 0.000000 0.000000 0.000000 0.000000 0.000000 0.121019 0.063694 0.191011 0.000000 0.000000 0.000000 0.000000 0.128324 0.000000 0.002660 0.000665 0.000000 0.000665 0.019947 0.005319 0.000000 0.000000 0.000000 0.006369 0.025478 0.006369 0.057325 0.146497 0.019108 0.237079 0
0.000000 0.000000 0.000000 0.000000 0.006321 0.016435 0.000000 0.000000 0.000000 0.000000 0.000000 0.015171 0.135272 0.016129 0.056452 0.064516 0.000000 0.000000 0.000000 0.000000 0.000000 0.143297 0.000000 0.003793 0.000000 0.000000 0.091024 0.010114 0.000000 0.000000 0.000000 0.024020 0.030341 0.000000 0.000000 0.008065 0.024194 0.153226 0.040323 0.056452 0.016129 0.040323 0.000000 0.191063 0.000000 0.000000 0.000000 0.000000 0.113780 0.000000 0.000000 0.000000 0.000000 0.000000 0.000000 0.025284 0.024020 0.040323 0.040323 0.008065 0.000000 0.000000 0.000000 0.000000 0.000000 0.155624 0.000000 0.000000 0.000000 0.000000 0.094817 0.000000 0.000000 0.000000 0.000000 0.000000 0.078382 0.000000 0.000000 0.000000 0.000000 0.000000 0.000000 0.032258 0.048387 0.024194 0.000000 0.174114 0.000000 0.000000 0.000000 0.000000 0.010114 0.000000 0.000000 0.000000 0.000000 0.000000 0.015171 0.041719 0.000000 0.048387 0.000000 0.000000 0.000000 0.000000 0.024194 0.104839 0.032258 0.272727 0.000000 0.000000 0.000000 0.000000 0.000000 0.000000 0.000000 0.002528 0.000000 0.000000 0.261694 0.000000 0.000000 0.000000 0.000000 0.000000 0.000000 0.024194 0.032258 0.056452 0.008065 0.063174 0
0.000000 0.000000 0.007363 0.000000 0.003347 0.000000 0.000000 0.000000 0.000669 0.000000 0.000000 0.000000 0.134538 0.000000 0.000000 0.000000 0.000000 0.000000 0.000000 0.000000 0.000000 0.178306 0.002008 0.002008 0.038153 0.000000 0.003347 0.008032 0.000669 0.000000 0.000000 0.066265 0.000000 0.000000 0.000000 0.000000 0.000000 0.000000 0.000000 0.000000 0.000000 0.000000 0.000000 0.234770 0.104418 0.004685 0.030790 0.000000 0.000000 0.009371 0.000000 0.000000 0.018072 0.000000 0.000000 0.000000 0.040161 0.000000 0.000000 0.500000 0.000000 0.000000 0.000000 0.500000 0.000000 0.068351 0.104418 0.000000 0.045515 0.000000 0.000669 0.000000 0.005355 0.000000 0.011379 0.008032 0.000000 0.000000 0.000000 0.000000 0.000000 0.000000 0.000000 0.000000 0.000000 0.000000 0.000000 0.138187 0.109103 0.006024 0.000000 0.001339 0.000669 0.004685 0.000000 0.017403 0.000000 0.000000 0.000000 0.026104 0.001339 0.000000 0.000000 0.000000 0.000000 0.000000 0.000000 0.000000 0.000000 0.209510 0.076975 0.000000 0.000000 0.000000 0.001339 0.000000 0.000669 0.002008 0.000000 0.000000 0.103079 0.000000 0.000000 0.000000 0.000000 0.000000 0.000000 0.000000 0.000000 0.000000 0.000000 0.170877 0
0.000000 0.000000 0.000000 0.000000 0.000000 0.004320 0.000000 0.000000 0.002160 0.000000 0.000000 0.000000 0.272138 0.020000 0.070000 0.030000 0.010000 0.000000 0.000000 0.000000 0.010000 0.078101 0.000000 0.000000 0.000000 0.000000 0.010799 0.000000 0.000000 0.000000 0.000000 0.105832 0.000000 0.000000 0.000000 0.000000 0.000000 0.090000 0.080000 0.020000 0.000000 0.000000 0.000000 0.192956 0.000000 0.000000 0.000000 0.000000 0.079914 0.000000 0.000000 0.000000 0.000000 0.000000 0.000000 0.000000 0.075594 0.040000 0.060000 0.020000 0.000000 0.000000 0.000000 0.000000 0.000000 0.165391 0.000000 0.000000 0.000000 0.000000 0.190065 0.000000 0.000000 0.000000 0.000000 0.000000 0.000000 0.000000 0.000000 0.000000 0.000000 0.000000 0.000000 0.100000 0.000000 0.000000 0.000000 0.140888 0.000000 0.000000 0.000000 0.000000 0.041037 0.000000 0.000000 0.006479 0.000000 0.000000 0.012959 0.038877 0.000000 0.070000 0.000000 0.000000 0.000000 0.000000 0.040000 0.060000 0.070000 0.232772 0.000000 0.000000 0.000000 0.000000 0.012959 0.000000 0.000000 0.000000 0.000000 0.000000 0.146868 0.000000 0.000000 0.000000 0.000000 0.000000 0.000000 0.030000 0.060000 0.120000 0.000000 0.189893 0
0.000000 0.000000 0.000000 0.000000 0.017189 0.000000 0.000000 0.000000 0.000000 0.000000 0.000000 0.000000 0.158746 0.016667 0.075000 0.066667 0.000000 0.000000 0.000000 0.000000 0.000000 0.152924 0.000000 0.000000 0.000000 0.000000 0.030334 0.006067 0.000000 0.000000 0.000000 0.110212 0.000000 0.000000 0.000000 0.000000 0.016667 0.058333 0.091667 0.025000 0.000000 0.000000 0.000000 0.196402 0.000000 0.000000 0.000000 0.000000 0.162791 0.000000 0.000000 0.000000 0.000000 0.000000 0.000000 0.000000 0.017189 0.058333 0.041667 0.008333 0.000000 0.000000 0.000000 0.000000 0.000000 0.146927 0.000000 0.000000 0.000000 0.000000 0.183013 0.000000 0.001011 0.000000 0.000000 0.007078 0.005056 0.000000 0.000000 0.000000 0.000000 0.000000 0.025000 0.058333 0.016667 0.000000 0.000000 0.122939 0.000000 0.000000 0.000000 0.000000 0.097068 0.000000 0.000000 0.002022 0.000000 0.000000 0.015167 0.024267 0.000000 0.050000 0.000000 0.000000 0.000000 0.000000 0.033333 0.083333 0.066667 0.208396 0.000000 0.000000 0.000000 0.000000 0.047523 0.000000 0.000000 0.006067 0.000000 0.000000 0.109201 0.000000 0.000000 0.008333 0.000000 0.000000 0.000000 0.016667 0.083333 0.083333 0.016667 0.172414 0
0.000000 0.000000 0.000000 0.000000 0.019553 0.001862 0.000000 0.000000 0.000000 0.000000 0.000000 0.000000 0.164804 0.000000 0.000000 0.000000 0.000000 0.000000 0.000000 0.000000 0.000000 0.130584 0.000000 0.000000 0.000000 0.000000 0.021415 0.000931 0.000000 0.000000 0.000000 0.123836 0.000000 0.000000 0.000000 0.000000 0.000000 0.000000 0.000000 0.000000 0.000000 0.000000 0.000000 0.204467 0.000000 0.000000 0.000000 0.000000 0.147114 0.000000 0.000000 0.000000 0.000000 0.000000 0.000000 0.000000 0.026071 1.000000 0.000000 0.000000 0.000000 0.000000 0.000000 0.000000 0.000000 0.154639 0.000000 0.000000 0.000000 0.000000 0.168529 0.000931 0.000000 0.000000 0.000000 0.005587 0.001862 0.000000 0.000000 0.000000 0.000000 0.000000 0.000000 0.000000 0.000000 0.000000 0.000000 0.147766 0.000000 0.000000 0.000000 0.000000 0.095903 0.000000 0.001862 0.010242 0.000000 0.000000 0.000000 0.022346 0.000000 0.000000 0.000000 0.000000 0.000000 0.000000 0.000000 0.000000 0.000000 0.233677 0.000000 0.000000 0.000000 0.000000 0.051210 0.000000 0.000000 0.007449 0.000000 0.000000 0.128492 0.000000 0.000000 0.000000 0.000000 0.000000 0.000000 0.000000 0.000000 0.000000 0.000000 0.128866 0
0.000000 0.000000 0.000000 0.000000 0.000000 0.001543 0.000000 0.000000 0.003086 0.000000 0.000000 0.000000 0.248457 0.019048 0.057143 0.009524 0.009524 0.000000 0.000000 0.000000 0.009524 0.055556 0.000000 0.000000 0.000000 0.000000 0.003086 0.000000 0.000000 0.000000 0.000000 0.092593 0.000000 0.000000 0.009259 0.009524 0.009524 0.095238 0.047619 0.057143 0.000000 0.000000 0.000000 0.212418 0.000000 0.000000 0.000000 0.000000 0.066358 0.000000 0.000000 0.000000 0.000000 0.000000 0.000000 0.000000 0.094136 0.028571 0.076190 0.009524 0.000000 0.000000 0.000000 0.000000 0.000000 0.153595 0.000000 0.000000 0.000000 0.000000 0.163580 0.000000 0.001543 0.000000 0.000000 0.004630 0.003086 0.000000 0.000000 0.000000 0.000000 0.000000 0.019048 0.057143 0.028571 0.000000 0.000000 0.140523 0.000000 0.000000 0.000000 0.000000 0.055556 0.000000 0.000000 0.004630 0.000000 0.000000 0.000000 0.032407 0.006173 0.076190 0.019048 0.000000 0.000000 0.009524 0.019048 0.085714 0.057143 0.277778 0.000000 0.000000 0.000000 0.000000 0.018519 0.000000 0.000000 0.000000 0.000000 0.000000 0.191358 0.000000 0.000000 0.000000 0.000000 0.000000 0.000000 0.038095 0.076190 0.076190 0.000000 0.160131 0
0.000000 0.000000 0.000000 0.000000 0.000000 0.000000 0.000000 0.000000 0.000000 0.000000 0.000000 0.000000 0.205732 0.018018 0.072072 0.009009 0.000000 0.000000 0.000000 0.000000 0.000000 0.073955 0.000000 0.000000 0.000000 0.000000 0.056295 0.000000 0.000000 0.000000 0.000000 0.025589 0.000000 0.000000 0.003071 0.000000 0.018018 0.117117 0.036036 0.081081 0.000000 0.000000 0.000000 0.284566 0.000000 0.000000 0.000000 0.000000 0.078813 0.000000 0.000000 0.000000 0.000000 0.000000 0.000000 0.000000 0.072671 0.045045 0.072072 0.000000 0.000000 0.000000 0.000000 0.000000 0.000000 0.159164 0.000000 0.000000 0.000000 0.000000 0.169908 0.000000 0.000000 0.000000 0.000000 0.000000 0.028659 0.000000 0.000000 0.000000 0.000000 0.000000 0.000000 0.072072 0.045045 0.000000 0.000000 0.106109 0.000000 0.000000 0.000000 0.000000 0.110542 0.000000 0.000000 0.000000 0.000000 0.000000 0.005118 0.013306 0.005118 0.081081 0.018018 0.000000 0.000000 0.000000 0.018018 0.108108 0.036036 0.247588 0.000000 0.000000 0.000000 0.000000 0.046059 0.000000 0.000000 0.000000 0.000000 0.000000 0.179120 0.000000 0.000000 0.000000 0.000000 0.000000 0.000000 0.018018 0.090090 0.045045 0.000000 0.128617 0
0.000000 0.000000 0.000000 0.000000 0.000941 0.000000 0.000000 0.000000 0.000000 0.000000 0.000000 0.000000 0.196613 0.027778 0.074074 0.000000 0.000000 0.000000 0.000000 0.000000 0.000000 0.082267 0.000000 0.000000 0.000000 0.000000 0.075259 0.000000 0.000000 0.000000 0.000000 0.034807 0.000941 0.000000 0.006585 0.009259 0.018519 0.074074 0.064815 0.064815 0.009259 0.000000 0.000000 0.265082 0.000000 0.000000 0.000000 0.000000 0.095014 0.000000 0.000000 0.000000 0.000000 0.000000 0.000000 0.000000 0.058325 0.064815 0.074074 0.000000 0.000000 0.000000 0.000000 0.000000 0.000000 0.168190 0.000000 0.000000 0.000000 0.000000 0.131703 0.000000 0.000000 0.000000 0.000000 0.000000 0.053622 0.000000 0.000000 0.000000 0.000000 0.000000 0.000000 0.083333 0.055556 0.000000 0.000000 0.133455 0.000000 0.000000 0.000000 0.000000 0.107244 0.000000 0.000000 0.000000 0.000000 0.000000 0.003763 0.017874 0.000000 0.092593 0.009259 0.000000 0.000000 0.009259 0.018519 0.083333 0.046296 0.246801 0.000000 0.000000 0.000000 0.000000 0.015992 0.000000 0.000000 0.000000 0.000000 0.000000 0.201317 0.000000 0.000000 0.000000 0.000000 0.000000 0.000000 0.018519 0.092593 0.009259 0.000000 0.104205 0
0.000000 0.000000 0.000000 0.000000 0.000000 0.000000 0.000000 0.000000 0.000000 0.000000 0.000000 0.000000 0.204049 0.000000 0.052632 0.008772 0.000000 0.000000 0.000000 0.000000 0.000000 0.049209 0.000000 0.000000 0.000000 0.000000 0.060729 0.000000 0.000000 0.000000 0.000000 0.012146 0.004049 0.000000 0.025101 0.008772 0.052632 0.087719 0.035088 0.078947 0.008772 0.000000 0.000000 0.295255 0.000000 0.000000 0.000000 0.000000 0.070445 0.000000 0.000000 0.000000 0.000000 0.000000 0.000000 0.000000 0.084211 0.035088 0.087719 0.000000 0.000000 0.000000 0.000000 0.000000 0.000000 0.156415 0.000000 0.000000 0.000000 0.000000 0.154656 0.000000 0.000000 0.000000 0.000000 0.000000 0.034818 0.000000 0.000000 0.000000 0.000000 0.000000 0.000000 0.078947 0.043860 0.000000 0.000000 0.105448 0.000000 0.000000 0.000000 0.000000 0.113360 0.000000 0.000000 0.000000 0.000000 0.000000 0.004049 0.012955 0.005668 0.070175 0.026316 0.000000 0.000000 0.000000 0.017544 0.105263 0.043860 0.267135 0.000000 0.000000 0.000000 0.000000 0.041296 0.000000 0.000000 0.000000 0.000000 0.000000 0.172470 0.000000 0.000000 0.000000 0.000000 0.000000 0.000000 0.026316 0.087719 0.043860 0.000000 0.126538 0
0.000000 0.000000 0.000000 0.000000 0.000000 0.000000 0.000000 0.000000 0.000000 0.000000 0.000000 0.000000 0.230041 0.020202 0.050505 0.010101 0.000000 0.000000 0.000000 0.000000 0.000000 0.052738 0.000000 0.000000 0.000000 0.000000 0.041949 0.000000 0.002706 0.000000 0.000000 0.021651 0.000000 0.000000 0.028417 0.010101 0.050505 0.060606 0.030303 0.101010 0.010101 0.000000 0.000000 0.255578 0.000000 0.000000 0.000000 0.000000 0.081191 0.000000 0.000000 0.000000 0.000000 0.000000 0.000000 0.000000 0.063599 0.070707 0.070707 0.000000 0.000000 0.000000 0.000000 0.000000 0.000000 0.180527 0.000000 0.000000 0.000000 0.000000 0.121786 0.000000 0.000000 0.000000 0.000000 0.000000 0.048714 0.000000 0.000000 0.000000 0.000000 0.000000 0.000000 0.080808 0.060606 0.000000 0.000000 0.141988 0.000000 0.000000 0.000000 0.000000 0.098782 0.000000 0.000000 0.000000 0.000000 0.000000 0.009472 0.014885 0.001353 0.111111 0.010101 0.000000 0.000000 0.000000 0.030303 0.060606 0.040404 0.267748 0.000000 0.000000 0.000000 0.000000 0.010825 0.000000 0.000000 0.000000 0.000000 0.000000 0.224628 0.000000 0.000000 0.000000 0.000000 0.000000 0.000000 0.040404 0.080808 0.000000 0.000000 0.101420 0
0.000000 0.000000 0.000000 0.000000 0.001255 0.000000 0.000000 0.000000 0.000000 0.000000 0.000000 0.000000 0.199498 0.009901 0.059406 0.019802 0.000000 0.000000 0.000000 0.000000 0.000000 0.082430 0.000000 0.000000 0.000000 0.000000 0.086575 0.000000 0.000000 0.000000 0.000000 0.013802 0.000000 0.000000 0.013802 0.000000 0.029703 0.118812 0.029703 0.069307 0.009901 0.000000 0.000000 0.255965 0.000000 0.000000 0.000000 0.000000 0.087829 0.000000 0.000000 0.000000 0.000000 0.000000 0.000000 0.000000 0.063990 0.029703 0.079208 0.019802 0.000000 0.000000 0.000000 0.000000 0.000000 0.167028 0.000000 0.000000 0.000000 0.000000 0.151819 0.000000 0.000000 0.000000 0.000000 0.000000 0.035132 0.000000 0.000000 0.000000 0.000000 0.000000 0.000000 0.059406 0.049505 0.009901 0.000000 0.130152 0.000000 0.000000 0.000000 0.000000 0.094103 0.000000 0.000000 0.000000 0.000000 0.000000 0.012547 0.006274 0.000000 0.099010 0.000000 0.000000 0.000000 0.000000 0.029703 0.118812 0.019802 0.273319 0.000000 0.000000 0.000000 0.000000 0.015056 0.000000 0.000000 0.000000 0.000000 0.000000 0.218319 0.000000 0.000000 0.000000 0.000000 0.000000 0.000000 0.019802 0.059406 0.059406 0.000000 0.091106 0
0.000000 0.000000 0.000000 0.000000 0.000000 0.000000 0.000000 0.000000 0.000000 0.000000 0.000000 0.000000 0.205236 0.017094 0.042735 0.017094 0.000000 0.000000 0.000000 0.000000 0.000000 0.060484 0.000000 0.000000 0.000000 0.000000 0.052365 0.000000 0.000000 0.000000 0.000000 0.029561 0.000000 0.000000 0.016892 0.000000 0.042735 0.094017 0.034188 0.076923 0.000000 0.000000 0.000000 0.314516 0.000000 0.000000 0.000000 0.000000 0.072635 0.000000 0.000000 0.000000 0.000000 0.000000 0.000000 0.000000 0.085304 0.025641 0.085470 0.008547 0.000000 0.000000 0.000000 0.000000 0.000000 0.173387 0.000000 0.000000 0.000000 0.000000 0.163851 0.000000 0.000000 0.000000 0.000000 0.000000 0.025338 0.000000 0.000000 0.000000 0.000000 0.000000 0.000000 0.059829 0.051282 0.000000 0.000000 0.098790 0.000000 0.000000 0.000000 0.000000 0.152027 0.000000 0.000000 0.000000 0.000000 0.000000 0.000000 0.000000 0.007601 0.094017 0.025641 0.000000 0.000000 0.000000 0.000000 0.170940 0.000000 0.211694 0.000000 0.000000 0.000000 0.000000 0.053209 0.000000 0.000000 0.000000 0.000000 0.000000 0.135980 0.000000 0.000000 0.000000 0.000000 0.000000 0.000000 0.025641 0.085470 0.042735 0.000000 0.141129 0
0.000000 0.000000 0.000000 0.000000 0.002535 0.000000 0.000000 0.000000 0.000000 0.000000 0.000000 0.000000 0.206591 0.009804 0.078431 0.019608 0.000000 0.000000 0.000000 0.000000 0.000000 0.093923 0.000000 0.000000 0.000000 0.000000 0.074778 0.001267 0.000000 0.000000 0.000000 0.046895 0.000000 0.000000 0.005070 0.000000 0.029412 0.068627 0.078431 0.049020 0.000000 0.000000 0.000000 0.233886 0.000000 0.000000 0.000000 0.000000 0.111534 0.000000 0.000000 0.000000 0.000000 0.000000 0.000000 0.000000 0.045627 0.049020 0.068627 0.009804 0.000000 0.000000 0.000000 0.000000 0.000000 0.169429 0.000000 0.000000 0.000000 0.000000 0.173638 0.000000 0.000000 0.000000 0.000000 0.000000 0.020279 0.000000 0.000000 0.000000 0.000000 0.000000 0.000000 0.078431 0.039216 0.019608 0.000000 0.138122 0.000000 0.000000 0.000000 0.000000 0.082383 0.000000 0.000000 0.000000 0.000000 0.000000 0.006337 0.015209 0.000000 0.088235 0.000000 0.000000 0.000000 0.000000 0.009804 0.127451 0.029412 0.246777 0.000000 0.000000 0.000000 0.000000 0.022814 0.000000 0.000000 0.000000 0.000000 0.000000 0.185044 0.000000 0.000000 0.000000 0.000000 0.000000 0.000000 0.019608 0.078431 0.049020 0.000000 0.117864 0
0.000000 0.000000 0.000000 0.000000 0.000000 0.000000 0.000000 0.000000 0.000000 0.000000 0.000000 0.000000 0.220939 0.008333 0.033333 0.008333 0.000000 0.000000 0.000000 0.000000 0.000000 0.029668 0.000000 0.000000 0.000000 0.000000 0.030023 0.000000 0.001540 0.000000 0.000770 0.056967 0.000000 0.000000 0.034642 0.033333 0.041667 0.075000 0.058333 0.066667 0.008333 0.000000 0.008333 0.277487 0.000000 0.000000 0.000000 0.000000 0.056197 0.000000 0.000000 0.000000 0.000000 0.000000 0.000000 0.000000 0.095458 0.033333 0.100000 0.000000 0.000000 0.000000 0.000000 0.000000 0.000000 0.186736 0.000000 0.000000 0.000000 0.000000 0.158584 0.000000 0.000000 0.000000 0.000000 0.000000 0.027714 0.000000 0.000000 0.000000 0.000000 0.000000 0.000000 0.083333 0.050000 0.000000 0.000000 0.136126 0.000000 0.000000 0.000000 0.000000 0.112394 0.000000 0.000000 0.000000 0.000000 0.000000 0.003079 0.006159 0.003079 0.091667 0.016667 0.000000 0.000000 0.000000 0.016667 0.108333 0.025000 0.247818 0.000000 0.000000 0.000000 0.000000 0.034642 0.000000 0.000000 0.000000 0.000000 0.000000 0.157814 0.000000 0.000000 0.000000 0.000000 0.000000 0.000000 0.016667 0.091667 0.025000 0.000000 0.122164 0
0.000000 0.000000 0.000000 0.000000 0.006260 0.000000 0.000000 0.000000 0.000000 0.000000 0.000000 0.000000 0.192488 0.008696 0.069565 0.017391 0.000000 0.000000 0.000000 0.000000 0.000000 0.088235 0.000000 0.000000 0.000000 0.000000 0.087637 0.001565 0.000000 0.000000 0.000000 0.017997 0.003130 0.000000 0.013302 0.000000 0.043478 0.095652 0.052174 0.052174 0.026087 0.000000 0.000000 0.267974 0.000000 0.000000 0.000000 0.000000 0.105634 0.000000 0.000000 0.000000 0.000000 0.000000 0.000000 0.000000 0.062598 0.043478 0.078261 0.017391 0.000000 0.000000 0.000000 0.000000 0.000000 0.151961 0.000000 0.000000 0.000000 0.000000 0.111894 0.000000 0.000000 0.000000 0.000000 0.000000 0.069640 0.000000 0.000000 0.000000 0.000000 0.000000 0.000000 0.043478 0.078261 0.008696 0.000000 0.147059 0.000000 0.000000 0.000000 0.000000 0.075117 0.000000 0.000000 0.000000 0.000000 0.000000 0.025039 0.005477 0.000000 0.086957 0.008696 0.000000 0.000000 0.000000 0.052174 0.104348 0.026087 0.282680 0.000000 0.000000 0.000000 0.000000 0.002347 0.000000 0.000000 0.000000 0.000000 0.000000 0.219875 0.000000 0.000000 0.000000 0.000000 0.000000 0.000000 0.000000 0.060870 0.026087 0.000000 0.062092 0
0.000000 0.000000 0.000000 0.000000 0.000000 0.000000 0.000000 0.000000 0.000000 0.000000 0.000000 0.000000 0.222327 0.009009 0.036036 0.009009 0.000000 0.000000 0.000000 0.000000 0.000000 0.036166 0.000000 0.000000 0.000000 0.000000 0.046358 0.000000 0.000000 0.000000 0.000000 0.023652 0.000000 0.000000 0.036897 0.018018 0.063063 0.063063 0.027027 0.108108 0.000000 0.000000 0.000000 0.283906 0.000000 0.000000 0.000000 0.000000 0.066225 0.000000 0.000000 0.000000 0.000000 0.000000 0.000000 0.000000 0.082308 0.045045 0.090090 0.009009 0.000000 0.000000 0.000000 0.000000 0.000000 0.177215 0.000000 0.000000 0.000000 0.000000 0.159886 0.000000 0.000000 0.000000 0.000000 0.000000 0.031220 0.000000 0.000000 0.000000 0.000000 0.000000 0.000000 0.090090 0.045045 0.000000 0.000000 0.122966 0.000000 0.000000 0.000000 0.000000 0.087039 0.000000 0.000000 0.000000 0.000000 0.000000 0.006623 0.013245 0.006623 0.099099 0.009009 0.000000 0.000000 0.000000 0.027027 0.081081 0.036036 0.274864 0.000000 0.000000 0.000000 0.000000 0.032167 0.000000 0.000000 0.000000 0.000000 0.000000 0.185430 0.000000 0.000000 0.000000 0.000000 0.000000 0.000000 0.018018 0.090090 0.027027 0.000000 0.104882 0
0.000000 0.000000 0.000000 0.000000 0.000000 0.000000 0.000000 0.000000 0.000950 0.000000 0.000000 0.000000 0.212726 0.009009 0.054054 0.018018 0.000000 0.000000 0.000000 0.000000 0.009009 0.064103 0.000000 0.000000 0.000000 0.000000 0.049383 0.000000 0.000950 0.000000 0.000000 0.059829 0.000000 0.000000 0.010446 0.009009 0.027027 0.081081 0.081081 0.027027 0.009009 0.000000 0.000000 0.267399 0.000000 0.000000 0.000000 0.000000 0.075973 0.000000 0.000000 0.000000 0.000000 0.000000 0.000000 0.000000 0.081671 0.045045 0.072072 0.018018 0.000000 0.000000 0.000000 0.000000 0.000000 0.172161 0.000000 0.000000 0.000000 0.000000 0.169991 0.000000 0.000950 0.000000 0.000000 0.000000 0.017094 0.000000 0.000000 0.000000 0.000000 0.000000 0.009009 0.063063 0.045045 0.027027 0.000000 0.137363 0.000000 0.000000 0.000000 0.000000 0.075024 0.000000 0.000000 0.000000 0.002849 0.000000 0.019943 0.011396 0.004748 0.054054 0.027027 0.009009 0.000000 0.000000 0.036036 0.108108 0.036036 0.256410 0.000000 0.000000 0.000000 0.000000 0.016144 0.000000 0.000000 0.000000 0.000000 0.000000 0.189934 0.000000 0.000000 0.000000 0.000000 0.000000 0.000000 0.000000 0.072072 0.054054 0.000000 0.102564 0
0.000000 0.000000 0.000000 0.000000 0.000000 0.000000 0.000000 0.000000 0.000000 0.000000 0.000000 0.000000 0.207325 0.023256 0.069767 0.000000 0.000000 0.000000 0.000000 0.000000 0.000000 0.074413 0.000000 0.000000 0.000000 0.000000 0.061478 0.000000 0.000000 0.000000 0.000000 0.036625 0.000000 0.000000 0.007848 0.000000 0.031008 0.085271 0.054264 0.077519 0.000000 0.000000 0.000000 0.298956 0.000000 0.000000 0.000000 0.000000 0.091563 0.000000 0.000000 0.000000 0.000000 0.000000 0.000000 0.000000 0.077829 0.054264 0.077519 0.000000 0.000000 0.000000 0.000000 0.000000 0.000000 0.150131 0.000000 0.000000 0.000000 0.000000 0.173316 0.000000 0.000000 0.000000 0.000000 0.000000 0.023545 0.000000 0.000000 0.000000 0.000000 0.000000 0.000000 0.077519 0.054264 0.000000 0.000000 0.117493 0.000000 0.000000 0.000000 0.000000 0.094179 0.000000 0.000000 0.000000 0.000000 0.000000 0.012426 0.014388 0.003270 0.069767 0.023256 0.000000 0.000000 0.000000 0.023256 0.100775 0.038760 0.240209 0.000000 0.000000 0.000000 0.000000 0.030739 0.000000 0.000000 0.000000 0.000000 0.000000 0.165468 0.000000 0.000000 0.000000 0.000000 0.000000 0.000000 0.015504 0.085271 0.038760 0.000000 0.118799 0
0.000000 0.000000 0.000000 0.000000 0.014891 0.000000 0.000000 0.000000 0.001145 0.000000 0.000000 0.000000 0.154639 0.009174 0.082569 0.045872 0.000000 0.000000 0.000000 0.000000 0.009174 0.125704 0.000000 0.000000 0.000000 0.000000 0.058419 0.000000 0.002291 0.000000 0.000000 0.057274 0.000000 0.000000 0.000000 0.000000 0.000000 0.100917 0.073394 0.018349 0.018349 0.000000 0.000000 0.234522 0.000000 0.000000 0.000000 0.000000 0.122566 0.000000 0.000000 0.000000 0.002291 0.000000 0.000000 0.000000 0.035510 0.027523 0.064220 0.000000 0.000000 0.000000 0.000000 0.000000 0.018349 0.142589 0.000000 0.000000 0.000000 0.000000 0.159221 0.000000 0.002291 0.000000 0.000000 0.004582 0.020619 0.000000 0.000000 0.000000 0.000000 0.000000 0.027523 0.045872 0.036697 0.018349 0.000000 0.121951 0.000000 0.000000 0.000000 0.000000 0.101947 0.000000 0.000000 0.000000 0.004582 0.000000 0.004582 0.033219 0.000000 0.027523 0.027523 0.000000 0.000000 0.000000 0.009174 0.100917 0.073394 0.236398 0.000000 0.000000 0.000000 0.000000 0.043528 0.000000 0.000000 0.000000 0.000000 0.000000 0.176403 0.000000 0.000000 0.000000 0.000000 0.000000 0.000000 0.027523 0.082569 0.055046 0.000000 0.138837 0
0.000000 0.000000 0.000000 0.000000 0.000000 0.000000 0.000000 0.000000 0.000000 0.000000 0.000000 0.000000 0.241445 0.016667 0.025000 0.016667 0.000000 0.000000 0.000000 0.000000 0.000000 0.028662 0.000000 0.000000 0.000000 0.000000 0.021863 0.000000 0.000000 0.000000 0.001901 0.031369 0.000000 0.000000 0.061787 0.025000 0.050000 0.058333 0.041667 0.091667 0.000000 0.000000 0.008333 0.262739 0.000000 0.000000 0.000000 0.000000 0.062738 0.000000 0.000000 0.000000 0.000000 0.000000 0.000000 0.000000 0.080798 0.050000 0.083333 0.008333 0.000000 0.000000 0.000000 0.000000 0.000000 0.192675 0.000000 0.000000 0.000000 0.000000 0.176806 0.000000 0.000000 0.000000 0.000000 0.000000 0.010456 0.000000 0.000000 0.000000 0.000000 0.000000 0.000000 0.116667 0.016667 0.000000 0.000000 0.144904 0.000000 0.000000 0.000000 0.000000 0.103612 0.000000 0.000000 0.000000 0.000000 0.000000 0.000951 0.028517 0.001901 0.075000 0.008333 0.000000 0.000000 0.000000 0.008333 0.075000 0.050000 0.207006 0.000000 0.000000 0.000000 0.000000 0.054183 0.000000 0.000000 0.000000 0.000000 0.000000 0.121673 0.000000 0.000000 0.000000 0.000000 0.000000 0.000000 0.041667 0.075000 0.058333 0.000000 0.164013 0
0.000000 0.000000 0.000000 0.000000 0.000000 0.000000 0.000000 0.000000 0.000000 0.000000 0.000000 0.000000 0.228435 0.010870 0.054348 0.021739 0.000000 0.000000 0.000000 0.000000 0.000000 0.059809 0.000000 0.000000 0.000000 0.000000 0.049521 0.000000 0.000000 0.000000 0.000000 0.012780 0.000000 0.000000 0.036741 0.000000 0.054348 0.076087 0.021739 0.097826 0.010870 0.000000 0.000000 0.282297 0.000000 0.000000 0.000000 0.000000 0.108626 0.000000 0.000000 0.000000 0.000000 0.000000 0.000000 0.000000 0.052716 0.065217 0.065217 0.010870 0.000000 0.000000 0.000000 0.000000 0.000000 0.160287 0.000000 0.000000 0.000000 0.000000 0.150160 0.000000 0.000000 0.000000 0.000000 0.000000 0.047923 0.000000 0.000000 0.000000 0.000000 0.000000 0.000000 0.086957 0.043478 0.000000 0.000000 0.133971 0.000000 0.000000 0.000000 0.000000 0.081470 0.000000 0.000000 0.000000 0.000000 0.000000 0.007987 0.014377 0.000000 0.097826 0.000000 0.000000 0.000000 0.000000 0.021739 0.086957 0.032609 0.246411 0.000000 0.000000 0.000000 0.000000 0.014377 0.000000 0.000000 0.000000 0.000000 0.000000 0.194888 0.000000 0.000000 0.000000 0.000000 0.000000 0.000000 0.032609 0.065217 0.043478 0.000000 0.117225 0
0.000000 0.000000 0.000000 0.000000 0.000000 0.000000 0.000000 0.000000 0.000000 0.000000 0.000000 0.000000 0.251142 0.020408 0.051020 0.020408 0.000000 0.000000 0.000000 0.000000 0.000000 0.054348 0.000000 0.000000 0.000000 0.000000 0.048706 0.000000 0.000000 0.000000 0.000000 0.004566 0.000000 0.000000 0.031963 0.000000 0.051020 0.081633 0.020408 0.102041 0.010204 0.000000 0.000000 0.275362 0.000000 0.000000 0.000000 0.000000 0.071537 0.000000 0.000000 0.000000 0.000000 0.000000 0.000000 0.000000 0.077626 0.061224 0.071429 0.000000 0.000000 0.000000 0.000000 0.000000 0.000000 0.175725 0.000000 0.000000 0.000000 0.000000 0.152207 0.000000 0.000000 0.000000 0.000000 0.000000 0.039574 0.000000 0.000000 0.000000 0.000000 0.000000 0.000000 0.102041 0.030612 0.000000 0.000000 0.148551 0.000000 0.000000 0.000000 0.000000 0.073059 0.000000 0.000000 0.000000 0.000000 0.000000 0.004566 0.033486 0.003044 0.081633 0.010204 0.000000 0.000000 0.000000 0.010204 0.091837 0.040816 0.217391 0.000000 0.000000 0.000000 0.000000 0.018265 0.000000 0.000000 0.000000 0.000000 0.000000 0.190259 0.000000 0.000000 0.000000 0.000000 0.000000 0.000000 0.020408 0.091837 0.030612 0.000000 0.128623 0
0.000000 0.000000 0.000000 0.000000 0.000000 0.000000 0.000000 0.000000 0.000000 0.000000 0.000000 0.000000 0.274227 0.076087 0.032609 0.010870 0.000000 0.000000 0.000000 0.000000 0.000000 0.045726 0.000000 0.000000 0.000000 0.000000 0.018557 0.000000 0.000000 0.000000 0.000000 0.053608 0.000000 0.000000 0.002062 0.000000 0.010870 0.054348 0.065217 0.065217 0.000000 0.000000 0.000000 0.238569 0.000000 0.000000 0.000000 0.000000 0.037113 0.000000 0.000000 0.000000 0.000000 0.000000 0.000000 0.000000 0.121649 0.065217 0.065217 0.000000 0.000000 0.000000 0.000000 0.000000 0.000000 0.157058 0.000000 0.000000 0.000000 0.000000 0.167010 0.000000 0.000000 0.000000 0.000000 0.000000 0.004124 0.000000 0.000000 0.000000 0.000000 0.000000 0.000000 0.108696 0.021739 0.000000 0.000000 0.145129 0.000000 0.000000 0.000000 0.000000 0.072165 0.000000 0.000000 0.000000 0.000000 0.000000 0.004124 0.006186 0.018557 0.097826 0.032609 0.000000 0.000000 0.000000 0.010870 0.097826 0.021739 0.264414 0.000000 0.000000 0.000000 0.000000 0.043299 0.000000 0.000000 0.000000 0.000000 0.000000 0.177320 0.000000 0.000000 0.000000 0.000000 0.000000 0.000000 0.043478 0.086957 0.032609 0.000000 0.149105 0
0.000000 0.000000 0.000000 0.000000 0.000000 0.000000 0.000000 0.000000 0.002688 0.000000 0.000000 0.000000 0.325269 0.011494 0.034483 0.011494 0.000000 0.000000 0.000000 0.000000 0.011494 0.022523 0.000000 0.000000 0.000000 0.000000 0.000000 0.000000 0.005376 0.000000 0.000000 0.048387 0.000000 0.000000 0.021505 0.022989 0.034483 0.057471 0.045977 0.068966 0.011494 0.000000 0.000000 0.234234 0.000000 0.000000 0.000000 0.000000 0.024194 0.000000 0.000000 0.000000 0.000000 0.000000 0.000000 0.000000 0.142473 0.045977 0.080460 0.000000 0.000000 0.000000 0.000000 0.000000 0.000000 0.157658 0.000000 0.000000 0.000000 0.000000 0.145161 0.000000 0.000000 0.000000 0.000000 0.000000 0.000000 0.000000 0.000000 0.000000 0.000000 0.000000 0.000000 0.126437 0.000000 0.000000 0.000000 0.175676 0.000000 0.000000 0.000000 0.000000 0.069892 0.000000 0.000000 0.005376 0.002688 0.000000 0.000000 0.021505 0.002688 0.068966 0.034483 0.000000 0.000000 0.000000 0.011494 0.080460 0.045977 0.238739 0.000000 0.000000 0.000000 0.000000 0.048387 0.000000 0.002688 0.000000 0.000000 0.000000 0.131720 0.000000 0.000000 0.000000 0.000000 0.000000 0.011494 0.034483 0.080460 0.068966 0.000000 0.171171 0
0.000000 0.000000 0.000000 0.000000 0.000000 0.000000 0.000000 0.000000 0.000000 0.000000 0.000000 0.000000 0.225908 0.000000 0.000000 0.000000 0.000000 0.000000 0.000000 0.000000 0.000000 0.000000 0.000000 0.000000 0.000000 0.000000 0.014218 0.000000 0.003160 0.000000 0.000000 0.023697 0.000000 0.000000 0.112164 0.040404 0.060606 0.070707 0.030303 0.050505 0.030303 0.000000 0.000000 0.215311 0.000000 0.000000 0.000000 0.000000 0.000000 0.000000 0.000000 0.000000 0.000000 0.000000 0.000000 0.000000 0.167457 0.030303 0.060606 0.020202 0.000000 0.000000 0.000000 0.000000 0.000000 0.088517 0.000000 0.000000 0.000000 0.000000 0.118483 0.000000 0.007899 0.000000 0.000000 0.000000 0.011058 0.000000 0.000000 0.010101 0.010101 0.010101 0.040404 0.040404 0.030303 0.030303 0.000000 0.239234 0.001580 0.000000 0.001580 0.000000 0.028436 0.006319 0.000000 0.000000 0.000000 0.000000 0.000000 0.028436 0.020537 0.060606 0.040404 0.010101 0.000000 0.000000 0.000000 0.090909 0.030303 0.275120 0.000000 0.000000 0.000000 0.000000 0.078989 0.000000 0.003160 0.000000 0.000000 0.000000 0.146919 0.000000 0.000000 0.000000 0.000000 0.000000 0.020202 0.020202 0.080808 0.080808 0.000000 0.181818 0
0.000000 0.000000 0.000000 0.000000 0.000000 0.000000 0.000000 0.000000 0.000000 0.000000 0.000000 0.000000 0.294964 0.012195 0.024390 0.012195 0.000000 0.000000 0.000000 0.000000 0.000000 0.016867 0.000000 0.000000 0.000000 0.000000 0.002398 0.000000 0.000000 0.000000 0.000000 0.033573 0.000000 0.000000 0.035971 0.024390 0.048780 0.060976 0.024390 0.097561 0.000000 0.000000 0.000000 0.240964 0.000000 0.000000 0.000000 0.000000 0.033573 0.000000 0.000000 0.000000 0.000000 0.000000 0.000000 0.000000 0.122302 0.024390 0.097561 0.000000 0.000000 0.000000 0.000000 0.000000 0.000000 0.156627 0.000000 0.000000 0.000000 0.000000 0.127098 0.000000 0.002398 0.000000 0.000000 0.007194 0.004796 0.000000 0.000000 0.000000 0.000000 0.000000 0.024390 0.073171 0.024390 0.000000 0.000000 0.171084 0.000000 0.000000 0.000000 0.000000 0.103118 0.000000 0.000000 0.000000 0.000000 0.000000 0.000000 0.019185 0.004796 0.085366 0.024390 0.000000 0.000000 0.000000 0.000000 0.109756 0.036585 0.248193 0.000000 0.000000 0.000000 0.000000 0.059952 0.000000 0.000000 0.002398 0.000000 0.000000 0.146283 0.000000 0.000000 0.000000 0.000000 0.000000 0.000000 0.048780 0.097561 0.036585 0.012195 0.166265 0
0.000000 0.000000 0.000000 0.000000 0.000000 0.000000 0.000000 0.000000 0.000000 0.000000 0.000000 0.000000 0.268443 0.022222 0.033333 0.011111 0.000000 0.000000 0.000000 0.000000 0.000000 0.031553 0.000000 0.000000 0.000000 0.000000 0.010246 0.000000 0.000000 0.000000 0.000000 0.051230 0.000000 0.000000 0.030738 0.022222 0.044444 0.033333 0.055556 0.077778 0.000000 0.000000 0.000000 0.269417 0.000000 0.000000 0.000000 0.000000 0.043033 0.000000 0.000000 0.000000 0.000000 0.000000 0.000000 0.000000 0.104508 0.055556 0.077778 0.000000 0.000000 0.000000 0.000000 0.000000 0.000000 0.174757 0.000000 0.000000 0.000000 0.000000 0.161885 0.000000 0.000000 0.000000 0.000000 0.000000 0.006148 0.000000 0.000000 0.000000 0.000000 0.000000 0.000000 0.122222 0.011111 0.022222 0.000000 0.179612 0.000000 0.000000 0.000000 0.000000 0.086066 0.000000 0.000000 0.000000 0.000000 0.000000 0.002049 0.036885 0.004098 0.077778 0.011111 0.000000 0.000000 0.000000 0.011111 0.066667 0.044444 0.196602 0.000000 0.000000 0.000000 0.000000 0.053279 0.000000 0.004098 0.000000 0.000000 0.000000 0.137295 0.000000 0.000000 0.000000 0.000000 0.011111 0.011111 0.044444 0.055556 0.077778 0.000000 0.148058 0
0.000000 0.000000 0.000000 0.000000 0.000000 0.000000 0.000000 0.000000 0.000000 0.000000 0.000000 0.000000 0.246120 0.012346 0.061728 0.000000 0.000000 0.000000 0.000000 0.000000 0.000000 0.049223 0.000000 0.000000 0.000000 0.000000 0.055432 0.000000 0.000000 0.000000 0.000000 0.035477 0.000000 0.000000 0.015521 0.012346 0.024691 0.086420 0.049383 0.074074 0.000000 0.000000 0.000000 0.238342 0.000000 0.000000 0.000000 0.000000 0.050998 0.000000 0.000000 0.000000 0.000000 0.000000 0.000000 0.000000 0.101996 0.061728 0.061728 0.000000 0.000000 0.000000 0.000000 0.000000 0.000000 0.158031 0.000000 0.000000 0.000000 0.000000 0.161863 0.000000 0.000000 0.000000 0.000000 0.000000 0.031042 0.000000 0.000000 0.000000 0.000000 0.000000 0.000000 0.086420 0.037037 0.000000 0.000000 0.137306 0.000000 0.000000 0.000000 0.000000 0.070953 0.000000 0.000000 0.006652 0.000000 0.000000 0.000000 0.002217 0.011086 0.086420 0.037037 0.000000 0.000000 0.000000 0.012346 0.111111 0.024691 0.264249 0.000000 0.000000 0.000000 0.000000 0.035477 0.000000 0.000000 0.000000 0.000000 0.000000 0.175166 0.000000 0.000000 0.000000 0.000000 0.000000 0.000000 0.024691 0.098765 0.037037 0.000000 0.152850 0
0.000000 0.000000 0.000000 0.000000 0.000000 0.000000 0.000000 0.000000 0.000000 0.000000 0.000000 0.000000 0.261993 0.012048 0.048193 0.000000 0.000000 0.000000 0.000000 0.000000 0.000000 0.028916 0.000000 0.000000 0.000000 0.000000 0.014760 0.000000 0.000000 0.000000 0.000000 0.079336 0.000000 0.000000 0.020295 0.012048 0.048193 0.048193 0.072289 0.060241 0.000000 0.000000 0.000000 0.248193 0.000000 0.000000 0.000000 0.000000 0.035055 0.000000 0.000000 0.000000 0.000000 0.000000 0.000000 0.000000 0.110701 0.060241 0.072289 0.012048 0.000000 0.000000 0.000000 0.000000 0.000000 0.180723 0.000000 0.000000 0.000000 0.000000 0.169742 0.000000 0.000000 0.000000 0.000000 0.000000 0.014760 0.000000 0.000000 0.000000 0.000000 0.000000 0.000000 0.108434 0.024096 0.000000 0.000000 0.156627 0.000000 0.000000 0.000000 0.000000 0.066421 0.000000 0.000000 0.000000 0.000000 0.000000 0.000000 0.035055 0.009225 0.036145 0.036145 0.000000 0.000000 0.000000 0.000000 0.096386 0.060241 0.226506 0.000000 0.000000 0.000000 0.000000 0.060886 0.000000 0.000000 0.000000 0.000000 0.000000 0.121771 0.000000 0.000000 0.000000 0.000000 0.000000 0.000000 0.036145 0.084337 0.072289 0.000000 0.159036 0
0.000000 0.000000 0.000000 0.000000 0.000000 0.000000 0.000000 0.000000 0.000000 0.000000 0.000000 0.000000 0.243523 0.011765 0.000000 0.011765 0.000000 0.000000 0.000000 0.000000 0.000000 0.006042 0.000000 0.000000 0.000000 0.000000 0.000000 0.000000 0.013817 0.001727 0.000000 0.005181 0.031088 0.000000 0.067358 0.011765 0.094118 0.035294 0.011765 0.094118 0.035294 0.011765 0.011765 0.223565 0.000000 0.000000 0.000000 0.000000 0.015544 0.000000 0.000000 0.000000 0.000000 0.000000 0.000000 0.000000 0.127807 0.023529 0.105882 0.000000 0.000000 0.000000 0.000000 0.000000 0.000000 0.181269 0.000000 0.000000 0.000000 0.000000 0.063903 0.000000 0.006908 0.000000 0.000000 0.000000 0.069085 0.000000 0.000000 0.000000 0.000000 0.000000 0.023529 0.094118 0.011765 0.000000 0.000000 0.187311 0.000000 0.000000 0.000000 0.000000 0.107081 0.000000 0.000000 0.000000 0.000000 0.000000 0.005181 0.012090 0.018998 0.082353 0.035294 0.000000 0.000000 0.000000 0.023529 0.082353 0.035294 0.259819 0.000000 0.000000 0.000000 0.000000 0.022453 0.000000 0.000000 0.000000 0.000000 0.000000 0.188256 0.000000 0.000000 0.000000 0.000000 0.000000 0.000000 0.047059 0.070588 0.035294 0.000000 0.141994 0
0.000000 0.000000 0.000000 0.000000 0.000000 0.000000 0.000000 0.000000 0.000000 0.000000 0.000000 0.000000 0.260536 0.012048 0.024096 0.012048 0.000000 0.000000 0.000000 0.000000 0.000000 0.019337 0.000000 0.000000 0.000000 0.000000 0.007663 0.000000 0.000000 0.000000 0.000000 0.040230 0.000000 0.000000 0.053640 0.036145 0.048193 0.060241 0.036145 0.084337 0.012048 0.000000 0.000000 0.248619 0.000000 0.000000 0.000000 0.000000 0.049808 0.000000 0.000000 0.000000 0.000000 0.000000 0.000000 0.000000 0.111111 0.036145 0.096386 0.000000 0.000000 0.000000 0.000000 0.000000 0.000000 0.162983 0.000000 0.000000 0.000000 0.000000 0.139847 0.000000 0.001916 0.000000 0.000000 0.000000 0.017241 0.000000 0.000000 0.000000 0.000000 0.000000 0.012048 0.096386 0.024096 0.000000 0.000000 0.165746 0.000000 0.000000 0.000000 0.000000 0.086207 0.000000 0.000000 0.000000 0.000000 0.000000 0.000000 0.042146 0.005747 0.072289 0.024096 0.000000 0.000000 0.012048 0.000000 0.096386 0.048193 0.237569 0.000000 0.000000 0.000000 0.000000 0.032567 0.000000 0.000000 0.000000 0.000000 0.000000 0.151341 0.000000 0.000000 0.000000 0.000000 0.000000 0.000000 0.024096 0.096386 0.036145 0.000000 0.165746 0
0.000000 0.000000 0.000000 0.000000 0.000510 0.000000 0.000000 0.000000 0.000000 0.000000 0.000000 0.000000 0.198980 0.006494 0.071429 0.025974 0.000000 0.000000 0.000000 0.000000 0.000000 0.092460 0.000000 0.000000 0.000000 0.000000 0.038265 0.000000 0.002041 0.000000 0.000000 0.064286 0.000000 0.000000 0.016837 0.000000 0.038961 0.071429 0.064935 0.045455 0.012987 0.000000 0.000000 0.246858 0.000000 0.000000 0.000000 0.000000 0.136224 0.000000 0.000000 0.000000 0.000000 0.000000 0.000000 0.000000 0.041837 0.051948 0.071429 0.000000 0.000000 0.000000 0.000000 0.000000 0.000000 0.130162 0.000000 0.000000 0.000000 0.000000 0.169898 0.000000 0.000000 0.000000 0.000000 0.002041 0.009694 0.000000 0.000000 0.000000 0.000000 0.000000 0.006494 0.090909 0.025974 0.000000 0.000000 0.140934 0.000000 0.000000 0.000000 0.000000 0.109184 0.000000 0.000000 0.000000 0.000000 0.000000 0.002551 0.027041 0.000000 0.077922 0.000000 0.000000 0.000000 0.000000 0.006494 0.103896 0.051948 0.222621 0.000000 0.000000 0.000000 0.000000 0.040816 0.000000 0.000000 0.000000 0.000000 0.000000 0.139796 0.000000 0.000000 0.000000 0.000000 0.000000 0.000000 0.025974 0.090909 0.058442 0.000000 0.166966 0
0.000000 0.000000 0.000000 0.000000 0.027433 0.000000 0.000000 0.000000 0.000000 0.000000 0.000000 0.000000 0.119048 0.000000 0.088608 0.075949 0.000000 0.000000 0.000000 0.000000 0.000000 0.186377 0.000000 0.000000 0.000000 0.000000 0.068323 0.000000 0.000000 0.000000 0.000000 0.054348 0.000000 0.000000 0.000518 0.000000 0.006329 0.107595 0.075949 0.025316 0.000000 0.000000 0.000000 0.244087 0.000000 0.000000 0.000000 0.000000 0.178571 0.000000 0.000000 0.000000 0.000000 0.000000 0.000000 0.000000 0.006211 0.075949 0.025316 0.000000 0.000000 0.000000 0.000000 0.000000 0.000000 0.116367 0.000000 0.000000 0.000000 0.000000 0.198240 0.000000 0.000000 0.000000 0.000000 0.000000 0.006729 0.000000 0.000000 0.000000 0.000000 0.000000 0.000000 0.069620 0.031646 0.000000 0.000000 0.094607 0.000000 0.000000 0.000000 0.000000 0.110766 0.000000 0.000000 0.000000 0.000000 0.000000 0.000000 0.038302 0.000000 0.044304 0.000000 0.000000 0.000000 0.000000 0.000000 0.120253 0.063291 0.210028 0.000000 0.000000 0.000000 0.000000 0.075569 0.000000 0.000000 0.000000 0.000000 0.000000 0.115942 0.000000 0.000000 0.000000 0.000000 0.000000 0.000000 0.025316 0.075949 0.088608 0.000000 0.148534 0
0.000000 0.000000 0.000000 0.000000 0.016280 0.000000 0.000000 0.000000 0.000000 0.000000 0.000000 0.000000 0.156389 0.025316 0.063291 0.082278 0.000000 0.000000 0.000000 0.000000 0.000000 0.144411 0.000000 0.000000 0.000000 0.000000 0.069068 0.000000 0.000000 0.000000 0.000000 0.049334 0.000000 0.000000 0.000493 0.000000 0.006329 0.113924 0.069620 0.031646 0.000000 0.000000 0.000000 0.252226 0.000000 0.000000 0.000000 0.000000 0.158362 0.000000 0.000000 0.000000 0.000000 0.000000 0.000000 0.000000 0.016280 0.050633 0.050633 0.000000 0.000000 0.000000 0.000000 0.000000 0.000000 0.140455 0.000000 0.000000 0.000000 0.000000 0.176616 0.000000 0.000000 0.000000 0.000000 0.000000 0.017760 0.000000 0.000000 0.000000 0.000000 0.000000 0.000000 0.063291 0.037975 0.006329 0.000000 0.100890 0.000000 0.000000 0.000000 0.000000 0.108041 0.000000 0.000000 0.000000 0.000000 0.000000 0.001480 0.036507 0.000000 0.050633 0.000000 0.000000 0.000000 0.000000 0.006329 0.126582 0.056962 0.228487 0.000000 0.000000 0.000000 0.000000 0.060187 0.000000 0.000000 0.000000 0.000000 0.000000 0.133202 0.000000 0.000000 0.000000 0.000000 0.000000 0.000000 0.006329 0.088608 0.063291 0.000000 0.133531 0
0.000000 0.000000 0.000000 0.000000 0.016234 0.000000 0.000000 0.000000 0.000000 0.000000 0.000000 0.000000 0.187229 0.017241 0.068966 0.043103 0.000000 0.000000 0.000000 0.000000 0.000000 0.097668 0.000000 0.000000 0.000000 0.000000 0.074675 0.000000 0.000000 0.000000 0.000000 0.054113 0.000000 0.000000 0.010823 0.008621 0.025862 0.060345 0.060345 0.068966 0.000000 0.000000 0.000000 0.205539 0.000000 0.000000 0.000000 0.000000 0.143939 0.000000 0.000000 0.000000 0.000000 0.000000 0.000000 0.001082 0.008658 0.086207 0.034483 0.000000 0.000000 0.000000 0.000000 0.000000 0.008621 0.164723 0.000000 0.000000 0.000000 0.000000 0.177489 0.000000 0.000000 0.000000 0.000000 0.000000 0.003247 0.000000 0.000000 0.000000 0.000000 0.000000 0.000000 0.120690 0.008621 0.000000 0.000000 0.150146 0.000000 0.000000 0.000000 0.000000 0.068182 0.000000 0.000000 0.000000 0.000000 0.000000 0.000000 0.076840 0.000000 0.077586 0.000000 0.000000 0.000000 0.000000 0.000000 0.068966 0.060345 0.201166 0.000000 0.000000 0.000000 0.000000 0.076840 0.000000 0.000000 0.000000 0.000000 0.000000 0.100649 0.000000 0.000000 0.000000 0.000000 0.000000 0.000000 0.034483 0.094828 0.051724 0.000000 0.180758 0
0.000000 0.000000 0.001733 0.000000 0.000000 0.000000 0.000000 0.000000 0.018198 0.000000 0.000000 0.000000 0.214038 0.018987 0.050633 0.012658 0.000000 0.000000 0.006329 0.006329 0.012658 0.046768 0.000000 0.000000 0.006932 0.000000 0.035529 0.000000 0.002600 0.000000 0.011265 0.062392 0.000000 0.000000 0.000000 0.006329 0.018987 0.088608 0.056962 0.044304 0.025316 0.031646 0.018987 0.255846 0.000000 0.000000 0.000000 0.000000 0.061525 0.000000 0.000000 0.000000 0.000867 0.000000 0.000000 0.000000 0.092721 0.069620 0.044304 0.012658 0.000000 0.000000 0.000000 0.000000 0.006329 0.171939 0.000000 0.000000 0.000000 0.000000 0.170711 0.000000 0.012132 0.000000 0.000000 0.000000 0.002600 0.000000 0.000000 0.000000 0.000000 0.000000 0.031646 0.056962 0.031646 0.006329 0.000000 0.149931 0.000000 0.000000 0.000000 0.000000 0.087522 0.000000 0.000000 0.000867 0.001733 0.000000 0.003466 0.025997 0.002600 0.063291 0.025316 0.006329 0.000000 0.000000 0.012658 0.063291 0.031646 0.224209 0.000000 0.000000 0.000000 0.000000 0.060659 0.000000 0.000867 0.000000 0.000000 0.000000 0.123050 0.000000 0.000000 0.000000 0.000000 0.000000 0.006329 0.031646 0.069620 0.025316 0.006329 0.151307 0
0.000000 0.000000 0.000000 0.000000 0.001515 0.000000 0.000000 0.000000 0.000000 0.000000 0.000000 0.000000 0.169697 0.037594 0.067669 0.022556 0.000000 0.000000 0.000000 0.000000 0.000000 0.142373 0.000000 0.000000 0.000000 0.000000 0.057576 0.000000 0.000000 0.000000 0.000000 0.061364 0.000000 0.000000 0.001515 0.000000 0.007519 0.082707 0.067669 0.052632 0.000000 0.000000 0.000000 0.236158 0.000000 0.000000 0.000000 0.000000 0.129545 0.000000 0.000000 0.000000 0.000000 0.000000 0.000000 0.000000 0.037121 0.060150 0.060150 0.015038 0.000000 0.000000 0.000000 0.000000 0.000000 0.149153 0.000000 0.000000 0.000000 0.000000 0.177273 0.000000 0.000000 0.000000 0.000000 0.001515 0.022727 0.000000 0.000000 0.000000 0.000000 0.000000 0.007519 0.082707 0.030075 0.000000 0.000000 0.115254 0.000000 0.000000 0.000000 0.000000 0.109091 0.000000 0.000000 0.000000 0.000000 0.000000 0.000758 0.025000 0.000000 0.082707 0.000000 0.000000 0.000000 0.000000 0.007519 0.105263 0.045113 0.221469 0.000000 0.000000 0.000000 0.000000 0.050758 0.000000 0.000000 0.000000 0.000000 0.000000 0.154545 0.000000 0.000000 0.000000 0.000000 0.000000 0.000000 0.022556 0.090226 0.052632 0.000000 0.135593 0
0.000000 0.000000 0.001182 0.000000 0.003546 0.000000 0.000000 0.000000 0.011820 0.000000 0.000000 0.000000 0.211584 0.035000 0.025000 0.025000 0.000000 0.015000 0.015000 0.005000 0.000000 0.065123 0.041371 0.000000 0.015366 0.000000 0.004728 0.000000 0.000000 0.000000 0.023641 0.050827 0.000000 0.000000 0.000000 0.025000 0.000000 0.035000 0.035000 0.055000 0.005000 0.015000 0.030000 0.202605 0.000000 0.000000 0.000000 0.000000 0.106383 0.000000 0.000000 0.000000 0.000000 0.000000 0.000000 0.000000 0.033097 0.060000 0.025000 0.005000 0.005000 0.055000 0.025000 0.000000 0.000000 0.173661 0.137116 0.000000 0.000000 0.000000 0.027187 0.000000 0.000000 0.000000 0.000000 0.000000 0.010638 0.000000 0.000000 0.045000 0.030000 0.000000 0.000000 0.075000 0.010000 0.000000 0.010000 0.154848 0.000000 0.000000 0.000000 0.000000 0.050827 0.000000 0.000000 0.000000 0.000000 0.000000 0.001182 0.067376 0.000000 0.055000 0.010000 0.000000 0.025000 0.025000 0.005000 0.020000 0.040000 0.238784 0.034279 0.000000 0.000000 0.000000 0.003546 0.000000 0.004728 0.000000 0.000000 0.000000 0.159574 0.000000 0.000000 0.025000 0.020000 0.005000 0.005000 0.030000 0.050000 0.020000 0.000000 0.164978 0
0.000000 0.000000 0.000000 0.000000 0.002740 0.000000 0.000000 0.000000 0.000000 0.000000 0.000000 0.000000 0.233790 0.000000 0.033019 0.014151 0.000000 0.009434 0.009434 0.000000 0.000000 0.061728 0.036530 0.000000 0.000000 0.000000 0.023744 0.000000 0.000000 0.000000 0.018265 0.053881 0.000000 0.000000 0.011872 0.051887 0.004717 0.023585 0.042453 0.056604 0.009434 0.014151 0.028302 0.200274 0.000000 0.000000 0.000000 0.000000 0.110502 0.000000 0.000000 0.000000 0.000000 0.000000 0.000000 0.000000 0.042009 0.061321 0.028302 0.000000 0.000000 0.061321 0.028302 0.000000 0.000000 0.187929 0.086758 0.000000 0.000000 0.000000 0.089498 0.000000 0.000000 0.000000 0.000000 0.000000 0.003653 0.000000 0.000000 0.075472 0.009434 0.000000 0.000000 0.080189 0.009434 0.000000 0.004717 0.146776 0.000000 0.000000 0.000000 0.000000 0.063927 0.000000 0.000000 0.000000 0.000000 0.000000 0.000000 0.049315 0.000000 0.051887 0.009434 0.009434 0.023585 0.028302 0.000000 0.033019 0.037736 0.246914 0.021005 0.000000 0.000000 0.000000 0.017352 0.000000 0.000000 0.000000 0.000000 0.000000 0.135160 0.000000 0.000000 0.014151 0.033019 0.009434 0.000000 0.028302 0.056604 0.009434 0.000000 0.156379 0
0.000000 0.000000 0.000000 0.000000 0.000000 0.000000 0.000000 0.000000 0.000000 0.000000 0.000000 0.000000 0.202833 0.005988 0.053892 0.065868 0.000000 0.000000 0.000000 0.000000 0.000000 0.103327 0.000000 0.000000 0.000000 0.000000 0.026062 0.000000 0.010198 0.000000 0.000000 0.054958 0.000000 0.000000 0.022096 0.000000 0.035928 0.101796 0.059880 0.011976 0.029940 0.011976 0.000000 0.256567 0.000000 0.000000 0.000000 0.000000 0.128612 0.000000 0.000000 0.000000 0.001700 0.000000 0.000000 0.000000 0.040227 0.053892 0.035928 0.011976 0.000000 0.000000 0.000000 0.000000 0.011976 0.153240 0.000000 0.000000 0.000000 0.000000 0.186402 0.000000 0.002266 0.000000 0.000000 0.001700 0.006232 0.000000 0.000000 0.000000 0.000000 0.011976 0.023952 0.035928 0.041916 0.000000 0.000000 0.127846 0.000000 0.000000 0.000000 0.000000 0.088385 0.000000 0.000000 0.000000 0.001700 0.000000 0.000000 0.051558 0.000567 0.017964 0.023952 0.000000 0.000000 0.000000 0.000000 0.113772 0.059880 0.197023 0.000000 0.000000 0.000000 0.000000 0.055524 0.000000 0.000000 0.000000 0.000000 0.000000 0.118980 0.000000 0.000000 0.000000 0.000000 0.000000 0.000000 0.023952 0.071856 0.083832 0.000000 0.161996 0
0.000000 0.000000 0.000000 0.000000 0.000000 0.000000 0.000000 0.000000 0.003693 0.000000 0.000000 0.000000 0.206833 0.032258 0.048387 0.080645 0.008065 0.000000 0.000000 0.000000 0.016129 0.089084 0.000000 0.000000 0.000000 0.000000 0.018467 0.000923 0.000000 0.000000 0.000000 0.090489 0.000000 0.000000 0.000000 0.000000 0.008065 0.080645 0.080645 0.024194 0.000000 0.000000 0.000000 0.242158 0.000000 0.000000 0.000000 0.000000 0.133887 0.000000 0.000000 0.000000 0.000000 0.000000 0.000000 0.000000 0.023084 0.056452 0.048387 0.016129 0.000000 0.000000 0.000000 0.000000 0.000000 0.161857 0.000000 0.000000 0.000000 0.000000 0.195753 0.000000 0.000000 0.000000 0.000000 0.004617 0.000000 0.000000 0.000000 0.000000 0.000000 0.000000 0.016129 0.088710 0.000000 0.000000 0.000000 0.119197 0.000000 0.000000 0.000000 0.000000 0.044321 0.000000 0.000000 0.000000 0.000000 0.000000 0.000000 0.110803 0.000000 0.024194 0.000000 0.000000 0.000000 0.000000 0.000000 0.096774 0.080645 0.193225 0.000000 0.000000 0.000000 0.000000 0.074792 0.000000 0.000000 0.000000 0.000000 0.000000 0.090489 0.001847 0.000000 0.000000 0.000000 0.000000 0.000000 0.000000 0.104839 0.080645 0.008065 0.194479 0
0.000000 0.000000 0.000000 0.000000 0.011062 0.000000 0.000000 0.000000 0.000000 0.000000 0.000000 0.000000 0.165929 0.024691 0.061728 0.061728 0.000000 0.000000 0.000000 0.000000 0.000000 0.118252 0.000000 0.000000 0.000000 0.000000 0.006637 0.000000 0.000000 0.000000 0.000000 0.117257 0.000000 0.000000 0.004425 0.000000 0.012346 0.074074 0.061728 0.049383 0.000000 0.000000 0.000000 0.197943 0.000000 0.000000 0.000000 0.000000 0.137168 0.000000 0.000000 0.000000 0.000000 0.000000 0.000000 0.000000 0.039823 0.074074 0.037037 0.000000 0.000000 0.000000 0.000000 0.000000 0.000000 0.118252 0.000000 0.000000 0.000000 0.000000 0.132743 0.000000 0.000000 0.000000 0.000000 0.004425 0.006637 0.000000 0.000000 0.000000 0.000000 0.012346 0.012346 0.074074 0.024691 0.000000 0.000000 0.179949 0.000000 0.000000 0.000000 0.000000 0.099558 0.000000 0.000000 0.000000 0.000000 0.000000 0.011062 0.030973 0.002212 0.074074 0.012346 0.000000 0.000000 0.000000 0.024691 0.086420 0.049383 0.228792 0.000000 0.000000 0.000000 0.000000 0.039823 0.000000 0.000000 0.000000 0.000000 0.000000 0.190265 0.000000 0.000000 0.000000 0.000000 0.000000 0.000000 0.012346 0.086420 0.074074 0.000000 0.156812 0
