1000 132
0.000000 0.000000 0.000000 0.000000 0.001550 0.000000 0.000000 0.000000 0.000000 0.000000 0.000000 0.000000 0.201550 0.011111 0.077778 0.011111 0.000000 0.000000 0.000000 0.000000 0.000000 0.092732 0.000000 0.000000 0.000000 0.000000 0.035659 0.000000 0.000000 0.000000 0.000000 0.066667 0.000000 0.000000 0.010853 0.000000 0.033333 0.055556 0.055556 0.077778 0.000000 0.000000 0.000000 0.268170 0.000000 0.000000 0.000000 0.000000 0.130233 0.000000 0.000000 0.000000 0.000000 0.000000 0.000000 0.000000 0.034109 0.077778 0.055556 0.011111 0.000000 0.000000 0.000000 0.000000 0.000000 0.155388 0.000000 0.000000 0.000000 0.000000 0.181395 0.000000 0.000000 0.000000 0.000000 0.001550 0.007752 0.000000 0.000000 0.000000 0.000000 0.000000 0.011111 0.088889 0.033333 0.000000 0.000000 0.142857 0.000000 0.000000 0.000000 0.000000 0.093023 0.000000 0.000000 0.000000 0.000000 0.000000 0.009302 0.010853 0.000000 0.100000 0.000000 0.000000 0.000000 0.000000 0.022222 0.088889 0.033333 0.238095 0.000000 0.000000 0.000000 0.000000 0.032558 0.000000 0.000000 0.000000 0.000000 0.000000 0.182946 0.000000 0.000000 0.000000 0.000000 0.000000 0.000000 0.022222 0.077778 0.055556 0.000000 0.102757 0
0.000000 0.000000 0.000000 0.000000 0.000000 0.000000 0.000000 0.000000 0.000000 0.000000 0.000000 0.000000 0.232143 0.000000 0.037037 0.024691 0.000000 0.000000 0.000000 0.000000 0.000000 0.036111 0.000000 0.000000 0.000000 0.000000 0.015873 0.000000 0.000000 0.000000 0.000000 0.013889 0.000000 0.000000 0.055556 0.024691 0.049383 0.086420 0.024691 0.098765 0.000000 0.000000 0.000000 0.269444 0.000000 0.000000 0.000000 0.000000 0.081349 0.000000 0.000000 0.000000 0.000000 0.000000 0.000000 0.000000 0.067460 0.024691 0.098765 0.000000 0.000000 0.000000 0.000000 0.000000 0.000000 0.152778 0.000000 0.000000 0.000000 0.000000 0.168651 0.000000 0.000000 0.000000 0.000000 0.000000 0.000000 0.000000 0.000000 0.000000 0.000000 0.000000 0.000000 0.123457 0.000000 0.000000 0.000000 0.152778 0.000000 0.000000 0.000000 0.000000 0.093254 0.000000 0.000000 0.000000 0.000000 0.000000 0.001984 0.049603 0.000000 0.074074 0.000000 0.000000 0.000000 0.000000 0.012346 0.061728 0.074074 0.230556 0.000000 0.000000 0.000000 0.000000 0.085317 0.000000 0.000000 0.000000 0.000000 0.000000 0.134921 0.000000 0.000000 0.000000 0.000000 0.000000 0.000000 0.012346 0.111111 0.061728 0.000000 0.158333 0
0.000000 0.000000 0.000000 0.000000 0.000000 0.000000 0.000000 0.000000 0.003067 0.000000 0.000000 0.000000 0.251534 0.014493 0.043478 0.043478 0.000000 0.000000 0.000000 0.000000 0.014493 0.055172 0.000000 0.000000 0.000000 0.000000 0.000000 0.000000 0.003067 0.000000 0.000000 0.101227 0.000000 0.000000 0.009202 0.028986 0.014493 0.043478 0.086957 0.028986 0.014493 0.000000 0.000000 0.213793 0.000000 0.000000 0.000000 0.000000 0.076687 0.000000 0.000000 0.000000 0.000000 0.000000 0.000000 0.000000 0.064417 0.057971 0.072464 0.014493 0.000000 0.000000 0.000000 0.000000 0.000000 0.182759 0.000000 0.000000 0.000000 0.000000 0.113497 0.000000 0.003067 0.000000 0.000000 0.012270 0.027607 0.000000 0.000000 0.000000 0.000000 0.000000 0.028986 0.043478 0.057971 0.000000 0.000000 0.165517 0.000000 0.000000 0.000000 0.000000 0.055215 0.000000 0.000000 0.000000 0.006135 0.000000 0.015337 0.018405 0.000000 0.043478 0.028986 0.000000 0.000000 0.000000 0.028986 0.072464 0.072464 0.272414 0.000000 0.000000 0.000000 0.000000 0.018405 0.000000 0.000000 0.000000 0.000000 0.000000 0.220859 0.000000 0.000000 0.000000 0.000000 0.000000 0.000000 0.028986 0.072464 0.043478 0.000000 0.110345 0
0.000000 0.000000 0.000000 0.000000 0.000000 0.000000 0.000000 0.000000 0.000000 0.000000 0.000000 0.000000 0.200680 0.013889 0.069444 0.027778 0.000000 0.000000 0.000000 0.000000 0.000000 0.095395 0.000000 0.000000 0.000000 0.000000 0.023810 0.000000 0.000000 0.000000 0.000000 0.010204 0.000000 0.000000 0.006803 0.000000 0.013889 0.111111 0.027778 0.083333 0.000000 0.000000 0.000000 0.276316 0.000000 0.000000 0.000000 0.000000 0.112245 0.000000 0.000000 0.000000 0.000000 0.000000 0.000000 0.000000 0.051020 0.069444 0.041667 0.000000 0.000000 0.000000 0.000000 0.000000 0.000000 0.131579 0.000000 0.000000 0.000000 0.000000 0.207483 0.000000 0.000000 0.000000 0.000000 0.000000 0.000000 0.000000 0.000000 0.000000 0.000000 0.000000 0.000000 0.111111 0.000000 0.000000 0.000000 0.115132 0.000000 0.000000 0.000000 0.000000 0.115646 0.000000 0.000000 0.000000 0.000000 0.000000 0.000000 0.040816 0.003401 0.083333 0.013889 0.000000 0.000000 0.000000 0.000000 0.097222 0.041667 0.207237 0.000000 0.000000 0.000000 0.000000 0.108844 0.000000 0.000000 0.000000 0.000000 0.000000 0.119048 0.000000 0.000000 0.000000 0.000000 0.000000 0.000000 0.027778 0.097222 0.069444 0.000000 0.174342 0
0.000000 0.000000 0.000000 0.000000 0.000000 0.000000 0.000000 0.000000 0.000000 0.000000 0.000000 0.000000 0.233696 0.013699 0.068493 0.027397 0.000000 0.000000 0.000000 0.000000 0.000000 0.086111 0.000000 0.000000 0.000000 0.000000 0.000000 0.000000 0.000000 0.000000 0.000000 0.086957 0.000000 0.000000 0.008152 0.000000 0.027397 0.041096 0.082192 0.041096 0.000000 0.000000 0.000000 0.227778 0.000000 0.000000 0.000000 0.000000 0.057065 0.000000 0.000000 0.000000 0.000000 0.000000 0.000000 0.000000 0.081522 0.041096 0.082192 0.000000 0.000000 0.000000 0.000000 0.000000 0.000000 0.183333 0.000000 0.000000 0.000000 0.000000 0.138587 0.000000 0.002717 0.000000 0.000000 0.002717 0.002717 0.000000 0.000000 0.000000 0.000000 0.000000 0.027397 0.054795 0.041096 0.000000 0.000000 0.175000 0.000000 0.000000 0.000000 0.000000 0.119565 0.000000 0.000000 0.000000 0.000000 0.000000 0.002717 0.019022 0.000000 0.109589 0.000000 0.000000 0.000000 0.000000 0.013699 0.123288 0.027397 0.216667 0.000000 0.000000 0.000000 0.000000 0.046196 0.000000 0.000000 0.000000 0.000000 0.000000 0.198370 0.000000 0.000000 0.000000 0.000000 0.000000 0.000000 0.027397 0.082192 0.068493 0.000000 0.111111 0
0.000000 0.000000 0.000000 0.000000 0.000000 0.000000 0.000000 0.000000 0.010695 0.000000 0.000000 0.000000 0.160428 0.030769 0.061538 0.046154 0.000000 0.000000 0.000000 0.015385 0.015385 0.152091 0.000000 0.000000 0.000000 0.000000 0.010695 0.000000 0.005348 0.000000 0.000000 0.090909 0.000000 0.000000 0.000000 0.000000 0.000000 0.061538 0.076923 0.015385 0.030769 0.000000 0.000000 0.197719 0.000000 0.000000 0.000000 0.000000 0.101604 0.000000 0.000000 0.000000 0.021390 0.000000 0.000000 0.000000 0.048128 0.015385 0.076923 0.000000 0.000000 0.000000 0.000000 0.000000 0.030769 0.152091 0.000000 0.000000 0.000000 0.000000 0.149733 0.000000 0.021390 0.000000 0.000000 0.000000 0.000000 0.000000 0.000000 0.000000 0.000000 0.000000 0.030769 0.061538 0.030769 0.015385 0.000000 0.152091 0.000000 0.000000 0.000000 0.000000 0.090909 0.000000 0.000000 0.000000 0.010695 0.000000 0.000000 0.069519 0.000000 0.030769 0.030769 0.000000 0.000000 0.000000 0.000000 0.061538 0.076923 0.186312 0.000000 0.000000 0.000000 0.000000 0.053476 0.000000 0.000000 0.000000 0.000000 0.000000 0.155080 0.000000 0.000000 0.000000 0.000000 0.000000 0.000000 0.076923 0.046154 0.061538 0.000000 0.159696 0
0.000000 0.000000 0.000000 0.000000 0.000000 0.000000 0.000000 0.000000 0.000000 0.000000 0.000000 0.000000 0.246154 0.040000 0.053333 0.000000 0.000000 0.000000 0.000000 0.000000 0.000000 0.043344 0.000000 0.000000 0.000000 0.000000 0.002564 0.000000 0.012821 0.000000 0.000000 0.017949 0.000000 0.000000 0.012821 0.000000 0.026667 0.080000 0.040000 0.080000 0.013333 0.000000 0.000000 0.315789 0.000000 0.000000 0.000000 0.000000 0.079487 0.000000 0.000000 0.000000 0.000000 0.000000 0.000000 0.000000 0.082051 0.066667 0.066667 0.013333 0.000000 0.000000 0.000000 0.000000 0.000000 0.145511 0.000000 0.000000 0.000000 0.000000 0.176923 0.000000 0.005128 0.000000 0.000000 0.000000 0.002564 0.000000 0.000000 0.000000 0.000000 0.000000 0.013333 0.106667 0.013333 0.000000 0.000000 0.148607 0.000000 0.000000 0.000000 0.000000 0.100000 0.000000 0.000000 0.000000 0.000000 0.000000 0.005128 0.038462 0.000000 0.080000 0.013333 0.000000 0.000000 0.000000 0.013333 0.066667 0.053333 0.201238 0.000000 0.000000 0.000000 0.000000 0.064103 0.000000 0.000000 0.000000 0.000000 0.000000 0.153846 0.000000 0.000000 0.000000 0.000000 0.000000 0.000000 0.013333 0.106667 0.040000 0.000000 0.145511 0
0.000000 0.000000 0.000000 0.000000 0.000000 0.000000 0.000000 0.000000 0.000000 0.000000 0.000000 0.000000 0.211921 0.026667 0.066667 0.013333 0.000000 0.000000 0.000000 0.000000 0.000000 0.084691 0.000000 0.000000 0.000000 0.000000 0.049669 0.000000 0.000000 0.000000 0.000000 0.000000 0.000000 0.000000 0.003311 0.000000 0.013333 0.120000 0.000000 0.120000 0.000000 0.000000 0.000000 0.270358 0.000000 0.000000 0.000000 0.000000 0.056291 0.000000 0.000000 0.000000 0.003311 0.000000 0.000000 0.000000 0.089404 0.053333 0.053333 0.000000 0.000000 0.000000 0.000000 0.000000 0.013333 0.146580 0.000000 0.000000 0.000000 0.000000 0.182119 0.000000 0.000000 0.000000 0.000000 0.000000 0.019868 0.000000 0.000000 0.000000 0.000000 0.000000 0.000000 0.093333 0.026667 0.000000 0.000000 0.123779 0.000000 0.000000 0.000000 0.000000 0.096026 0.000000 0.000000 0.000000 0.000000 0.000000 0.000000 0.039735 0.006623 0.093333 0.013333 0.000000 0.000000 0.000000 0.000000 0.080000 0.040000 0.218241 0.000000 0.000000 0.000000 0.000000 0.059603 0.000000 0.000000 0.000000 0.000000 0.000000 0.182119 0.000000 0.000000 0.000000 0.000000 0.000000 0.000000 0.053333 0.080000 0.040000 0.000000 0.156352 0
0.000000 0.000000 0.000000 0.000000 0.000000 0.000000 0.000000 0.000000 0.000000 0.000000 0.000000 0.000000 0.238908 0.025974 0.064935 0.012987 0.000000 0.000000 0.000000 0.000000 0.000000 0.083799 0.000000 0.000000 0.000000 0.000000 0.023891 0.000000 0.000000 0.000000 0.000000 0.051195 0.000000 0.000000 0.010239 0.000000 0.025974 0.064935 0.038961 0.090909 0.000000 0.000000 0.000000 0.237430 0.000000 0.000000 0.000000 0.000000 0.075085 0.000000 0.000000 0.000000 0.000000 0.000000 0.000000 0.000000 0.054608 0.077922 0.051948 0.000000 0.000000 0.000000 0.000000 0.000000 0.000000 0.173184 0.000000 0.000000 0.000000 0.000000 0.221843 0.000000 0.000000 0.000000 0.000000 0.000000 0.000000 0.000000 0.000000 0.000000 0.000000 0.000000 0.000000 0.129870 0.000000 0.000000 0.000000 0.125698 0.000000 0.000000 0.000000 0.000000 0.092150 0.000000 0.000000 0.000000 0.000000 0.000000 0.000000 0.010239 0.000000 0.116883 0.000000 0.000000 0.000000 0.000000 0.000000 0.090909 0.025974 0.223464 0.000000 0.000000 0.000000 0.000000 0.085324 0.000000 0.000000 0.000000 0.000000 0.000000 0.136519 0.000000 0.000000 0.000000 0.000000 0.000000 0.000000 0.038961 0.090909 0.051948 0.000000 0.156425 0
0.000000 0.000000 0.000000 0.000000 0.000000 0.000000 0.000000 0.000000 0.000000 0.000000 0.000000 0.000000 0.263014 0.000000 0.057143 0.014286 0.000000 0.000000 0.000000 0.000000 0.000000 0.038710 0.000000 0.000000 0.000000 0.000000 0.005479 0.000000 0.000000 0.000000 0.000000 0.030137 0.000000 0.000000 0.032877 0.014286 0.042857 0.085714 0.042857 0.085714 0.000000 0.000000 0.000000 0.296774 0.000000 0.000000 0.000000 0.000000 0.084932 0.000000 0.000000 0.000000 0.000000 0.000000 0.000000 0.000000 0.073973 0.042857 0.085714 0.000000 0.000000 0.000000 0.000000 0.000000 0.000000 0.161290 0.000000 0.000000 0.000000 0.000000 0.180822 0.000000 0.000000 0.000000 0.000000 0.000000 0.010959 0.000000 0.000000 0.000000 0.000000 0.000000 0.000000 0.100000 0.028571 0.014286 0.000000 0.151613 0.000000 0.000000 0.000000 0.000000 0.071233 0.000000 0.000000 0.000000 0.000000 0.000000 0.000000 0.030137 0.000000 0.057143 0.014286 0.000000 0.000000 0.000000 0.000000 0.100000 0.057143 0.229032 0.000000 0.000000 0.000000 0.000000 0.030137 0.000000 0.000000 0.000000 0.000000 0.000000 0.186301 0.000000 0.000000 0.000000 0.000000 0.000000 0.000000 0.014286 0.100000 0.042857 0.000000 0.122581 0
0.000000 0.022436 0.000000 0.000000 0.003205 0.000000 0.000000 0.000000 0.000000 0.000000 0.000000 0.000000 0.134615 0.008475 0.050847 0.033898 0.000000 0.000000 0.033898 0.016949 0.000000 0.174242 0.000000 0.048077 0.000000 0.000000 0.016026 0.038462 0.000000 0.000000 0.000000 0.044872 0.000000 0.000000 0.000000 0.042373 0.000000 0.042373 0.025424 0.059322 0.008475 0.042373 0.008475 0.189394 0.000000 0.137821 0.000000 0.000000 0.044872 0.000000 0.000000 0.000000 0.000000 0.000000 0.000000 0.000000 0.006410 0.050847 0.016949 0.000000 0.016949 0.033898 0.016949 0.000000 0.000000 0.140152 0.000000 0.134615 0.000000 0.000000 0.044872 0.025641 0.000000 0.000000 0.000000 0.000000 0.009615 0.000000 0.000000 0.050847 0.016949 0.000000 0.000000 0.059322 0.008475 0.000000 0.000000 0.109848 0.000000 0.000000 0.000000 0.000000 0.057692 0.000000 0.000000 0.000000 0.000000 0.000000 0.000000 0.054487 0.000000 0.033898 0.000000 0.033898 0.025424 0.008475 0.000000 0.059322 0.033898 0.231061 0.000000 0.000000 0.000000 0.000000 0.054487 0.000000 0.000000 0.000000 0.000000 0.000000 0.121795 0.000000 0.000000 0.000000 0.042373 0.016949 0.000000 0.008475 0.050847 0.042373 0.000000 0.155303 0
0.000000 0.000000 0.000000 0.000000 0.000000 0.000000 0.000000 0.000000 0.000000 0.000000 0.000000 0.000000 0.246914 0.046154 0.046154 0.015385 0.000000 0.000000 0.000000 0.000000 0.000000 0.077778 0.000000 0.000000 0.000000 0.000000 0.016461 0.000000 0.000000 0.000000 0.000000 0.098765 0.000000 0.000000 0.012346 0.000000 0.030769 0.046154 0.046154 0.092308 0.000000 0.000000 0.000000 0.218519 0.000000 0.000000 0.000000 0.000000 0.045267 0.000000 0.000000 0.000000 0.000000 0.000000 0.000000 0.000000 0.086420 0.076923 0.061538 0.000000 0.000000 0.000000 0.000000 0.000000 0.000000 0.181481 0.000000 0.000000 0.000000 0.000000 0.176955 0.000000 0.000000 0.000000 0.000000 0.012346 0.000000 0.000000 0.000000 0.000000 0.000000 0.000000 0.015385 0.107692 0.015385 0.000000 0.000000 0.162963 0.000000 0.000000 0.000000 0.000000 0.065844 0.000000 0.000000 0.000000 0.000000 0.000000 0.000000 0.032922 0.012346 0.076923 0.015385 0.000000 0.000000 0.000000 0.000000 0.076923 0.046154 0.200000 0.000000 0.000000 0.000000 0.000000 0.074074 0.000000 0.000000 0.000000 0.000000 0.000000 0.119342 0.000000 0.000000 0.000000 0.000000 0.000000 0.000000 0.046154 0.076923 0.061538 0.000000 0.159259 0
0.000000 0.000000 0.000000 0.000000 0.041940 0.000000 0.000000 0.000000 0.000000 0.002621 0.000000 0.000000 0.095675 0.050000 0.060000 0.070000 0.010000 0.000000 0.000000 0.000000 0.000000 0.195171 0.000000 0.000000 0.000000 0.000000 0.038008 0.000000 0.000000 0.000000 0.000000 0.137615 0.000000 0.000000 0.000000 0.000000 0.000000 0.060000 0.090000 0.020000 0.000000 0.000000 0.000000 0.164990 0.000000 0.000000 0.000000 0.000000 0.170380 0.000000 0.000000 0.000000 0.000000 0.000000 0.000000 0.000000 0.019659 0.090000 0.030000 0.000000 0.000000 0.000000 0.000000 0.000000 0.000000 0.118712 0.000000 0.000000 0.000000 0.000000 0.186107 0.000000 0.000000 0.000000 0.000000 0.009174 0.002621 0.000000 0.000000 0.000000 0.000000 0.000000 0.020000 0.090000 0.010000 0.000000 0.000000 0.130785 0.000000 0.000000 0.000000 0.000000 0.073394 0.000000 0.000000 0.000000 0.000000 0.000000 0.000000 0.058978 0.000000 0.050000 0.000000 0.000000 0.000000 0.000000 0.000000 0.090000 0.070000 0.207243 0.000000 0.000000 0.000000 0.000000 0.064220 0.000000 0.000000 0.000000 0.000000 0.000000 0.099607 0.000000 0.000000 0.000000 0.000000 0.000000 0.000000 0.020000 0.090000 0.080000 0.000000 0.183099 0
0.000000 0.000000 0.000000 0.000000 0.024540 0.000000 0.000000 0.000000 0.000000 0.000000 0.000000 0.000000 0.128834 0.030000 0.080000 0.040000 0.010000 0.000000 0.000000 0.000000 0.000000 0.189189 0.000000 0.000000 0.000000 0.000000 0.004908 0.000000 0.002454 0.000000 0.000000 0.184049 0.000000 0.000000 0.000000 0.000000 0.000000 0.050000 0.080000 0.020000 0.010000 0.000000 0.000000 0.124740 0.000000 0.000000 0.000000 0.000000 0.149693 0.000000 0.000000 0.000000 0.000000 0.000000 0.000000 0.000000 0.038037 0.080000 0.040000 0.000000 0.000000 0.000000 0.000000 0.000000 0.000000 0.130977 0.000000 0.000000 0.000000 0.000000 0.149693 0.000000 0.000000 0.000000 0.000000 0.023313 0.000000 0.000000 0.000000 0.000000 0.000000 0.000000 0.050000 0.070000 0.000000 0.000000 0.000000 0.155925 0.000000 0.000000 0.000000 0.000000 0.100613 0.000000 0.000000 0.000000 0.000000 0.000000 0.000000 0.040491 0.000000 0.050000 0.010000 0.000000 0.000000 0.000000 0.000000 0.110000 0.060000 0.209979 0.000000 0.000000 0.000000 0.000000 0.093252 0.000000 0.000000 0.000000 0.000000 0.000000 0.060123 0.000000 0.000000 0.000000 0.000000 0.000000 0.000000 0.030000 0.080000 0.100000 0.000000 0.189189 0
0.000000 0.000000 0.000000 0.000000 0.029605 0.000000 0.000000 0.000000 0.000000 0.000000 0.000000 0.000000 0.117325 0.009615 0.096154 0.038462 0.009615 0.000000 0.000000 0.000000 0.000000 0.190283 0.000000 0.000000 0.000000 0.000000 0.023026 0.000000 0.000000 0.000000 0.000000 0.155702 0.000000 0.000000 0.000000 0.000000 0.000000 0.057692 0.076923 0.028846 0.000000 0.000000 0.000000 0.131579 0.000000 0.000000 0.000000 0.000000 0.166667 0.000000 0.000000 0.000000 0.000000 0.000000 0.000000 0.000000 0.013158 0.076923 0.038462 0.000000 0.000000 0.000000 0.000000 0.000000 0.000000 0.129555 0.000000 0.000000 0.000000 0.000000 0.158991 0.000000 0.000000 0.000000 0.000000 0.017544 0.000000 0.000000 0.000000 0.000000 0.000000 0.000000 0.038462 0.076923 0.000000 0.000000 0.000000 0.135628 0.000000 0.000000 0.000000 0.000000 0.106360 0.000000 0.000000 0.000000 0.000000 0.000000 0.000000 0.049342 0.000000 0.057692 0.000000 0.000000 0.000000 0.000000 0.000000 0.105769 0.067308 0.212551 0.000000 0.000000 0.000000 0.000000 0.107456 0.000000 0.000000 0.000000 0.000000 0.000000 0.054825 0.000000 0.000000 0.000000 0.000000 0.000000 0.000000 0.038462 0.076923 0.105769 0.000000 0.200405 0
0.000000 0.000000 0.000000 0.000000 0.044910 0.002994 0.000000 0.000000 0.000000 0.002994 0.000000 0.000000 0.122754 0.041096 0.068493 0.041096 0.013699 0.013699 0.000000 0.000000 0.000000 0.131034 0.000000 0.000000 0.000000 0.000000 0.047904 0.000000 0.000000 0.000000 0.000000 0.107784 0.000000 0.000000 0.000000 0.000000 0.000000 0.082192 0.054795 0.041096 0.000000 0.000000 0.000000 0.151724 0.000000 0.000000 0.000000 0.000000 0.146707 0.000000 0.000000 0.000000 0.000000 0.000000 0.000000 0.000000 0.011976 0.068493 0.041096 0.000000 0.000000 0.000000 0.000000 0.000000 0.000000 0.148276 0.000000 0.000000 0.000000 0.000000 0.167665 0.000000 0.000000 0.000000 0.000000 0.002994 0.000000 0.000000 0.000000 0.000000 0.000000 0.000000 0.013699 0.095890 0.000000 0.000000 0.000000 0.134483 0.000000 0.000000 0.000000 0.000000 0.077844 0.000000 0.000000 0.000000 0.000000 0.000000 0.000000 0.068862 0.000000 0.082192 0.000000 0.000000 0.000000 0.000000 0.000000 0.095890 0.054795 0.244828 0.000000 0.000000 0.000000 0.000000 0.089820 0.000000 0.000000 0.000000 0.000000 0.000000 0.104790 0.000000 0.000000 0.000000 0.000000 0.000000 0.000000 0.027397 0.095890 0.068493 0.000000 0.189655 0
0.000000 0.000000 0.000000 0.000000 0.005076 0.000000 0.000000 0.000000 0.000000 0.000000 0.000000 0.000000 0.137056 0.047619 0.047619 0.031746 0.015873 0.000000 0.000000 0.000000 0.000000 0.145833 0.000000 0.000000 0.000000 0.000000 0.081218 0.015228 0.000000 0.000000 0.000000 0.050761 0.000000 0.000000 0.000000 0.000000 0.015873 0.079365 0.047619 0.063492 0.000000 0.000000 0.000000 0.170833 0.000000 0.000000 0.000000 0.000000 0.111675 0.000000 0.000000 0.000000 0.000000 0.000000 0.000000 0.000000 0.025381 0.063492 0.047619 0.000000 0.000000 0.000000 0.000000 0.000000 0.000000 0.150000 0.000000 0.000000 0.000000 0.000000 0.213198 0.000000 0.000000 0.000000 0.000000 0.000000 0.000000 0.000000 0.000000 0.000000 0.000000 0.000000 0.000000 0.095238 0.015873 0.000000 0.000000 0.116667 0.000000 0.000000 0.000000 0.000000 0.096447 0.000000 0.000000 0.000000 0.000000 0.000000 0.000000 0.025381 0.000000 0.111111 0.000000 0.000000 0.000000 0.000000 0.000000 0.095238 0.031746 0.237500 0.000000 0.000000 0.000000 0.000000 0.076142 0.000000 0.000000 0.000000 0.000000 0.000000 0.162437 0.000000 0.000000 0.000000 0.000000 0.000000 0.000000 0.047619 0.079365 0.063492 0.000000 0.179167 0
0.000000 0.000000 0.000000 0.000000 0.000000 0.000000 0.000000 0.000000 0.003226 0.000000 0.000000 0.000000 0.209677 0.015152 0.075758 0.015152 0.000000 0.000000 0.000000 0.000000 0.015152 0.076389 0.000000 0.000000 0.000000 0.000000 0.029032 0.000000 0.000000 0.000000 0.000000 0.087097 0.000000 0.000000 0.000000 0.000000 0.000000 0.075758 0.075758 0.045455 0.000000 0.000000 0.000000 0.208333 0.000000 0.000000 0.000000 0.000000 0.064516 0.000000 0.000000 0.000000 0.000000 0.000000 0.000000 0.000000 0.083871 0.045455 0.075758 0.000000 0.000000 0.000000 0.000000 0.000000 0.000000 0.145833 0.000000 0.000000 0.000000 0.000000 0.170968 0.000000 0.000000 0.000000 0.000000 0.003226 0.003226 0.000000 0.000000 0.000000 0.000000 0.000000 0.015152 0.075758 0.030303 0.000000 0.000000 0.142361 0.000000 0.000000 0.000000 0.000000 0.090323 0.000000 0.000000 0.000000 0.000000 0.000000 0.000000 0.025806 0.003226 0.090909 0.015152 0.000000 0.000000 0.000000 0.000000 0.106061 0.045455 0.253472 0.000000 0.000000 0.000000 0.000000 0.054839 0.000000 0.000000 0.000000 0.000000 0.000000 0.170968 0.000000 0.000000 0.000000 0.000000 0.000000 0.000000 0.030303 0.106061 0.045455 0.000000 0.173611 0
0.000000 0.000000 0.000000 0.000000 0.004082 0.000000 0.000000 0.000000 0.000000 0.000000 0.000000 0.000000 0.205442 0.020833 0.062500 0.020833 0.000000 0.000000 0.000000 0.000000 0.000000 0.084633 0.000000 0.000000 0.000000 0.000000 0.012245 0.000000 0.001361 0.000000 0.000000 0.100680 0.000000 0.000000 0.006803 0.010417 0.020833 0.062500 0.072917 0.041667 0.010417 0.000000 0.000000 0.229399 0.000000 0.000000 0.000000 0.000000 0.100680 0.000000 0.000000 0.000000 0.000000 0.000000 0.000000 0.000000 0.062585 0.052083 0.072917 0.000000 0.000000 0.000000 0.000000 0.000000 0.000000 0.160356 0.000000 0.000000 0.000000 0.000000 0.180952 0.000000 0.001361 0.000000 0.000000 0.001361 0.001361 0.000000 0.000000 0.000000 0.000000 0.000000 0.020833 0.083333 0.020833 0.000000 0.000000 0.124722 0.000000 0.000000 0.000000 0.000000 0.121088 0.000000 0.000000 0.000000 0.000000 0.000000 0.000000 0.016327 0.000000 0.083333 0.010417 0.000000 0.000000 0.000000 0.000000 0.114583 0.041667 0.238307 0.000000 0.000000 0.000000 0.000000 0.068027 0.000000 0.000000 0.000000 0.000000 0.000000 0.115646 0.000000 0.000000 0.000000 0.000000 0.000000 0.000000 0.020833 0.104167 0.052083 0.000000 0.162584 0
0.000000 0.000000 0.000000 0.000000 0.000000 0.000000 0.000000 0.000000 0.000000 0.000000 0.000000 0.000000 0.251701 0.014925 0.059701 0.000000 0.000000 0.000000 0.000000 0.000000 0.000000 0.046053 0.000000 0.000000 0.000000 0.000000 0.030612 0.000000 0.000000 0.000000 0.000000 0.044218 0.000000 0.000000 0.006803 0.014925 0.014925 0.089552 0.059701 0.059701 0.000000 0.000000 0.000000 0.236842 0.000000 0.000000 0.000000 0.000000 0.040816 0.000000 0.000000 0.000000 0.000000 0.000000 0.000000 0.000000 0.085034 0.044776 0.074627 0.014925 0.000000 0.000000 0.000000 0.000000 0.000000 0.167763 0.000000 0.000000 0.000000 0.000000 0.200680 0.000000 0.000000 0.000000 0.000000 0.000000 0.003401 0.000000 0.000000 0.000000 0.000000 0.000000 0.000000 0.104478 0.014925 0.000000 0.000000 0.118421 0.000000 0.000000 0.000000 0.000000 0.068027 0.000000 0.000000 0.000000 0.000000 0.000000 0.006803 0.034014 0.000000 0.089552 0.014925 0.000000 0.000000 0.000000 0.014925 0.089552 0.044776 0.256579 0.000000 0.000000 0.000000 0.000000 0.023810 0.000000 0.000000 0.000000 0.000000 0.000000 0.204082 0.000000 0.000000 0.000000 0.000000 0.000000 0.000000 0.014925 0.104478 0.059701 0.000000 0.174342 0
0.000000 0.000000 0.000000 0.000000 0.000000 0.000000 0.000000 0.000000 0.000000 0.000000 0.000000 0.000000 0.270936 0.000000 0.092593 0.000000 0.000000 0.000000 0.000000 0.000000 0.000000 0.063291 0.000000 0.000000 0.000000 0.000000 0.024631 0.000000 0.000000 0.000000 0.000000 0.068966 0.000000 0.000000 0.004926 0.000000 0.018519 0.074074 0.074074 0.055556 0.000000 0.000000 0.000000 0.210970 0.000000 0.000000 0.000000 0.000000 0.054187 0.000000 0.000000 0.000000 0.000000 0.000000 0.000000 0.000000 0.073892 0.037037 0.092593 0.000000 0.000000 0.000000 0.000000 0.000000 0.000000 0.185654 0.000000 0.000000 0.000000 0.000000 0.182266 0.000000 0.000000 0.000000 0.000000 0.000000 0.004926 0.000000 0.000000 0.000000 0.000000 0.000000 0.000000 0.111111 0.018519 0.000000 0.000000 0.135021 0.000000 0.000000 0.000000 0.000000 0.039409 0.000000 0.000000 0.000000 0.000000 0.000000 0.004926 0.059113 0.000000 0.074074 0.000000 0.000000 0.000000 0.000000 0.018519 0.074074 0.074074 0.248945 0.000000 0.000000 0.000000 0.000000 0.029557 0.000000 0.000000 0.000000 0.000000 0.000000 0.182266 0.000000 0.000000 0.000000 0.000000 0.000000 0.000000 0.018519 0.092593 0.074074 0.000000 0.156118 0
0.000000 0.000000 0.000000 0.000000 0.021687 0.000000 0.000000 0.000000 0.000000 0.000000 0.000000 0.000000 0.149398 0.039474 0.065789 0.052632 0.000000 0.000000 0.000000 0.000000 0.000000 0.134897 0.000000 0.000000 0.000000 0.000000 0.050602 0.000000 0.000000 0.000000 0.000000 0.103614 0.000000 0.000000 0.000000 0.000000 0.000000 0.065789 0.092105 0.026316 0.000000 0.000000 0.000000 0.181818 0.000000 0.000000 0.000000 0.000000 0.132530 0.000000 0.000000 0.000000 0.000000 0.000000 0.000000 0.000000 0.028916 0.065789 0.052632 0.000000 0.000000 0.000000 0.000000 0.000000 0.000000 0.146628 0.000000 0.000000 0.000000 0.000000 0.190361 0.000000 0.000000 0.000000 0.000000 0.002410 0.000000 0.000000 0.000000 0.000000 0.000000 0.000000 0.013158 0.105263 0.000000 0.000000 0.000000 0.134897 0.000000 0.000000 0.000000 0.000000 0.074699 0.000000 0.000000 0.000000 0.000000 0.000000 0.000000 0.065060 0.000000 0.052632 0.000000 0.000000 0.000000 0.000000 0.000000 0.078947 0.078947 0.211144 0.000000 0.000000 0.000000 0.000000 0.079518 0.000000 0.000000 0.000000 0.000000 0.000000 0.101205 0.000000 0.000000 0.000000 0.000000 0.000000 0.000000 0.026316 0.092105 0.092105 0.000000 0.190616 0
0.000000 0.000000 0.000000 0.000000 0.017986 0.000000 0.000000 0.000000 0.000000 0.000000 0.000000 0.000000 0.161871 0.023256 0.069767 0.046512 0.000000 0.000000 0.000000 0.000000 0.000000 0.118280 0.000000 0.000000 0.000000 0.000000 0.034173 0.000000 0.000000 0.000000 0.000000 0.100719 0.000000 0.000000 0.000000 0.000000 0.000000 0.081395 0.069767 0.034884 0.000000 0.000000 0.000000 0.185484 0.000000 0.000000 0.000000 0.000000 0.118705 0.000000 0.000000 0.000000 0.000000 0.000000 0.000000 0.000000 0.037770 0.034884 0.069767 0.000000 0.000000 0.000000 0.000000 0.000000 0.000000 0.153226 0.000000 0.000000 0.000000 0.000000 0.167266 0.000000 0.000000 0.000000 0.000000 0.008993 0.003597 0.000000 0.000000 0.000000 0.000000 0.000000 0.023256 0.069767 0.011628 0.000000 0.000000 0.118280 0.000000 0.000000 0.000000 0.000000 0.118705 0.000000 0.000000 0.000000 0.000000 0.000000 0.000000 0.037770 0.000000 0.081395 0.000000 0.000000 0.000000 0.000000 0.000000 0.127907 0.046512 0.239247 0.000000 0.000000 0.000000 0.000000 0.086331 0.000000 0.000000 0.000000 0.000000 0.000000 0.106115 0.000000 0.000000 0.000000 0.000000 0.000000 0.000000 0.034884 0.081395 0.093023 0.000000 0.185484 0
0.000000 0.000000 0.000000 0.000000 0.000000 0.000000 0.000000 0.000000 0.000000 0.000000 0.000000 0.000000 0.176056 0.000000 0.000000 0.000000 0.000000 0.000000 0.000000 0.000000 0.000000 0.215278 0.000000 0.000000 0.000000 0.000000 0.000000 0.000000 0.000000 0.000000 0.000000 0.193662 0.000000 0.000000 0.000000 0.000000 0.000000 0.000000 0.000000 0.000000 0.000000 0.000000 0.000000 0.031250 0.000000 0.000000 0.000000 0.000000 0.190141 0.000000 0.000000 0.000000 0.000000 0.000000 0.000000 0.000000 0.035211 0.000000 0.000000 0.000000 0.000000 0.000000 0.000000 0.000000 0.000000 0.166667 0.000000 0.000000 0.000000 0.000000 0.010563 0.014085 0.031690 0.000000 0.000000 0.014085 0.000000 0.000000 0.000000 0.000000 0.000000 0.000000 0.000000 0.000000 0.000000 0.000000 0.000000 0.152778 0.000000 0.000000 0.000000 0.000000 0.133803 0.000000 0.000000 0.003521 0.000000 0.000000 0.007042 0.024648 0.000000 0.000000 0.000000 0.000000 0.000000 0.000000 0.000000 0.000000 0.000000 0.319444 0.000000 0.000000 0.000000 0.000000 0.003521 0.000000 0.042254 0.056338 0.000000 0.000000 0.063380 0.000000 0.000000 0.333333 0.000000 0.166667 0.000000 0.333333 0.000000 0.166667 0.000000 0.114583 0
0.000000 0.000000 0.000000 0.000000 0.003595 0.000000 0.000000 0.000000 0.000000 0.000000 0.000000 0.000000 0.191229 0.016129 0.064516 0.032258 0.000000 0.000000 0.000000 0.000000 0.000000 0.090153 0.000000 0.000000 0.000000 0.000000 0.078361 0.000000 0.000000 0.000000 0.000000 0.043134 0.000000 0.000000 0.006470 0.000000 0.024194 0.096774 0.064516 0.048387 0.000000 0.000000 0.000000 0.219140 0.000000 0.000000 0.000000 0.000000 0.094177 0.000000 0.000000 0.000000 0.000000 0.000000 0.000000 0.000000 0.063983 0.032258 0.080645 0.000000 0.000000 0.000000 0.000000 0.000000 0.000000 0.160888 0.000000 0.000000 0.000000 0.000000 0.162473 0.000000 0.000000 0.000000 0.000000 0.000000 0.017254 0.000000 0.000000 0.000000 0.000000 0.000000 0.000000 0.064516 0.048387 0.000000 0.000000 0.119279 0.000000 0.000000 0.000000 0.000000 0.106398 0.000000 0.000000 0.000000 0.000000 0.000000 0.007189 0.015816 0.002876 0.072581 0.016129 0.000000 0.000000 0.000000 0.024194 0.120968 0.040323 0.277393 0.000000 0.000000 0.000000 0.000000 0.029475 0.000000 0.000000 0.000000 0.000000 0.000000 0.177570 0.000000 0.000000 0.000000 0.000000 0.000000 0.000000 0.008065 0.088710 0.056452 0.000000 0.133148 0
0.000000 0.000000 0.000000 0.000000 0.000000 0.000000 0.000000 0.000000 0.000000 0.000000 0.000000 0.000000 0.215271 0.008850 0.061947 0.017699 0.000000 0.000000 0.000000 0.000000 0.000000 0.065767 0.000000 0.000000 0.000000 0.000000 0.071757 0.000000 0.000000 0.000000 0.000000 0.036799 0.000000 0.000000 0.014719 0.000000 0.035398 0.070796 0.070796 0.044248 0.000000 0.000000 0.000000 0.234401 0.000000 0.000000 0.000000 0.000000 0.091076 0.000000 0.000000 0.000000 0.000000 0.000000 0.000000 0.000000 0.076357 0.044248 0.070796 0.017699 0.000000 0.000000 0.000000 0.000000 0.000000 0.153457 0.000000 0.000000 0.000000 0.000000 0.157314 0.000000 0.000000 0.000000 0.000000 0.000000 0.015639 0.000000 0.000000 0.000000 0.000000 0.000000 0.000000 0.070796 0.044248 0.008850 0.000000 0.143339 0.000000 0.000000 0.000000 0.000000 0.101196 0.000000 0.000000 0.000000 0.000000 0.000000 0.014719 0.001840 0.000920 0.097345 0.017699 0.000000 0.000000 0.000000 0.026549 0.141593 0.008850 0.278246 0.000000 0.000000 0.000000 0.000000 0.018399 0.000000 0.000000 0.000000 0.000000 0.000000 0.183993 0.000000 0.000000 0.000000 0.000000 0.000000 0.000000 0.008850 0.079646 0.053097 0.000000 0.124789 0
0.000000 0.021794 0.000000 0.000000 0.000000 0.000000 0.000000 0.000000 0.000000 0.000000 0.000000 0.000000 0.146689 0.013825 0.036866 0.032258 0.000000 0.009217 0.023041 0.018433 0.000000 0.149228 0.011735 0.057837 0.000000 0.000000 0.006706 0.031014 0.000000 0.000000 0.000000 0.041073 0.000000 0.000000 0.000000 0.013825 0.018433 0.059908 0.013825 0.046083 0.013825 0.050691 0.013825 0.190395 0.000000 0.127410 0.000000 0.000000 0.015088 0.000000 0.000000 0.000000 0.000000 0.000000 0.000000 0.000000 0.032691 0.013825 0.041475 0.000000 0.000000 0.023041 0.032258 0.009217 0.000000 0.135506 0.025985 0.092205 0.000000 0.000000 0.007544 0.024308 0.000000 0.000000 0.000000 0.000000 0.024308 0.000000 0.000000 0.018433 0.036866 0.009217 0.000000 0.032258 0.023041 0.009217 0.000000 0.137221 0.000000 0.000000 0.000000 0.000000 0.109807 0.000000 0.000000 0.000000 0.000000 0.000000 0.010059 0.010059 0.000000 0.041475 0.018433 0.055300 0.018433 0.018433 0.018433 0.073733 0.018433 0.269297 0.000000 0.000000 0.000000 0.000000 0.024308 0.000000 0.000000 0.000000 0.000000 0.000000 0.179380 0.000000 0.000000 0.004608 0.023041 0.018433 0.000000 0.000000 0.041475 0.036866 0.000000 0.118353 0
0.000000 0.000000 0.000000 0.000000 0.000000 0.000000 0.000000 0.000000 0.000000 0.000000 0.000000 0.000000 0.249258 0.010417 0.052083 0.031250 0.000000 0.000000 0.000000 0.000000 0.000000 0.054845 0.000000 0.000000 0.000000 0.000000 0.023739 0.000000 0.000000 0.000000 0.000000 0.053412 0.000000 0.000000 0.016320 0.010417 0.031250 0.104167 0.052083 0.062500 0.000000 0.000000 0.000000 0.266910 0.000000 0.000000 0.000000 0.000000 0.072700 0.016320 0.000000 0.000000 0.000000 0.000000 0.000000 0.007418 0.071217 0.041667 0.072917 0.000000 0.000000 0.000000 0.000000 0.000000 0.000000 0.155393 0.000000 0.000000 0.000000 0.000000 0.161721 0.000000 0.000000 0.000000 0.000000 0.000000 0.029674 0.000000 0.000000 0.000000 0.000000 0.000000 0.000000 0.052083 0.062500 0.000000 0.000000 0.146252 0.000000 0.000000 0.000000 0.000000 0.065282 0.000000 0.000000 0.000000 0.000000 0.000000 0.007418 0.022255 0.001484 0.072917 0.020833 0.000000 0.000000 0.000000 0.020833 0.125000 0.020833 0.243144 0.000000 0.000000 0.000000 0.000000 0.011869 0.000000 0.000000 0.000000 0.000000 0.000000 0.189911 0.000000 0.000000 0.000000 0.000000 0.000000 0.000000 0.020833 0.062500 0.072917 0.000000 0.133455 0
0.000000 0.000000 0.000000 0.000000 0.000000 0.000000 0.000000 0.000000 0.000000 0.000000 0.000000 0.000000 0.196937 0.000000 0.000000 0.000000 0.000000 0.000000 0.000000 0.000000 0.000000 0.000000 0.000000 0.000000 0.000000 0.000000 0.039387 0.000000 0.000000 0.000000 0.000000 0.003282 0.000000 0.000000 0.102845 0.000000 0.110000 0.090000 0.020000 0.100000 0.000000 0.000000 0.000000 0.269811 0.000000 0.000000 0.000000 0.000000 0.007659 0.008753 0.000000 0.000000 0.000000 0.000000 0.000000 0.006565 0.100656 0.030000 0.090000 0.010000 0.000000 0.000000 0.000000 0.000000 0.000000 0.126415 0.000000 0.000000 0.000000 0.000000 0.160832 0.000000 0.000000 0.000000 0.000000 0.000000 0.024070 0.000000 0.000000 0.000000 0.000000 0.000000 0.000000 0.060000 0.060000 0.000000 0.000000 0.201887 0.000000 0.000000 0.000000 0.000000 0.048140 0.000000 0.000000 0.000000 0.000000 0.000000 0.004376 0.031729 0.008753 0.070000 0.030000 0.010000 0.000000 0.000000 0.010000 0.080000 0.040000 0.235849 0.000000 0.000000 0.000000 0.000000 0.047046 0.000000 0.000000 0.000000 0.000000 0.000000 0.208972 0.000000 0.000000 0.000000 0.000000 0.000000 0.000000 0.020000 0.100000 0.070000 0.000000 0.166038 0
0.000000 0.000000 0.000000 0.000000 0.002395 0.000000 0.000000 0.000000 0.000000 0.000000 0.000000 0.000000 0.209581 0.016807 0.058824 0.016807 0.000000 0.000000 0.000000 0.000000 0.000000 0.089631 0.000000 0.000000 0.000000 0.000000 0.059880 0.013174 0.003593 0.000000 0.000000 0.011976 0.000000 0.000000 0.020359 0.008403 0.025210 0.100840 0.058824 0.025210 0.033613 0.000000 0.000000 0.261863 0.000000 0.000000 0.000000 0.000000 0.101796 0.000000 0.000000 0.000000 0.004790 0.000000 0.000000 0.000000 0.064671 0.016807 0.050420 0.050420 0.000000 0.000000 0.000000 0.000000 0.033613 0.149385 0.000000 0.000000 0.000000 0.000000 0.152096 0.000000 0.003593 0.000000 0.000000 0.000000 0.038323 0.000000 0.000000 0.000000 0.000000 0.000000 0.025210 0.025210 0.050420 0.033613 0.000000 0.137083 0.000000 0.000000 0.000000 0.000000 0.064671 0.000000 0.000000 0.000000 0.003593 0.000000 0.014371 0.016766 0.000000 0.016807 0.033613 0.008403 0.000000 0.000000 0.016807 0.109244 0.050420 0.254833 0.000000 0.000000 0.000000 0.000000 0.009581 0.000000 0.001198 0.000000 0.000000 0.000000 0.203593 0.000000 0.000000 0.000000 0.000000 0.000000 0.008403 0.016807 0.050420 0.058824 0.000000 0.107206 0
0.000000 0.000000 0.000000 0.000000 0.000000 0.000000 0.000000 0.000000 0.000000 0.000000 0.000000 0.000000 0.241851 0.008772 0.008772 0.008772 0.000000 0.000000 0.000000 0.000000 0.000000 0.007561 0.000000 0.000000 0.000000 0.000000 0.013670 0.000000 0.006309 0.000000 0.001052 0.019979 0.000000 0.000000 0.071504 0.008772 0.070175 0.078947 0.035088 0.061404 0.017544 0.000000 0.008772 0.264650 0.000000 0.000000 0.000000 0.000000 0.026288 0.000000 0.000000 0.000000 0.001052 0.000000 0.000000 0.000000 0.132492 0.026316 0.078947 0.035088 0.000000 0.000000 0.000000 0.000000 0.008772 0.155009 0.000000 0.000000 0.000000 0.000000 0.134595 0.000000 0.002103 0.000000 0.000000 0.000000 0.025237 0.000000 0.000000 0.000000 0.000000 0.000000 0.017544 0.043860 0.052632 0.008772 0.000000 0.175803 0.000000 0.000000 0.000000 0.000000 0.072555 0.000000 0.000000 0.000000 0.003155 0.000000 0.013670 0.008412 0.015773 0.043860 0.043860 0.008772 0.000000 0.000000 0.026316 0.105263 0.035088 0.272212 0.000000 0.000000 0.000000 0.000000 0.018927 0.000000 0.002103 0.000000 0.000000 0.000000 0.189274 0.000000 0.000000 0.000000 0.000000 0.000000 0.017544 0.000000 0.070175 0.070175 0.000000 0.124764 0
0.000000 0.000000 0.000000 0.000000 0.000000 0.000000 0.000000 0.000000 0.015671 0.000000 0.000000 0.000000 0.214496 0.000000 0.000000 0.000000 0.000000 0.000000 0.000000 0.000000 0.000000 0.020761 0.000000 0.000000 0.000000 0.000979 0.002938 0.004897 0.007835 0.005877 0.008815 0.023506 0.015671 0.000000 0.032321 0.000000 0.000000 0.000000 0.000000 0.000000 0.000000 0.000000 0.000000 0.268166 0.000000 0.000000 0.000000 0.000000 0.042116 0.000000 0.000000 0.000000 0.000979 0.000000 0.000000 0.000000 0.106758 0.000000 0.000000 0.000000 0.000000 0.000000 0.000000 0.000000 0.000000 0.162630 0.000000 0.000000 0.001959 0.000000 0.093046 0.000000 0.015671 0.031342 0.000000 0.000000 0.019589 0.000000 0.000000 0.166667 0.083333 0.000000 0.166667 0.166667 0.083333 0.000000 0.083333 0.164360 0.000000 0.000000 0.000000 0.000000 0.090108 0.000000 0.000000 0.000000 0.002938 0.000000 0.013712 0.009794 0.007835 0.000000 0.000000 0.000000 0.000000 0.000000 0.000000 0.000000 0.000000 0.273356 0.000000 0.000000 0.000979 0.000000 0.017630 0.000000 0.000000 0.011753 0.000000 0.000000 0.200784 0.000000 0.000000 0.000000 0.083333 0.000000 0.000000 0.000000 0.083333 0.000000 0.083333 0.110727 0
0.000000 0.000000 0.000000 0.000000 0.000000 0.000000 0.000000 0.000000 0.000000 0.000000 0.000000 0.000000 0.232060 0.000000 0.069565 0.000000 0.000000 0.000000 0.000000 0.000000 0.000000 0.047368 0.000000 0.000000 0.000000 0.000000 0.015843 0.000000 0.001864 0.000000 0.000000 0.030755 0.000000 0.000000 0.035415 0.000000 0.052174 0.078261 0.043478 0.078261 0.008696 0.000000 0.000000 0.276316 0.000000 0.000000 0.000000 0.000000 0.081081 0.000000 0.000000 0.000000 0.000000 0.000000 0.000000 0.000000 0.071761 0.052174 0.078261 0.008696 0.000000 0.000000 0.000000 0.000000 0.000000 0.159211 0.000000 0.000000 0.000000 0.000000 0.174278 0.000000 0.000000 0.000000 0.000000 0.000000 0.006524 0.000000 0.000000 0.000000 0.000000 0.000000 0.000000 0.104348 0.026087 0.000000 0.000000 0.139474 0.000000 0.000000 0.000000 0.000000 0.096925 0.000000 0.000000 0.000000 0.000000 0.000000 0.005592 0.029823 0.001864 0.078261 0.008696 0.000000 0.000000 0.000000 0.017391 0.078261 0.060870 0.235526 0.000000 0.000000 0.000000 0.000000 0.047530 0.000000 0.000000 0.000000 0.000000 0.000000 0.168686 0.000000 0.000000 0.000000 0.000000 0.000000 0.000000 0.008696 0.113043 0.034783 0.000000 0.142105 0
0.000000 0.000000 0.000000 0.000000 0.000000 0.000000 0.000000 0.000000 0.000000 0.000000 0.000000 0.000000 0.236620 0.020408 0.040816 0.040816 0.000000 0.000000 0.000000 0.000000 0.000000 0.065306 0.000000 0.000000 0.000000 0.000000 0.028169 0.000000 0.001408 0.000000 0.000000 0.012676 0.021127 0.000000 0.016901 0.000000 0.030612 0.132653 0.040816 0.010204 0.051020 0.000000 0.000000 0.291837 0.000000 0.000000 0.000000 0.000000 0.081690 0.000000 0.000000 0.000000 0.000000 0.000000 0.000000 0.000000 0.090141 0.051020 0.051020 0.030612 0.000000 0.000000 0.000000 0.000000 0.000000 0.159184 0.000000 0.000000 0.000000 0.000000 0.077465 0.000000 0.000000 0.000000 0.000000 0.000000 0.108451 0.000000 0.000000 0.000000 0.000000 0.000000 0.000000 0.040816 0.061224 0.030612 0.000000 0.138776 0.000000 0.000000 0.000000 0.000000 0.045070 0.000000 0.000000 0.000000 0.000000 0.000000 0.021127 0.012676 0.008451 0.040816 0.030612 0.010204 0.000000 0.000000 0.040816 0.122449 0.030612 0.281633 0.000000 0.000000 0.000000 0.000000 0.000000 0.000000 0.000000 0.000000 0.000000 0.000000 0.238028 0.000000 0.000000 0.000000 0.000000 0.000000 0.000000 0.020408 0.030612 0.040816 0.000000 0.063265 0
0.000000 0.000000 0.000000 0.000000 0.000000 0.000000 0.000000 0.000000 0.000000 0.000000 0.000000 0.000000 0.255591 0.008696 0.052174 0.008696 0.000000 0.000000 0.000000 0.000000 0.000000 0.035471 0.000000 0.000000 0.000000 0.000000 0.019169 0.000000 0.000000 0.000000 0.000000 0.017039 0.000000 0.000000 0.030884 0.000000 0.052174 0.078261 0.026087 0.095652 0.000000 0.000000 0.000000 0.276944 0.000000 0.000000 0.000000 0.000000 0.059638 0.000000 0.000000 0.000000 0.000000 0.000000 0.000000 0.000000 0.099042 0.043478 0.078261 0.000000 0.000000 0.000000 0.000000 0.000000 0.000000 0.159618 0.000000 0.000000 0.000000 0.000000 0.175719 0.000000 0.000000 0.000000 0.000000 0.000000 0.004260 0.000000 0.000000 0.000000 0.000000 0.000000 0.000000 0.113043 0.008696 0.000000 0.000000 0.132333 0.000000 0.000000 0.000000 0.000000 0.111821 0.000000 0.000000 0.000000 0.000000 0.000000 0.002130 0.020234 0.006390 0.078261 0.026087 0.000000 0.000000 0.000000 0.008696 0.113043 0.034783 0.234652 0.000000 0.000000 0.000000 0.000000 0.058573 0.000000 0.000000 0.000000 0.000000 0.000000 0.139510 0.000000 0.000000 0.000000 0.000000 0.000000 0.000000 0.017391 0.104348 0.052174 0.000000 0.160982 0
0.000000 0.000000 0.000000 0.000000 0.000000 0.000000 0.000000 0.000000 0.000000 0.000000 0.000000 0.000000 0.242038 0.009434 0.028302 0.018868 0.000000 0.000000 0.000000 0.000000 0.000000 0.025688 0.000000 0.000000 0.000000 0.000000 0.030573 0.000000 0.000000 0.000000 0.000000 0.012739 0.001274 0.000000 0.035669 0.018868 0.047170 0.094340 0.018868 0.084906 0.009434 0.000000 0.000000 0.280734 0.000000 0.000000 0.000000 0.000000 0.042038 0.000000 0.000000 0.000000 0.000000 0.000000 0.000000 0.000000 0.107006 0.047170 0.066038 0.018868 0.000000 0.000000 0.000000 0.000000 0.000000 0.159633 0.000000 0.000000 0.000000 0.000000 0.143949 0.000000 0.000000 0.000000 0.000000 0.000000 0.033121 0.000000 0.000000 0.000000 0.000000 0.000000 0.000000 0.094340 0.018868 0.000000 0.000000 0.141284 0.000000 0.000000 0.000000 0.000000 0.107006 0.000000 0.000000 0.000000 0.000000 0.000000 0.000000 0.033121 0.007643 0.056604 0.028302 0.000000 0.000000 0.000000 0.000000 0.103774 0.047170 0.223853 0.000000 0.000000 0.000000 0.000000 0.068790 0.000000 0.000000 0.000000 0.000000 0.000000 0.135032 0.000000 0.000000 0.000000 0.000000 0.000000 0.000000 0.047170 0.075472 0.066038 0.000000 0.168807 0
0.000000 0.000000 0.000000 0.000000 0.000957 0.000000 0.000000 0.000000 0.000000 0.000000 0.000000 0.000000 0.208612 0.016949 0.076271 0.025424 0.000000 0.000000 0.000000 0.000000 0.000000 0.099851 0.000000 0.000000 0.000000 0.000000 0.054545 0.002871 0.000000 0.000000 0.000000 0.015311 0.023923 0.000000 0.000957 0.000000 0.016949 0.127119 0.033898 0.067797 0.016949 0.008475 0.000000 0.274218 0.000000 0.000000 0.000000 0.000000 0.117703 0.000000 0.000000 0.000000 0.000000 0.000000 0.000000 0.000000 0.045933 0.033898 0.076271 0.008475 0.000000 0.000000 0.000000 0.000000 0.000000 0.171386 0.000000 0.000000 0.000000 0.000000 0.141627 0.000000 0.000000 0.000000 0.000000 0.000000 0.053589 0.000000 0.000000 0.000000 0.000000 0.000000 0.000000 0.076271 0.033898 0.000000 0.000000 0.122206 0.000000 0.000000 0.000000 0.000000 0.111005 0.000000 0.000000 0.000000 0.000000 0.000000 0.000957 0.029665 0.000000 0.059322 0.000000 0.000000 0.000000 0.000000 0.008475 0.118644 0.050847 0.205663 0.000000 0.000000 0.000000 0.000000 0.037321 0.000000 0.000000 0.000000 0.000000 0.000000 0.155024 0.000000 0.000000 0.000000 0.000000 0.000000 0.000000 0.016949 0.076271 0.050847 0.000000 0.126677 0
0.000000 0.000000 0.000000 0.000000 0.002860 0.000000 0.000000 0.000000 0.000000 0.000000 0.000000 0.000000 0.201144 0.017094 0.068376 0.017094 0.000000 0.000000 0.000000 0.000000 0.000000 0.087928 0.000000 0.000000 0.000000 0.000000 0.103908 0.000000 0.000000 0.000000 0.000000 0.019066 0.000000 0.000000 0.001907 0.008547 0.008547 0.136752 0.034188 0.068376 0.008547 0.000000 0.000000 0.230999 0.000000 0.000000 0.000000 0.000000 0.079123 0.000000 0.000000 0.000000 0.000000 0.000000 0.000000 0.000000 0.076263 0.042735 0.068376 0.000000 0.000000 0.000000 0.000000 0.000000 0.000000 0.163934 0.000000 0.000000 0.000000 0.000000 0.149666 0.000000 0.000000 0.000000 0.000000 0.000000 0.037178 0.000000 0.000000 0.000000 0.000000 0.000000 0.000000 0.068376 0.042735 0.000000 0.000000 0.134128 0.000000 0.000000 0.000000 0.000000 0.084843 0.000000 0.000000 0.000000 0.000000 0.000000 0.011439 0.008580 0.007626 0.068376 0.025641 0.000000 0.000000 0.000000 0.025641 0.119658 0.025641 0.262295 0.000000 0.000000 0.000000 0.000000 0.024786 0.000000 0.000000 0.000000 0.000000 0.000000 0.191611 0.000000 0.000000 0.000000 0.000000 0.000000 0.000000 0.008547 0.076923 0.059829 0.000000 0.120715 0
0.000000 0.000000 0.000000 0.000000 0.000000 0.000000 0.000000 0.000000 0.000000 0.000000 0.000000 0.000000 0.258778 0.000000 0.049505 0.009901 0.000000 0.000000 0.000000 0.000000 0.000000 0.028333 0.000000 0.000000 0.000000 0.000000 0.039012 0.000000 0.002601 0.000000 0.000000 0.003901 0.000000 0.000000 0.037711 0.000000 0.059406 0.099010 0.029703 0.069307 0.019802 0.000000 0.000000 0.273333 0.000000 0.000000 0.000000 0.000000 0.050715 0.000000 0.000000 0.000000 0.000000 0.000000 0.000000 0.000000 0.093628 0.009901 0.108911 0.000000 0.000000 0.000000 0.000000 0.000000 0.000000 0.175000 0.000000 0.000000 0.000000 0.000000 0.163849 0.000000 0.000000 0.000000 0.000000 0.000000 0.029909 0.000000 0.000000 0.000000 0.000000 0.000000 0.000000 0.089109 0.029703 0.000000 0.000000 0.131667 0.000000 0.000000 0.000000 0.000000 0.088427 0.000000 0.000000 0.000000 0.000000 0.000000 0.003901 0.013004 0.002601 0.089109 0.009901 0.000000 0.000000 0.000000 0.009901 0.128713 0.029703 0.251667 0.000000 0.000000 0.000000 0.000000 0.036411 0.000000 0.000000 0.000000 0.000000 0.000000 0.175553 0.000000 0.000000 0.000000 0.000000 0.000000 0.000000 0.009901 0.099010 0.049505 0.000000 0.140000 0
0.000000 0.000000 0.000000 0.000000 0.000000 0.000000 0.000000 0.000000 0.000000 0.000000 0.000000 0.000000 0.263158 0.000000 0.037383 0.009346 0.000000 0.000000 0.000000 0.000000 0.000000 0.019108 0.000000 0.000000 0.000000 0.000000 0.032475 0.000000 0.004479 0.000000 0.000000 0.002240 0.001120 0.000000 0.054871 0.000000 0.074766 0.093458 0.018692 0.084112 0.018692 0.000000 0.000000 0.278662 0.000000 0.000000 0.000000 0.000000 0.041433 0.000000 0.000000 0.000000 0.000000 0.000000 0.000000 0.000000 0.110862 0.037383 0.084112 0.018692 0.000000 0.000000 0.000000 0.000000 0.000000 0.176752 0.000000 0.000000 0.000000 0.000000 0.127660 0.000000 0.000000 0.000000 0.000000 0.000000 0.052632 0.000000 0.000000 0.000000 0.000000 0.000000 0.000000 0.056075 0.065421 0.000000 0.000000 0.157643 0.000000 0.000000 0.000000 0.000000 0.072788 0.000000 0.000000 0.000000 0.000000 0.000000 0.008959 0.005599 0.003359 0.074766 0.028037 0.000000 0.000000 0.000000 0.028037 0.121495 0.018692 0.264331 0.000000 0.000000 0.000000 0.000000 0.010078 0.000000 0.000000 0.000000 0.000000 0.000000 0.208287 0.000000 0.000000 0.000000 0.000000 0.000000 0.000000 0.018692 0.065421 0.046729 0.000000 0.103503 0
0.000000 0.000000 0.000000 0.000000 0.000000 0.000000 0.000000 0.000000 0.000000 0.000000 0.000000 0.000000 0.252525 0.009524 0.038095 0.009524 0.000000 0.000000 0.000000 0.000000 0.000000 0.027730 0.000000 0.000000 0.000000 0.000000 0.042929 0.000000 0.001263 0.000000 0.000000 0.007576 0.000000 0.000000 0.039141 0.000000 0.057143 0.104762 0.019048 0.085714 0.009524 0.000000 0.000000 0.270364 0.000000 0.000000 0.000000 0.000000 0.047980 0.000000 0.000000 0.000000 0.000000 0.000000 0.000000 0.000000 0.097222 0.038095 0.076190 0.028571 0.000000 0.000000 0.000000 0.000000 0.000000 0.175043 0.000000 0.000000 0.000000 0.000000 0.164141 0.000000 0.000000 0.000000 0.000000 0.000000 0.020202 0.000000 0.000000 0.000000 0.000000 0.000000 0.000000 0.076190 0.038095 0.000000 0.000000 0.142114 0.000000 0.000000 0.000000 0.000000 0.080808 0.000000 0.000000 0.000000 0.000000 0.000000 0.007576 0.017677 0.003788 0.076190 0.019048 0.000000 0.000000 0.000000 0.019048 0.114286 0.028571 0.254766 0.000000 0.000000 0.000000 0.000000 0.040404 0.000000 0.000000 0.000000 0.000000 0.000000 0.176768 0.000000 0.000000 0.000000 0.000000 0.000000 0.000000 0.009524 0.085714 0.057143 0.000000 0.129983 0
0.000000 0.000000 0.000000 0.000000 0.000000 0.000000 0.000000 0.000000 0.000000 0.000000 0.000000 0.000000 0.221393 0.016129 0.056452 0.008065 0.000000 0.000000 0.000000 0.000000 0.000000 0.056241 0.000000 0.000000 0.000000 0.000000 0.050580 0.000000 0.000000 0.000000 0.000000 0.056385 0.000000 0.000000 0.011609 0.008065 0.024194 0.096774 0.048387 0.064516 0.000000 0.000000 0.000000 0.245542 0.000000 0.000000 0.000000 0.000000 0.067164 0.000000 0.000000 0.000000 0.000000 0.000000 0.000000 0.000000 0.084577 0.048387 0.064516 0.024194 0.000000 0.000000 0.000000 0.000000 0.000000 0.171468 0.000000 0.000000 0.000000 0.000000 0.174959 0.000000 0.000829 0.000000 0.000000 0.003317 0.008292 0.000000 0.000000 0.000000 0.000000 0.000000 0.016129 0.056452 0.040323 0.000000 0.000000 0.131687 0.000000 0.000000 0.000000 0.000000 0.102819 0.000000 0.000000 0.000829 0.000000 0.000000 0.004146 0.012438 0.002488 0.064516 0.024194 0.000000 0.000000 0.000000 0.024194 0.104839 0.040323 0.249657 0.000000 0.000000 0.000000 0.000000 0.049751 0.000000 0.000000 0.000000 0.000000 0.000000 0.148425 0.000000 0.000000 0.000000 0.000000 0.000000 0.000000 0.016129 0.080645 0.072581 0.000000 0.145405 0
0.000000 0.000000 0.000000 0.000000 0.000000 0.000000 0.000000 0.000000 0.000000 0.000000 0.000000 0.000000 0.260023 0.009524 0.019048 0.009524 0.000000 0.000000 0.000000 0.000000 0.000000 0.011532 0.000000 0.000000 0.000000 0.000000 0.022910 0.000000 0.000000 0.000000 0.000000 0.034364 0.000000 0.000000 0.059565 0.009524 0.076190 0.057143 0.038095 0.085714 0.000000 0.000000 0.000000 0.238880 0.000000 0.000000 0.000000 0.000000 0.022910 0.000000 0.000000 0.000000 0.000000 0.000000 0.000000 0.000000 0.128293 0.038095 0.085714 0.019048 0.000000 0.000000 0.000000 0.000000 0.000000 0.168040 0.000000 0.000000 0.000000 0.000000 0.153494 0.000000 0.000000 0.000000 0.000000 0.000000 0.012600 0.000000 0.000000 0.000000 0.000000 0.000000 0.000000 0.085714 0.038095 0.000000 0.000000 0.168040 0.000000 0.000000 0.000000 0.000000 0.066438 0.000000 0.000000 0.000000 0.000000 0.000000 0.006873 0.009164 0.014891 0.066667 0.038095 0.000000 0.000000 0.000000 0.019048 0.114286 0.028571 0.275124 0.000000 0.000000 0.000000 0.000000 0.024055 0.000000 0.000000 0.000000 0.000000 0.000000 0.184422 0.000000 0.000000 0.000000 0.000000 0.000000 0.000000 0.019048 0.085714 0.057143 0.000000 0.138386 0
0.000000 0.000000 0.000000 0.000000 0.000000 0.000000 0.000000 0.000000 0.000000 0.000000 0.000000 0.000000 0.268293 0.018018 0.018018 0.018018 0.000000 0.000000 0.000000 0.000000 0.000000 0.019324 0.000000 0.000000 0.000000 0.000000 0.002567 0.000000 0.007702 0.000000 0.000000 0.000000 0.019255 0.000000 0.060334 0.009009 0.063063 0.090090 0.027027 0.045045 0.045045 0.018018 0.000000 0.264090 0.000000 0.000000 0.000000 0.000000 0.030809 0.000000 0.000000 0.000000 0.000000 0.000000 0.000000 0.000000 0.105263 0.027027 0.090090 0.009009 0.000000 0.000000 0.000000 0.000000 0.000000 0.185185 0.000000 0.000000 0.000000 0.000000 0.134788 0.000000 0.008986 0.000000 0.000000 0.000000 0.050064 0.000000 0.000000 0.000000 0.000000 0.000000 0.009009 0.099099 0.009009 0.000000 0.000000 0.133655 0.000000 0.000000 0.000000 0.000000 0.075738 0.000000 0.000000 0.000000 0.001284 0.000000 0.002567 0.015404 0.008986 0.063063 0.027027 0.000000 0.000000 0.000000 0.009009 0.108108 0.036036 0.252818 0.000000 0.000000 0.000000 0.000000 0.041078 0.000000 0.002567 0.000000 0.000000 0.000000 0.164313 0.000000 0.000000 0.000000 0.000000 0.000000 0.018018 0.000000 0.090090 0.054054 0.000000 0.144928 0
0.000000 0.000000 0.000000 0.000000 0.000000 0.000000 0.000000 0.000000 0.000000 0.000000 0.000000 0.000000 0.252830 0.009524 0.047619 0.019048 0.000000 0.000000 0.000000 0.000000 0.000000 0.044190 0.000000 0.000000 0.000000 0.000000 0.018868 0.000000 0.000000 0.000000 0.000000 0.002516 0.018868 0.000000 0.035220 0.000000 0.047619 0.114286 0.009524 0.076190 0.028571 0.009524 0.000000 0.274959 0.000000 0.000000 0.000000 0.000000 0.057862 0.000000 0.000000 0.000000 0.000000 0.000000 0.000000 0.000000 0.090566 0.038095 0.076190 0.019048 0.000000 0.000000 0.000000 0.000000 0.000000 0.180033 0.000000 0.000000 0.000000 0.000000 0.101887 0.000000 0.000000 0.000000 0.000000 0.000000 0.081761 0.000000 0.000000 0.000000 0.000000 0.000000 0.000000 0.076190 0.038095 0.000000 0.000000 0.134206 0.000000 0.000000 0.000000 0.000000 0.103145 0.000000 0.000000 0.000000 0.000000 0.000000 0.001258 0.015094 0.001258 0.066667 0.019048 0.000000 0.000000 0.000000 0.009524 0.123810 0.038095 0.247136 0.000000 0.000000 0.000000 0.000000 0.022642 0.000000 0.000000 0.000000 0.000000 0.000000 0.196226 0.000000 0.000000 0.000000 0.000000 0.000000 0.000000 0.028571 0.076190 0.028571 0.000000 0.119476 0
0.000000 0.000000 0.000000 0.000000 0.000000 0.000000 0.000000 0.000000 0.000000 0.000000 0.000000 0.000000 0.237906 0.008333 0.016667 0.000000 0.000000 0.000000 0.000000 0.000000 0.000000 0.019255 0.015242 0.030484 0.000000 0.000000 0.000000 0.013254 0.001325 0.000000 0.000000 0.029158 0.000000 0.000000 0.023194 0.050000 0.037500 0.025000 0.020833 0.075000 0.037500 0.004167 0.012500 0.261874 0.000000 0.019218 0.000000 0.000000 0.020543 0.000000 0.000000 0.000000 0.000000 0.000000 0.000000 0.000000 0.125249 0.025000 0.045833 0.004167 0.000000 0.016667 0.037500 0.004167 0.000000 0.160462 0.018555 0.090126 0.000000 0.000000 0.028496 0.008615 0.000000 0.000000 0.000000 0.000000 0.022531 0.000000 0.000000 0.050000 0.020833 0.000000 0.000000 0.058333 0.029167 0.000000 0.000000 0.154044 0.000000 0.000000 0.000000 0.000000 0.106693 0.000000 0.000000 0.000000 0.000000 0.000000 0.003976 0.000000 0.019218 0.050000 0.054167 0.037500 0.004167 0.033333 0.033333 0.079167 0.000000 0.256739 0.000000 0.000000 0.000000 0.000000 0.027833 0.000000 0.000000 0.000000 0.000000 0.000000 0.158383 0.000000 0.000000 0.004167 0.033333 0.008333 0.000000 0.012500 0.050000 0.020833 0.000000 0.147625 0
0.000000 0.000000 0.000000 0.000000 0.000000 0.000000 0.000000 0.000000 0.000000 0.000000 0.000000 0.000000 0.222510 0.014085 0.035211 0.021127 0.000000 0.000000 0.000000 0.000000 0.000000 0.034091 0.000000 0.000000 0.000000 0.000000 0.051349 0.000000 0.000000 0.000000 0.000000 0.007261 0.003112 0.000000 0.038900 0.007042 0.056338 0.105634 0.021127 0.084507 0.014085 0.000000 0.000000 0.301136 0.000000 0.000000 0.000000 0.000000 0.077801 0.000000 0.000000 0.000000 0.000000 0.000000 0.000000 0.000000 0.089212 0.035211 0.084507 0.014085 0.000000 0.000000 0.000000 0.000000 0.000000 0.155682 0.000000 0.000000 0.000000 0.000000 0.106846 0.000000 0.000000 0.000000 0.000000 0.000000 0.065871 0.000000 0.000000 0.000000 0.000000 0.000000 0.000000 0.028169 0.091549 0.000000 0.000000 0.143182 0.000000 0.000000 0.000000 0.000000 0.067427 0.000000 0.000000 0.000000 0.000000 0.000000 0.035270 0.001037 0.011929 0.084507 0.035211 0.000000 0.000000 0.000000 0.056338 0.119718 0.007042 0.298864 0.000000 0.000000 0.000000 0.000000 0.001556 0.000000 0.000000 0.000000 0.000000 0.000000 0.219917 0.000000 0.000000 0.000000 0.000000 0.000000 0.000000 0.000000 0.063380 0.021127 0.000000 0.067045 0
0.000000 0.000000 0.000000 0.000000 0.000000 0.000000 0.000000 0.000000 0.000000 0.000000 0.000000 0.000000 0.226479 0.020690 0.027586 0.020690 0.000000 0.000000 0.000000 0.000000 0.000000 0.038462 0.000000 0.000000 0.000000 0.000000 0.055771 0.002425 0.000000 0.000000 0.000000 0.001455 0.012124 0.000000 0.035403 0.006897 0.068966 0.096552 0.020690 0.075862 0.034483 0.000000 0.000000 0.294179 0.000000 0.000000 0.000000 0.000000 0.049467 0.000000 0.000000 0.000000 0.000000 0.000000 0.000000 0.000000 0.119302 0.034483 0.089655 0.006897 0.000000 0.000000 0.000000 0.000000 0.000000 0.162162 0.000000 0.000000 0.000000 0.000000 0.079534 0.000000 0.000000 0.000000 0.000000 0.000000 0.092144 0.000000 0.000000 0.000000 0.000000 0.000000 0.000000 0.027586 0.096552 0.000000 0.000000 0.155925 0.000000 0.000000 0.000000 0.000000 0.051406 0.000000 0.000000 0.000000 0.000000 0.000000 0.028128 0.006790 0.017944 0.062069 0.041379 0.006897 0.000000 0.006897 0.055172 0.110345 0.020690 0.300416 0.000000 0.000000 0.000000 0.000000 0.000000 0.000000 0.000000 0.000000 0.000000 0.000000 0.221629 0.000000 0.000000 0.000000 0.000000 0.000000 0.000000 0.006897 0.048276 0.013793 0.000000 0.048857 0
0.000000 0.000000 0.000000 0.000000 0.000000 0.000000 0.000000 0.000000 0.000000 0.000000 0.000000 0.000000 0.253563 0.005882 0.029412 0.011765 0.000000 0.000000 0.000000 0.000000 0.000000 0.024027 0.000000 0.000000 0.000000 0.000000 0.036817 0.000594 0.006532 0.000000 0.000594 0.002375 0.000000 0.000000 0.049881 0.011765 0.058824 0.076471 0.041176 0.041176 0.035294 0.000000 0.005882 0.258492 0.000000 0.000000 0.000000 0.000000 0.054632 0.000000 0.000000 0.000000 0.001781 0.000000 0.000000 0.000000 0.109264 0.035294 0.058824 0.035294 0.000000 0.000000 0.000000 0.000000 0.017647 0.146645 0.000000 0.000000 0.000000 0.000000 0.143112 0.000000 0.004751 0.000000 0.000000 0.000000 0.017221 0.000000 0.000000 0.000000 0.000000 0.000000 0.047059 0.017647 0.047059 0.011765 0.000000 0.163215 0.000000 0.000000 0.000000 0.000000 0.091449 0.000000 0.000000 0.000000 0.002375 0.000000 0.008314 0.010095 0.007720 0.041176 0.041176 0.005882 0.000000 0.000000 0.011765 0.105882 0.041176 0.250207 0.000000 0.000000 0.000000 0.000000 0.044537 0.000000 0.001188 0.000000 0.000000 0.000000 0.153207 0.000000 0.000000 0.000000 0.000000 0.000000 0.011765 0.011765 0.082353 0.058824 0.000000 0.157415 0
0.000000 0.000000 0.000000 0.000000 0.000000 0.000000 0.000000 0.000000 0.000000 0.000000 0.000000 0.000000 0.242826 0.000000 0.000000 0.000000 0.000000 0.000000 0.000000 0.000000 0.000000 0.000000 0.000000 0.000000 0.000000 0.000000 0.004967 0.000000 0.008830 0.000000 0.001104 0.004415 0.000000 0.000000 0.112583 0.044025 0.069182 0.050314 0.037736 0.069182 0.018868 0.006289 0.006289 0.236870 0.000000 0.000000 0.000000 0.000000 0.012693 0.000000 0.000000 0.000000 0.001104 0.000000 0.000000 0.000000 0.169426 0.018868 0.075472 0.025157 0.000000 0.000000 0.000000 0.000000 0.012579 0.115756 0.000000 0.000000 0.000000 0.000000 0.115894 0.000000 0.001104 0.000000 0.000000 0.000000 0.014901 0.000000 0.000552 0.006289 0.012579 0.000000 0.012579 0.075472 0.037736 0.012579 0.000000 0.235798 0.000000 0.000000 0.000000 0.000000 0.052980 0.000000 0.000000 0.000000 0.001104 0.000000 0.022627 0.000552 0.030905 0.062893 0.050314 0.012579 0.000000 0.000000 0.037736 0.088050 0.018868 0.285102 0.000000 0.000000 0.000000 0.000000 0.018212 0.000000 0.001104 0.000000 0.000000 0.000000 0.182119 0.000000 0.000000 0.000000 0.000000 0.000000 0.012579 0.006289 0.069182 0.050314 0.000000 0.126474 0
0.000000 0.000000 0.000000 0.000000 0.000000 0.000000 0.000000 0.000000 0.000707 0.000000 0.000000 0.000000 0.227562 0.021127 0.056338 0.035211 0.000000 0.000000 0.000000 0.000000 0.000000 0.066471 0.000000 0.000000 0.000000 0.000000 0.051590 0.000000 0.003534 0.000000 0.000000 0.023322 0.003534 0.000000 0.012721 0.000000 0.028169 0.091549 0.056338 0.028169 0.035211 0.000000 0.007042 0.251222 0.000000 0.000000 0.000000 0.000000 0.080565 0.000000 0.000000 0.000000 0.000000 0.000000 0.000000 0.000000 0.074205 0.063380 0.056338 0.007042 0.000000 0.000000 0.000000 0.000000 0.000000 0.168133 0.000000 0.000000 0.000000 0.000000 0.127208 0.000000 0.002120 0.000000 0.000000 0.000000 0.037456 0.000000 0.000000 0.000000 0.000000 0.000000 0.021127 0.042254 0.056338 0.000000 0.000000 0.151515 0.000000 0.000000 0.000000 0.000000 0.087633 0.000000 0.000000 0.000000 0.000707 0.000000 0.014134 0.028269 0.004947 0.063380 0.021127 0.000000 0.000000 0.007042 0.028169 0.084507 0.049296 0.239492 0.000000 0.000000 0.000000 0.000000 0.011307 0.000000 0.000000 0.000000 0.000000 0.000000 0.208481 0.000000 0.000000 0.000000 0.000000 0.000000 0.000000 0.028169 0.063380 0.049296 0.000000 0.123167 0
0.000000 0.000000 0.000000 0.000000 0.000000 0.000000 0.000000 0.000000 0.000000 0.000000 0.000000 0.000000 0.228357 0.000000 0.007752 0.000000 0.000000 0.000000 0.000000 0.000000 0.000000 0.003096 0.000000 0.000000 0.000000 0.000000 0.039311 0.000000 0.000000 0.000000 0.000000 0.007951 0.000000 0.000000 0.061396 0.050388 0.054264 0.034884 0.019380 0.058140 0.046512 0.011628 0.003876 0.303406 0.000000 0.000000 0.000000 0.000000 0.015459 0.000000 0.000000 0.000000 0.000000 0.000000 0.000000 0.000000 0.154594 0.031008 0.046512 0.000000 0.000000 0.007752 0.031008 0.000000 0.000000 0.139319 0.000000 0.000000 0.000000 0.000000 0.128534 0.000000 0.000000 0.000000 0.000000 0.000000 0.033127 0.000000 0.000000 0.046512 0.031008 0.000000 0.000000 0.062016 0.054264 0.000000 0.000000 0.179567 0.000000 0.000000 0.038428 0.000000 0.033127 0.000000 0.000000 0.026943 0.000000 0.000000 0.000000 0.000000 0.049028 0.038760 0.077519 0.011628 0.000000 0.038760 0.038760 0.065891 0.000000 0.218782 0.000000 0.000000 0.002650 0.000000 0.026060 0.000000 0.000000 0.000000 0.000000 0.000000 0.155035 0.000000 0.000000 0.003876 0.042636 0.000000 0.000000 0.011628 0.065891 0.007752 0.000000 0.155831 0
0.000000 0.000000 0.000000 0.000000 0.000000 0.000000 0.000000 0.000000 0.000000 0.000000 0.000000 0.000000 0.221998 0.009756 0.019512 0.009756 0.000000 0.000000 0.000000 0.000000 0.000000 0.016118 0.000000 0.000000 0.000000 0.000000 0.053406 0.000000 0.003176 0.000000 0.000000 0.003464 0.000000 0.000000 0.058891 0.019512 0.063415 0.078049 0.034146 0.068293 0.014634 0.000000 0.000000 0.283111 0.000000 0.000000 0.000000 0.000000 0.055139 0.000000 0.000000 0.000000 0.000000 0.000000 0.000000 0.000000 0.105081 0.043902 0.073171 0.024390 0.000000 0.000000 0.000000 0.000000 0.000000 0.166083 0.000000 0.000000 0.000000 0.000000 0.149249 0.000000 0.000577 0.000000 0.000000 0.000000 0.023961 0.000000 0.000000 0.000000 0.000000 0.000000 0.009756 0.058537 0.048780 0.009756 0.000000 0.149965 0.000000 0.000000 0.000000 0.000000 0.106813 0.000000 0.000000 0.000000 0.001732 0.000000 0.005774 0.003176 0.017898 0.053659 0.039024 0.009756 0.000000 0.009756 0.014634 0.126829 0.029268 0.249474 0.000000 0.000000 0.000000 0.000000 0.015589 0.000000 0.000000 0.000000 0.000000 0.000000 0.174076 0.000000 0.000000 0.000000 0.000000 0.000000 0.000000 0.014634 0.078049 0.039024 0.000000 0.135249 0
0.000000 0.000000 0.000000 0.000000 0.000000 0.000000 0.000000 0.000000 0.000000 0.000000 0.000000 0.000000 0.240741 0.005952 0.023810 0.011905 0.000000 0.000000 0.000000 0.000000 0.000000 0.016323 0.000000 0.000000 0.000000 0.000000 0.034034 0.000000 0.012012 0.000000 0.000000 0.007508 0.007007 0.000000 0.051552 0.023810 0.059524 0.077381 0.053571 0.041667 0.023810 0.023810 0.000000 0.254296 0.000000 0.000000 0.000000 0.000000 0.031532 0.000000 0.000000 0.000000 0.001001 0.000000 0.000000 0.000000 0.122122 0.053571 0.053571 0.035714 0.000000 0.000000 0.000000 0.000000 0.011905 0.164089 0.000000 0.000000 0.000000 0.000000 0.125626 0.000000 0.001502 0.000000 0.000000 0.000000 0.031031 0.000000 0.000000 0.000000 0.000000 0.000000 0.017857 0.047619 0.053571 0.000000 0.000000 0.175258 0.000000 0.000000 0.000000 0.000000 0.076577 0.000000 0.000000 0.000000 0.001502 0.000000 0.016016 0.007508 0.017518 0.035714 0.053571 0.000000 0.000000 0.000000 0.029762 0.089286 0.041667 0.268041 0.000000 0.000000 0.000000 0.000000 0.013514 0.000000 0.000000 0.000000 0.000000 0.000000 0.201702 0.000000 0.000000 0.000000 0.000000 0.000000 0.000000 0.017857 0.077381 0.035714 0.000000 0.121993 0
0.000000 0.000000 0.000000 0.000000 0.000000 0.000000 0.000000 0.000000 0.000000 0.000000 0.000000 0.000000 0.238947 0.000000 0.042553 0.000000 0.000000 0.000000 0.000000 0.000000 0.000000 0.020854 0.000000 0.000000 0.000000 0.000000 0.031579 0.000000 0.002632 0.000000 0.000000 0.018947 0.001053 0.000000 0.051579 0.007092 0.078014 0.063830 0.042553 0.070922 0.021277 0.000000 0.000000 0.290963 0.000000 0.000000 0.000000 0.000000 0.058947 0.000000 0.000000 0.000000 0.000000 0.000000 0.000000 0.000000 0.101053 0.042553 0.092199 0.014184 0.000000 0.000000 0.000000 0.000000 0.000000 0.169811 0.000000 0.000000 0.000000 0.000000 0.109474 0.000000 0.000000 0.000000 0.000000 0.000000 0.055263 0.000000 0.000000 0.000000 0.000000 0.000000 0.000000 0.056738 0.078014 0.007092 0.000000 0.179742 0.000000 0.000000 0.000000 0.000000 0.063158 0.000000 0.000000 0.000000 0.000000 0.000000 0.029474 0.005789 0.007368 0.085106 0.028369 0.000000 0.000000 0.000000 0.056738 0.092199 0.021277 0.272095 0.000000 0.000000 0.000000 0.000000 0.001579 0.000000 0.000000 0.000000 0.000000 0.000000 0.223158 0.000000 0.000000 0.000000 0.000000 0.000000 0.000000 0.014184 0.056738 0.028369 0.000000 0.066534 0
0.000000 0.000000 0.000000 0.000000 0.000000 0.000000 0.000000 0.000000 0.000000 0.000000 0.000000 0.000000 0.202876 0.006289 0.037736 0.025157 0.000000 0.000000 0.000000 0.000000 0.000000 0.052922 0.000000 0.000000 0.000000 0.000000 0.066848 0.000000 0.000000 0.000000 0.000000 0.001555 0.010105 0.000000 0.042752 0.000000 0.069182 0.100629 0.012579 0.069182 0.037736 0.000000 0.000000 0.284454 0.000000 0.000000 0.000000 0.000000 0.070735 0.000000 0.000000 0.000000 0.000000 0.000000 0.000000 0.000000 0.072289 0.031447 0.088050 0.018868 0.000000 0.000000 0.000000 0.000000 0.000000 0.222712 0.000000 0.000000 0.000000 0.000000 0.113098 0.000000 0.000000 0.000000 0.000000 0.000000 0.073455 0.000000 0.000000 0.000000 0.000000 0.000000 0.000000 0.062893 0.056604 0.000000 0.000000 0.099228 0.000000 0.000000 0.000000 0.000000 0.116207 0.000000 0.000000 0.000000 0.000000 0.000000 0.014769 0.008162 0.005052 0.075472 0.018868 0.000000 0.000000 0.000000 0.031447 0.119497 0.031447 0.252481 0.000000 0.000000 0.000000 0.000000 0.018267 0.000000 0.000000 0.000000 0.000000 0.000000 0.183832 0.000000 0.000000 0.000000 0.000000 0.000000 0.000000 0.012579 0.075472 0.018868 0.000000 0.088203 0
0.000000 0.000000 0.000000 0.000000 0.000000 0.000000 0.000000 0.000000 0.000000 0.000000 0.000000 0.000000 0.210950 0.000000 0.037267 0.012422 0.000000 0.000000 0.000000 0.000000 0.000000 0.030682 0.000000 0.000000 0.000000 0.000000 0.052738 0.000000 0.000000 0.000000 0.000000 0.000805 0.008857 0.000000 0.057971 0.006211 0.068323 0.099379 0.006211 0.093168 0.018634 0.006211 0.000000 0.286364 0.000000 0.000000 0.000000 0.000000 0.069243 0.000000 0.000000 0.000000 0.000000 0.000000 0.000000 0.000000 0.082126 0.037267 0.080745 0.031056 0.000000 0.000000 0.000000 0.000000 0.000000 0.198864 0.000000 0.000000 0.000000 0.000000 0.123188 0.000000 0.000000 0.000000 0.000000 0.000000 0.065620 0.000000 0.000000 0.000000 0.000000 0.000000 0.000000 0.062112 0.055901 0.000000 0.000000 0.093182 0.000000 0.000000 0.000000 0.000000 0.095411 0.000000 0.000000 0.000805 0.000000 0.000000 0.024960 0.002415 0.002415 0.086957 0.018634 0.000000 0.000000 0.000000 0.055901 0.093168 0.024845 0.303409 0.000000 0.000000 0.000000 0.000000 0.011675 0.000000 0.000000 0.000000 0.000000 0.000000 0.190821 0.000000 0.000000 0.000000 0.000000 0.000000 0.000000 0.006211 0.062112 0.037267 0.000000 0.087500 0
0.000000 0.000000 0.000000 0.000000 0.000449 0.000000 0.000000 0.000000 0.000000 0.000000 0.000000 0.000000 0.187977 0.000000 0.000000 0.000000 0.000000 0.000000 0.000000 0.000000 0.000000 0.076433 0.000000 0.000000 0.000000 0.000000 0.066397 0.000897 0.000000 0.000000 0.000000 0.007178 0.000000 0.000000 0.022432 0.000000 0.000000 0.000000 0.000000 0.000000 0.000000 0.000000 0.000000 0.336306 0.000897 0.000000 0.023329 0.004935 0.004038 0.000000 0.000000 0.030058 0.002692 0.000000 0.000000 0.000000 0.081202 0.000000 0.000000 0.000000 0.000000 0.000000 0.000000 0.000000 0.000000 0.193631 0.000000 0.000000 0.131449 0.000000 0.034545 0.000000 0.000449 0.000000 0.000000 0.000000 0.013908 0.000000 0.000000 0.000000 0.000000 0.000000 0.000000 0.000000 0.000000 0.000000 0.000000 0.099363 0.000000 0.000000 0.034096 0.017945 0.000449 0.000000 0.000000 0.131000 0.000897 0.000000 0.000000 0.011664 0.006729 1.000000 0.000000 0.000000 0.000000 0.000000 0.000000 0.000000 0.000000 0.129936 0.000000 0.000000 0.074024 0.000000 0.002243 0.000000 0.000000 0.000000 0.000000 0.000000 0.108120 0.000000 0.000000 0.000000 0.000000 0.000000 0.000000 0.000000 0.000000 0.000000 0.000000 0.164331 0
0.000000 0.000000 0.000000 0.000000 0.000000 0.000000 0.000000 0.000000 0.000600 0.000000 0.000000 0.000000 0.218825 0.000000 0.030864 0.030864 0.000000 0.000000 0.000000 0.000000 0.006173 0.043590 0.000000 0.000000 0.000000 0.000000 0.050959 0.000000 0.002398 0.000000 0.000000 0.014388 0.001799 0.000000 0.028777 0.012346 0.043210 0.086420 0.049383 0.024691 0.024691 0.006173 0.000000 0.323077 0.000000 0.000000 0.000000 0.000000 0.082134 0.000000 0.000000 0.000000 0.000600 0.000000 0.000000 0.000000 0.086331 0.043210 0.049383 0.024691 0.000000 0.000000 0.000000 0.000000 0.006173 0.151282 0.000000 0.001199 0.000000 0.000000 0.178058 0.000000 0.005995 0.000000 0.000000 0.000000 0.016187 0.000000 0.000000 0.000000 0.006173 0.006173 0.024691 0.043210 0.037037 0.018519 0.000000 0.102564 0.000000 0.000000 0.000000 0.000000 0.122302 0.000000 0.000000 0.000000 0.002398 0.000000 0.000000 0.006595 0.007794 0.030864 0.043210 0.006173 0.000000 0.000000 0.000000 0.141975 0.024691 0.215385 0.000000 0.000000 0.000000 0.000000 0.063549 0.000000 0.000600 0.000000 0.000000 0.000000 0.108513 0.000000 0.000000 0.000000 0.000000 0.000000 0.006173 0.030864 0.055556 0.086420 0.000000 0.164103 0
0.000000 0.000000 0.000000 0.000000 0.000000 0.000000 0.000000 0.000000 0.000000 0.000000 0.000000 0.000000 0.204432 0.012346 0.061728 0.012346 0.000000 0.000000 0.000000 0.000000 0.000000 0.073394 0.000000 0.000000 0.000000 0.000000 0.061963 0.000452 0.001357 0.000000 0.000000 0.016735 0.001357 0.000000 0.027589 0.006173 0.043210 0.080247 0.055556 0.055556 0.018519 0.000000 0.000000 0.265221 0.000000 0.000000 0.000000 0.000000 0.078245 0.000000 0.000000 0.000000 0.000000 0.000000 0.000000 0.000000 0.070556 0.049383 0.074074 0.006173 0.000000 0.000000 0.000000 0.000000 0.000000 0.175980 0.000000 0.000000 0.000000 0.000000 0.157847 0.000000 0.000000 0.000000 0.000000 0.000000 0.036635 0.000000 0.000000 0.000000 0.000000 0.000000 0.000000 0.080247 0.043210 0.000000 0.000000 0.108424 0.000000 0.000000 0.000000 0.000000 0.098146 0.000000 0.000000 0.000000 0.000000 0.000000 0.013116 0.013116 0.003166 0.086420 0.012346 0.000000 0.000000 0.000000 0.024691 0.098765 0.037037 0.260217 0.000000 0.000000 0.000000 0.000000 0.026232 0.000000 0.000000 0.000000 0.000000 0.000000 0.189055 0.000000 0.000000 0.000000 0.000000 0.000000 0.000000 0.018519 0.086420 0.037037 0.000000 0.116764 0
0.000000 0.000000 0.002960 0.000000 0.001691 0.000000 0.000000 0.000000 0.002960 0.000000 0.000000 0.000000 0.201691 0.018349 0.022936 0.018349 0.004587 0.004587 0.018349 0.009174 0.013761 0.048128 0.000000 0.000000 0.000000 0.000000 0.064271 0.001268 0.001691 0.000000 0.000423 0.010571 0.002960 0.000000 0.020719 0.022936 0.073394 0.082569 0.045872 0.027523 0.064220 0.032110 0.009174 0.341176 0.000000 0.000000 0.000000 0.000000 0.015645 0.000000 0.000000 0.000000 0.014799 0.000000 0.000000 0.000000 0.152643 0.041284 0.045872 0.018349 0.000000 0.000000 0.000000 0.000000 0.000000 0.114439 0.000000 0.000000 0.000000 0.000000 0.123890 0.000000 0.003805 0.000000 0.000000 0.000000 0.051586 0.000000 0.000000 0.000000 0.004587 0.000000 0.018349 0.036697 0.036697 0.013761 0.000000 0.145455 0.000000 0.000000 0.000000 0.000000 0.082452 0.000000 0.000000 0.000000 0.000000 0.000000 0.005074 0.000000 0.043552 0.041284 0.050459 0.009174 0.000000 0.000000 0.018349 0.100917 0.000000 0.245989 0.000000 0.000000 0.000000 0.000000 0.025793 0.000000 0.000000 0.000000 0.000000 0.000000 0.169556 0.000000 0.000000 0.000000 0.000000 0.000000 0.000000 0.018349 0.050459 0.027523 0.000000 0.104813 0
0.000000 0.000000 0.000000 0.000000 0.000000 0.000000 0.000000 0.000000 0.000000 0.000000 0.000000 0.000000 0.280374 0.011628 0.081395 0.000000 0.000000 0.000000 0.000000 0.000000 0.000000 0.064272 0.000000 0.000000 0.000000 0.000000 0.016355 0.004673 0.000000 0.000000 0.000000 0.030374 0.002336 0.000000 0.004673 0.011628 0.023256 0.081395 0.058140 0.069767 0.011628 0.000000 0.000000 0.264650 0.000000 0.000000 0.000000 0.000000 0.077103 0.000000 0.000000 0.000000 0.000000 0.000000 0.000000 0.000000 0.107477 0.069767 0.058140 0.000000 0.000000 0.000000 0.000000 0.000000 0.000000 0.141777 0.000000 0.000000 0.000000 0.000000 0.135514 0.000000 0.000000 0.000000 0.000000 0.000000 0.058411 0.000000 0.000000 0.000000 0.000000 0.000000 0.000000 0.093023 0.034884 0.000000 0.000000 0.155009 0.000000 0.000000 0.000000 0.000000 0.030374 0.000000 0.000000 0.000000 0.002336 0.000000 0.004673 0.018692 0.007009 0.046512 0.034884 0.000000 0.000000 0.000000 0.011628 0.104651 0.046512 0.240076 0.000000 0.000000 0.000000 0.000000 0.002336 0.000000 0.000000 0.000000 0.000000 0.000000 0.217290 0.000000 0.000000 0.000000 0.000000 0.000000 0.000000 0.023256 0.081395 0.046512 0.000000 0.134216 0
0.000000 0.000000 0.000000 0.000000 0.000000 0.000000 0.000000 0.000000 0.000000 0.000000 0.000000 0.000000 0.290870 0.010870 0.065217 0.021739 0.000000 0.000000 0.000000 0.000000 0.000000 0.054101 0.000000 0.000000 0.000000 0.000000 0.004246 0.002123 0.000000 0.000000 0.000000 0.019108 0.014862 0.000000 0.036093 0.000000 0.054348 0.065217 0.032609 0.086957 0.021739 0.000000 0.000000 0.251309 0.000000 0.000000 0.000000 0.000000 0.067941 0.000000 0.000000 0.000000 0.000000 0.000000 0.000000 0.000000 0.072187 0.076087 0.054348 0.000000 0.000000 0.000000 0.000000 0.000000 0.000000 0.178010 0.000000 0.000000 0.000000 0.000000 0.118896 0.000000 0.002123 0.000000 0.000000 0.000000 0.072187 0.000000 0.000000 0.000000 0.000000 0.000000 0.010870 0.076087 0.043478 0.000000 0.000000 0.155323 0.000000 0.000000 0.000000 0.000000 0.023355 0.000000 0.000000 0.000000 0.000000 0.000000 0.010616 0.033970 0.000000 0.076087 0.010870 0.000000 0.000000 0.000000 0.010870 0.086957 0.043478 0.237347 0.000000 0.000000 0.000000 0.000000 0.000000 0.000000 0.000000 0.000000 0.000000 0.000000 0.231423 0.000000 0.000000 0.000000 0.000000 0.000000 0.000000 0.043478 0.065217 0.043478 0.000000 0.123909 0
0.000000 0.000000 0.000000 0.000000 0.000000 0.000000 0.000000 0.000000 0.000000 0.000000 0.000000 0.000000 0.246050 0.006897 0.041379 0.020690 0.000000 0.000000 0.000000 0.000000 0.000000 0.074681 0.000000 0.002257 0.000000 0.000000 0.018059 0.024831 0.000000 0.000000 0.000000 0.006772 0.018059 0.000000 0.015801 0.041379 0.034483 0.048276 0.013793 0.089655 0.034483 0.000000 0.000000 0.222222 0.000000 0.000000 0.000000 0.000000 0.090293 0.000000 0.000000 0.000000 0.000000 0.000000 0.000000 0.000000 0.045147 0.027586 0.041379 0.000000 0.006897 0.006897 0.041379 0.013793 0.000000 0.163934 0.000000 0.000000 0.000000 0.000000 0.119639 0.000000 0.000000 0.000000 0.000000 0.000000 0.081264 0.000000 0.000000 0.027586 0.041379 0.000000 0.000000 0.041379 0.041379 0.034483 0.000000 0.129326 0.000000 0.000000 0.000000 0.000000 0.020316 0.000000 0.000000 0.004515 0.006772 0.000000 0.006772 0.011287 0.000000 0.055172 0.013793 0.034483 0.013793 0.013793 0.013793 0.055172 0.034483 0.287796 0.000000 0.000000 0.000000 0.000000 0.002257 0.000000 0.000000 0.002257 0.000000 0.000000 0.277652 0.000000 0.000000 0.000000 0.013793 0.006897 0.000000 0.027586 0.041379 0.013793 0.006897 0.122040 0
0.000000 0.000000 0.000000 0.000000 0.000000 0.000000 0.000000 0.000000 0.000000 0.000000 0.000000 0.000000 0.307927 0.019048 0.047619 0.000000 0.000000 0.000000 0.000000 0.000000 0.000000 0.030137 0.000000 0.000000 0.000000 0.000000 0.003049 0.000000 0.000000 0.000000 0.000000 0.021341 0.000000 0.000000 0.048780 0.000000 0.057143 0.066667 0.028571 0.104762 0.000000 0.000000 0.000000 0.260274 0.000000 0.000000 0.000000 0.000000 0.032012 0.000000 0.000000 0.000000 0.000000 0.000000 0.000000 0.000000 0.099085 0.038095 0.095238 0.000000 0.000000 0.000000 0.000000 0.000000 0.000000 0.189041 0.000000 0.000000 0.000000 0.000000 0.121951 0.000000 0.000000 0.000000 0.000000 0.000000 0.054878 0.000000 0.000000 0.000000 0.000000 0.000000 0.000000 0.095238 0.038095 0.000000 0.000000 0.167123 0.000000 0.000000 0.000000 0.000000 0.042683 0.000000 0.000000 0.000000 0.000000 0.000000 0.000000 0.054878 0.000000 0.085714 0.009524 0.000000 0.000000 0.000000 0.000000 0.104762 0.038095 0.219178 0.000000 0.000000 0.000000 0.000000 0.009146 0.000000 0.000000 0.000000 0.000000 0.000000 0.204268 0.000000 0.000000 0.000000 0.000000 0.000000 0.000000 0.047619 0.076190 0.047619 0.000000 0.134247 0
0.000000 0.000000 0.000000 0.000000 0.000000 0.000000 0.000000 0.000000 0.000000 0.000000 0.000000 0.000000 0.296610 0.010309 0.041237 0.010309 0.000000 0.000000 0.000000 0.000000 0.000000 0.025783 0.000000 0.000000 0.000000 0.000000 0.000000 0.000000 0.012712 0.000000 0.000000 0.000000 0.000000 0.000000 0.055085 0.010309 0.041237 0.103093 0.030928 0.051546 0.030928 0.000000 0.000000 0.244936 0.000000 0.000000 0.000000 0.000000 0.027542 0.000000 0.000000 0.000000 0.000000 0.000000 0.000000 0.000000 0.105932 0.051546 0.061856 0.020619 0.000000 0.000000 0.000000 0.000000 0.000000 0.167587 0.000000 0.000000 0.000000 0.000000 0.129237 0.000000 0.004237 0.000000 0.000000 0.000000 0.042373 0.000000 0.000000 0.000000 0.000000 0.000000 0.010309 0.072165 0.030928 0.020619 0.000000 0.151013 0.000000 0.000000 0.000000 0.000000 0.036017 0.000000 0.000000 0.000000 0.006356 0.000000 0.002119 0.025424 0.006356 0.041237 0.030928 0.000000 0.000000 0.000000 0.010309 0.082474 0.061856 0.268877 0.000000 0.000000 0.000000 0.000000 0.019068 0.000000 0.006356 0.002119 0.000000 0.000000 0.222458 0.000000 0.000000 0.000000 0.000000 0.000000 0.020619 0.020619 0.082474 0.041237 0.010309 0.141805 0
0.000000 0.002692 0.000000 0.000000 0.000000 0.000000 0.000000 0.000000 0.001346 0.000000 0.000000 0.000000 0.192463 0.000000 0.000000 0.000000 0.000000 0.000000 0.000000 0.000000 0.000000 0.128240 0.020188 0.065949 0.000000 0.000000 0.002692 0.041723 0.008075 0.000000 0.000000 0.024226 0.000000 0.000000 0.002692 1.000000 0.000000 0.000000 0.000000 0.000000 0.000000 0.000000 0.000000 0.175989 0.000000 0.118439 0.000000 0.000000 0.000000 0.000000 0.000000 0.000000 0.002692 0.000000 0.000000 0.001346 0.030956 0.000000 0.000000 0.000000 0.000000 0.000000 0.000000 0.000000 0.000000 0.171896 0.032301 0.145357 0.000000 0.000000 0.000000 0.029610 0.002692 0.000000 0.000000 0.000000 0.016151 0.000000 0.000000 0.000000 0.000000 0.000000 0.000000 0.000000 0.000000 0.000000 0.000000 0.114598 0.000000 0.000000 0.000000 0.000000 0.004038 0.000000 0.000000 0.000000 0.001346 0.000000 0.004038 0.075370 0.000000 0.000000 0.000000 0.000000 0.000000 0.000000 0.000000 0.000000 0.000000 0.241473 0.000000 0.000000 0.000000 0.000000 0.013459 0.000000 0.000000 0.000000 0.000000 0.000000 0.160162 0.000000 0.000000 0.000000 0.000000 0.000000 0.000000 0.000000 0.000000 0.000000 0.000000 0.167804 0
0.000000 0.000000 0.000000 0.000000 0.000000 0.000000 0.000000 0.000000 0.000000 0.000000 0.000000 0.000000 0.320482 0.010870 0.054348 0.021739 0.000000 0.000000 0.000000 0.000000 0.000000 0.042122 0.000000 0.000000 0.000000 0.000000 0.000000 0.000000 0.000000 0.000000 0.000000 0.142169 0.000000 0.000000 0.012048 0.010870 0.021739 0.065217 0.086957 0.021739 0.000000 0.000000 0.000000 0.165367 0.000000 0.000000 0.000000 0.000000 0.016867 0.000000 0.000000 0.000000 0.000000 0.000000 0.000000 0.000000 0.106024 0.043478 0.065217 0.010870 0.000000 0.000000 0.000000 0.000000 0.000000 0.170047 0.000000 0.000000 0.000000 0.000000 0.151807 0.000000 0.000000 0.000000 0.000000 0.000000 0.000000 0.000000 0.000000 0.000000 0.000000 0.000000 0.000000 0.108696 0.000000 0.000000 0.000000 0.166927 0.000000 0.000000 0.000000 0.000000 0.048193 0.000000 0.000000 0.000000 0.000000 0.000000 0.000000 0.033735 0.002410 0.065217 0.021739 0.000000 0.000000 0.000000 0.000000 0.119565 0.043478 0.244930 0.000000 0.000000 0.000000 0.000000 0.033735 0.000000 0.000000 0.000000 0.000000 0.000000 0.132530 0.000000 0.000000 0.000000 0.000000 0.000000 0.000000 0.043478 0.076087 0.108696 0.000000 0.210608 0
0.000000 0.000000 0.000000 0.000000 0.000000 0.000000 0.000000 0.000000 0.000000 0.000000 0.000000 0.000000 0.333333 0.021053 0.042105 0.042105 0.000000 0.000000 0.000000 0.000000 0.000000 0.046154 0.000000 0.000000 0.000000 0.000000 0.000000 0.000000 0.004566 0.000000 0.000000 0.038813 0.000000 0.000000 0.031963 0.000000 0.042105 0.084211 0.052632 0.042105 0.021053 0.000000 0.000000 0.220000 0.000000 0.000000 0.000000 0.000000 0.041096 0.000000 0.000000 0.000000 0.004566 0.000000 0.000000 0.000000 0.095890 0.031579 0.073684 0.010526 0.000000 0.000000 0.000000 0.000000 0.010526 0.175385 0.000000 0.000000 0.000000 0.000000 0.114155 0.000000 0.002283 0.000000 0.000000 0.000000 0.034247 0.000000 0.000000 0.000000 0.000000 0.000000 0.010526 0.063158 0.042105 0.000000 0.000000 0.169231 0.000000 0.000000 0.000000 0.000000 0.050228 0.000000 0.000000 0.000000 0.000000 0.000000 0.000000 0.050228 0.009132 0.063158 0.010526 0.000000 0.000000 0.000000 0.000000 0.105263 0.052632 0.221538 0.000000 0.000000 0.000000 0.000000 0.011416 0.000000 0.000000 0.000000 0.000000 0.000000 0.178082 0.000000 0.000000 0.000000 0.000000 0.000000 0.000000 0.042105 0.073684 0.063158 0.000000 0.167692 0
0.000000 0.000000 0.000000 0.000000 0.000000 0.000000 0.000000 0.000000 0.000000 0.000000 0.000000 0.000000 0.399381 0.000000 0.058140 0.000000 0.000000 0.000000 0.000000 0.000000 0.000000 0.025997 0.000000 0.000000 0.000000 0.000000 0.000000 0.000000 0.000000 0.000000 0.000000 0.061920 0.000000 0.000000 0.049536 0.046512 0.023256 0.058140 0.058140 0.081395 0.000000 0.000000 0.000000 0.207972 0.000000 0.000000 0.000000 0.000000 0.021672 0.000000 0.000000 0.000000 0.000000 0.000000 0.000000 0.000000 0.089783 0.081395 0.058140 0.011628 0.000000 0.000000 0.000000 0.000000 0.000000 0.187175 0.000000 0.000000 0.000000 0.000000 0.083591 0.000000 0.000000 0.000000 0.000000 0.000000 0.012384 0.000000 0.000000 0.000000 0.000000 0.000000 0.000000 0.127907 0.011628 0.000000 0.000000 0.216638 0.000000 0.000000 0.000000 0.000000 0.034056 0.000000 0.000000 0.000000 0.000000 0.000000 0.000000 0.071207 0.000000 0.069767 0.011628 0.000000 0.000000 0.000000 0.000000 0.069767 0.058140 0.190641 0.000000 0.000000 0.000000 0.000000 0.015480 0.000000 0.000000 0.000000 0.000000 0.000000 0.160991 0.000000 0.000000 0.000000 0.000000 0.000000 0.000000 0.034884 0.093023 0.046512 0.000000 0.171577 0
0.000000 0.000000 0.000000 0.000000 0.000000 0.000000 0.000000 0.000000 0.000000 0.000000 0.000000 0.000000 0.361446 0.011905 0.035714 0.011905 0.000000 0.000000 0.000000 0.000000 0.000000 0.023166 0.000000 0.000000 0.000000 0.000000 0.000000 0.000000 0.000000 0.000000 0.000000 0.063253 0.000000 0.000000 0.063253 0.023810 0.047619 0.047619 0.035714 0.095238 0.000000 0.000000 0.000000 0.194981 0.000000 0.000000 0.000000 0.000000 0.003012 0.000000 0.000000 0.000000 0.000000 0.000000 0.000000 0.000000 0.126506 0.059524 0.071429 0.011905 0.000000 0.000000 0.000000 0.000000 0.000000 0.171815 0.000000 0.000000 0.000000 0.000000 0.060241 0.000000 0.000000 0.000000 0.000000 0.015060 0.009036 0.000000 0.000000 0.000000 0.000000 0.000000 0.011905 0.095238 0.023810 0.000000 0.000000 0.222008 0.000000 0.000000 0.000000 0.000000 0.006024 0.000000 0.000000 0.003012 0.000000 0.000000 0.006024 0.048193 0.009036 0.095238 0.011905 0.000000 0.000000 0.000000 0.023810 0.071429 0.035714 0.231660 0.000000 0.000000 0.000000 0.000000 0.003012 0.000000 0.000000 0.003012 0.000000 0.000000 0.219880 0.000000 0.000000 0.000000 0.000000 0.000000 0.000000 0.047619 0.083333 0.023810 0.023810 0.156371 0
0.000000 0.000000 0.000000 0.000000 0.000000 0.000000 0.000000 0.000000 0.000000 0.000000 0.000000 0.000000 0.219368 0.012195 0.060976 0.036585 0.000000 0.000000 0.000000 0.000000 0.000000 0.084615 0.000000 0.000000 0.000000 0.000000 0.057312 0.000000 0.000000 0.000000 0.000000 0.021739 0.003953 0.000000 0.007905 0.000000 0.024390 0.121951 0.036585 0.048780 0.024390 0.000000 0.000000 0.251282 0.000000 0.000000 0.000000 0.000000 0.098814 0.000000 0.000000 0.000000 0.000000 0.000000 0.000000 0.000000 0.067194 0.036585 0.073171 0.012195 0.000000 0.000000 0.000000 0.000000 0.000000 0.153846 0.000000 0.000000 0.000000 0.000000 0.118577 0.000000 0.000000 0.000000 0.000000 0.000000 0.059289 0.000000 0.000000 0.000000 0.000000 0.000000 0.000000 0.060976 0.048780 0.000000 0.000000 0.138462 0.000000 0.000000 0.000000 0.000000 0.079051 0.000000 0.000000 0.000000 0.000000 0.000000 0.013834 0.025692 0.001976 0.073171 0.012195 0.000000 0.000000 0.000000 0.024390 0.121951 0.036585 0.253846 0.000000 0.000000 0.000000 0.000000 0.007905 0.000000 0.000000 0.000000 0.000000 0.000000 0.217391 0.000000 0.000000 0.000000 0.000000 0.000000 0.000000 0.012195 0.073171 0.048780 0.000000 0.117949 0
0.000000 0.000000 0.000000 0.000000 0.000000 0.000000 0.000000 0.000000 0.000000 0.000000 0.000000 0.000000 0.236220 0.000000 0.025974 0.025974 0.000000 0.000000 0.000000 0.000000 0.000000 0.024691 0.000000 0.000000 0.000000 0.000000 0.000000 0.000000 0.000000 0.000000 0.000000 0.005906 0.011811 0.000000 0.074803 0.012987 0.051948 0.116883 0.025974 0.038961 0.038961 0.000000 0.000000 0.250000 0.000000 0.000000 0.000000 0.000000 0.051181 0.000000 0.000000 0.000000 0.000000 0.000000 0.000000 0.000000 0.096457 0.038961 0.064935 0.051948 0.000000 0.000000 0.000000 0.000000 0.000000 0.163580 0.000000 0.000000 0.000000 0.000000 0.061024 0.000000 0.000000 0.000000 0.000000 0.000000 0.084646 0.000000 0.000000 0.000000 0.000000 0.000000 0.000000 0.038961 0.064935 0.000000 0.000000 0.166667 0.000000 0.000000 0.000000 0.000000 0.080709 0.000000 0.000000 0.000000 0.000000 0.000000 0.011811 0.021654 0.015748 0.038961 0.038961 0.000000 0.000000 0.000000 0.025974 0.116883 0.051948 0.290123 0.000000 0.000000 0.000000 0.000000 0.007874 0.000000 0.000000 0.000000 0.000000 0.000000 0.240157 0.000000 0.000000 0.000000 0.000000 0.000000 0.000000 0.025974 0.064935 0.038961 0.000000 0.104938 0
0.000000 0.000000 0.000000 0.000000 0.000000 0.000000 0.000000 0.000000 0.000000 0.000000 0.000000 0.000000 0.246000 0.012500 0.037500 0.025000 0.000000 0.000000 0.000000 0.000000 0.000000 0.032609 0.000000 0.000000 0.000000 0.000000 0.016000 0.000000 0.000000 0.000000 0.000000 0.006000 0.008000 0.000000 0.044000 0.000000 0.050000 0.112500 0.025000 0.062500 0.025000 0.000000 0.000000 0.290761 0.000000 0.000000 0.000000 0.000000 0.052000 0.000000 0.000000 0.000000 0.000000 0.000000 0.000000 0.000000 0.092000 0.025000 0.087500 0.012500 0.000000 0.000000 0.000000 0.000000 0.000000 0.171196 0.000000 0.000000 0.000000 0.000000 0.124000 0.000000 0.000000 0.000000 0.000000 0.000000 0.068000 0.000000 0.000000 0.000000 0.000000 0.000000 0.000000 0.075000 0.037500 0.000000 0.000000 0.130435 0.000000 0.000000 0.000000 0.000000 0.078000 0.000000 0.000000 0.000000 0.000000 0.000000 0.004000 0.020000 0.006000 0.062500 0.025000 0.000000 0.000000 0.000000 0.012500 0.125000 0.037500 0.260870 0.000000 0.000000 0.000000 0.000000 0.024000 0.000000 0.000000 0.000000 0.000000 0.000000 0.212000 0.000000 0.000000 0.000000 0.000000 0.000000 0.000000 0.012500 0.087500 0.050000 0.000000 0.114130 0
0.000000 0.000000 0.000000 0.000000 0.000000 0.000000 0.000000 0.000000 0.000000 0.000000 0.000000 0.000000 0.252747 0.013333 0.040000 0.013333 0.000000 0.000000 0.000000 0.000000 0.000000 0.033435 0.000000 0.000000 0.000000 0.000000 0.015385 0.000000 0.002198 0.000000 0.000000 0.059341 0.000000 0.000000 0.030769 0.000000 0.053333 0.066667 0.053333 0.053333 0.013333 0.000000 0.000000 0.234043 0.000000 0.000000 0.000000 0.000000 0.048352 0.000000 0.000000 0.000000 0.000000 0.000000 0.000000 0.000000 0.116484 0.040000 0.080000 0.013333 0.000000 0.000000 0.000000 0.000000 0.000000 0.155015 0.000000 0.000000 0.000000 0.000000 0.134066 0.000000 0.000000 0.000000 0.000000 0.006593 0.017582 0.000000 0.000000 0.000000 0.000000 0.000000 0.013333 0.053333 0.053333 0.000000 0.000000 0.164134 0.000000 0.000000 0.000000 0.000000 0.079121 0.000000 0.000000 0.000000 0.000000 0.000000 0.004396 0.019780 0.008791 0.053333 0.040000 0.000000 0.000000 0.000000 0.013333 0.120000 0.040000 0.270517 0.000000 0.000000 0.000000 0.000000 0.015385 0.000000 0.000000 0.000000 0.000000 0.000000 0.189011 0.000000 0.000000 0.000000 0.000000 0.000000 0.000000 0.040000 0.066667 0.066667 0.000000 0.142857 0
0.000000 0.000000 0.000000 0.000000 0.002381 0.000000 0.000000 0.000000 0.000000 0.000000 0.000000 0.000000 0.216667 0.000000 0.064935 0.051948 0.000000 0.000000 0.000000 0.000000 0.000000 0.101190 0.000000 0.000000 0.000000 0.000000 0.014286 0.000000 0.000000 0.002381 0.000000 0.016667 0.007143 0.000000 0.054762 0.012987 0.025974 0.103896 0.038961 0.077922 0.012987 0.012987 0.012987 0.255952 0.000000 0.000000 0.000000 0.000000 0.130952 0.000000 0.000000 0.000000 0.000000 0.000000 0.000000 0.000000 0.050000 0.051948 0.064935 0.000000 0.000000 0.000000 0.000000 0.000000 0.000000 0.148810 0.000000 0.000000 0.000000 0.000000 0.085714 0.000000 0.000000 0.000000 0.000000 0.000000 0.095238 0.000000 0.000000 0.000000 0.000000 0.000000 0.000000 0.064935 0.051948 0.000000 0.000000 0.148810 0.000000 0.000000 0.000000 0.000000 0.069048 0.000000 0.000000 0.000000 0.000000 0.000000 0.004762 0.033333 0.000000 0.064935 0.000000 0.000000 0.000000 0.000000 0.012987 0.103896 0.051948 0.241071 0.000000 0.000000 0.000000 0.000000 0.007143 0.000000 0.000000 0.000000 0.000000 0.000000 0.209524 0.000000 0.000000 0.000000 0.000000 0.000000 0.000000 0.025974 0.064935 0.025974 0.000000 0.104167 0
0.000000 0.000000 0.000000 0.000000 0.008333 0.000000 0.000000 0.000000 0.000000 0.000000 0.000000 0.000000 0.233333 0.014493 0.057971 0.057971 0.000000 0.000000 0.000000 0.000000 0.000000 0.107843 0.000000 0.000000 0.000000 0.000000 0.020833 0.033333 0.000000 0.000000 0.000000 0.000000 0.020833 0.000000 0.004167 0.000000 0.057971 0.086957 0.028986 0.072464 0.043478 0.000000 0.000000 0.235294 0.000000 0.000000 0.000000 0.000000 0.145833 0.000000 0.000000 0.000000 0.000000 0.000000 0.000000 0.000000 0.045833 0.043478 0.057971 0.014493 0.000000 0.000000 0.000000 0.000000 0.000000 0.147059 0.000000 0.000000 0.000000 0.000000 0.087500 0.000000 0.004167 0.000000 0.000000 0.000000 0.070833 0.000000 0.000000 0.000000 0.000000 0.000000 0.014493 0.043478 0.043478 0.000000 0.000000 0.169935 0.000000 0.000000 0.000000 0.000000 0.054167 0.000000 0.000000 0.000000 0.000000 0.000000 0.004167 0.029167 0.000000 0.057971 0.000000 0.000000 0.000000 0.000000 0.014493 0.115942 0.043478 0.228758 0.000000 0.000000 0.000000 0.000000 0.000000 0.000000 0.000000 0.000000 0.000000 0.000000 0.237500 0.000000 0.000000 0.000000 0.000000 0.000000 0.000000 0.014493 0.057971 0.057971 0.000000 0.111111 0
0.000000 0.000000 0.000000 0.000000 0.000000 0.000000 0.000000 0.000000 0.000000 0.000000 0.000000 0.000000 0.219331 0.014706 0.073529 0.058824 0.000000 0.000000 0.000000 0.000000 0.000000 0.111782 0.000000 0.000000 0.000000 0.000000 0.000000 0.000000 0.000000 0.000000 0.000000 0.096654 0.000000 0.000000 0.011152 0.000000 0.014706 0.132353 0.029412 0.073529 0.014706 0.000000 0.000000 0.226586 0.000000 0.000000 0.000000 0.000000 0.085502 0.000000 0.000000 0.000000 0.007435 0.000000 0.000000 0.000000 0.040892 0.044118 0.058824 0.000000 0.000000 0.000000 0.000000 0.000000 0.014706 0.181269 0.000000 0.000000 0.000000 0.000000 0.055762 0.000000 0.000000 0.000000 0.000000 0.000000 0.096654 0.000000 0.000000 0.000000 0.000000 0.000000 0.000000 0.058824 0.058824 0.000000 0.000000 0.190332 0.000000 0.000000 0.000000 0.000000 0.074349 0.000000 0.000000 0.000000 0.000000 0.000000 0.003717 0.040892 0.000000 0.058824 0.000000 0.000000 0.000000 0.000000 0.014706 0.088235 0.058824 0.193353 0.000000 0.000000 0.000000 0.000000 0.011152 0.000000 0.000000 0.000000 0.000000 0.000000 0.256506 0.000000 0.000000 0.000000 0.000000 0.000000 0.000000 0.014706 0.073529 0.044118 0.000000 0.096677 0
0.000000 0.000000 0.000000 0.000000 0.002262 0.000000 0.000000 0.000000 0.000000 0.000000 0.000000 0.000000 0.201357 0.000000 0.034483 0.020690 0.000000 0.000000 0.013793 0.000000 0.000000 0.088757 0.000000 0.000000 0.000000 0.009050 0.038462 0.002262 0.000000 0.000000 0.000000 0.040724 0.004525 0.000000 0.006787 0.006897 0.027586 0.055172 0.020690 0.027586 0.034483 0.027586 0.013793 0.221893 0.000000 0.000000 0.000000 0.000000 0.099548 0.000000 0.000000 0.000000 0.002262 0.000000 0.000000 0.000000 0.049774 0.020690 0.027586 0.020690 0.000000 0.013793 0.041379 0.020690 0.006897 0.156805 0.000000 0.000000 0.000000 0.031674 0.056561 0.000000 0.018100 0.000000 0.000000 0.000000 0.067873 0.000000 0.000000 0.041379 0.020690 0.000000 0.027586 0.020690 0.034483 0.006897 0.020690 0.127219 0.000000 0.000000 0.000000 0.000000 0.115385 0.000000 0.000000 0.000000 0.013575 0.000000 0.002262 0.024887 0.000000 0.041379 0.041379 0.041379 0.020690 0.020690 0.006897 0.068966 0.027586 0.239645 0.000000 0.000000 0.000000 0.000000 0.000000 0.000000 0.002262 0.000000 0.000000 0.000000 0.210407 0.000000 0.000000 0.000000 0.000000 0.034483 0.006897 0.006897 0.041379 0.027586 0.006897 0.165680 0
0.000000 0.000000 0.000000 0.000000 0.000000 0.000000 0.000000 0.000000 0.000000 0.000000 0.000000 0.000000 0.266169 0.026316 0.039474 0.039474 0.000000 0.000000 0.000000 0.000000 0.000000 0.053672 0.000000 0.000000 0.000000 0.000000 0.014925 0.000000 0.000000 0.000000 0.000000 0.029851 0.014925 0.000000 0.024876 0.000000 0.039474 0.092105 0.039474 0.052632 0.026316 0.000000 0.000000 0.259887 0.000000 0.000000 0.000000 0.000000 0.072139 0.000000 0.000000 0.000000 0.000000 0.000000 0.000000 0.000000 0.084577 0.052632 0.065789 0.013158 0.000000 0.000000 0.000000 0.000000 0.000000 0.177966 0.000000 0.000000 0.000000 0.000000 0.121891 0.000000 0.000000 0.000000 0.000000 0.000000 0.062189 0.000000 0.000000 0.000000 0.000000 0.000000 0.000000 0.078947 0.039474 0.000000 0.000000 0.146893 0.000000 0.000000 0.000000 0.000000 0.054726 0.000000 0.000000 0.000000 0.000000 0.000000 0.012438 0.027363 0.004975 0.052632 0.026316 0.000000 0.000000 0.000000 0.026316 0.105263 0.039474 0.242938 0.000000 0.000000 0.000000 0.000000 0.007463 0.000000 0.000000 0.000000 0.000000 0.000000 0.201493 0.000000 0.000000 0.000000 0.000000 0.000000 0.000000 0.026316 0.052632 0.065789 0.000000 0.118644 0
0.000000 0.000000 0.000000 0.000000 0.000000 0.000000 0.000000 0.000000 0.000000 0.000000 0.000000 0.000000 0.249201 0.000000 0.044776 0.044776 0.000000 0.000000 0.000000 0.000000 0.000000 0.050193 0.000000 0.000000 0.000000 0.000000 0.025559 0.022364 0.000000 0.000000 0.000000 0.000000 0.003195 0.000000 0.044728 0.014925 0.089552 0.044776 0.044776 0.104478 0.014925 0.000000 0.000000 0.235521 0.000000 0.000000 0.000000 0.000000 0.076677 0.000000 0.000000 0.000000 0.000000 0.000000 0.000000 0.000000 0.054313 0.014925 0.089552 0.014925 0.000000 0.000000 0.000000 0.000000 0.000000 0.193050 0.000000 0.000000 0.000000 0.000000 0.118211 0.000000 0.000000 0.000000 0.000000 0.000000 0.057508 0.000000 0.000000 0.000000 0.000000 0.000000 0.000000 0.059701 0.044776 0.000000 0.000000 0.138996 0.000000 0.000000 0.000000 0.000000 0.092652 0.000000 0.000000 0.000000 0.000000 0.000000 0.000000 0.035144 0.000000 0.059701 0.000000 0.000000 0.000000 0.000000 0.000000 0.119403 0.059701 0.247104 0.000000 0.000000 0.000000 0.000000 0.015974 0.000000 0.000000 0.000000 0.000000 0.000000 0.204473 0.000000 0.000000 0.000000 0.000000 0.000000 0.000000 0.000000 0.104478 0.029851 0.000000 0.135135 0
0.000000 0.000000 0.000000 0.000000 0.001353 0.000000 0.000000 0.000000 0.000000 0.000000 0.000000 0.000000 0.209743 0.031579 0.042105 0.042105 0.000000 0.000000 0.000000 0.000000 0.000000 0.082979 0.000000 0.000000 0.000000 0.000000 0.048714 0.000000 0.000000 0.000000 0.000000 0.043302 0.000000 0.000000 0.023004 0.010526 0.042105 0.042105 0.073684 0.063158 0.000000 0.000000 0.000000 0.261702 0.000000 0.000000 0.000000 0.000000 0.105548 0.000000 0.000000 0.000000 0.000000 0.000000 0.000000 0.000000 0.050068 0.073684 0.063158 0.010526 0.000000 0.000000 0.000000 0.000000 0.000000 0.170213 0.000000 0.000000 0.000000 0.000000 0.178620 0.000000 0.000000 0.000000 0.000000 0.000000 0.014885 0.000000 0.000000 0.000000 0.000000 0.000000 0.000000 0.105263 0.031579 0.000000 0.000000 0.138298 0.000000 0.000000 0.000000 0.000000 0.089310 0.000000 0.000000 0.000000 0.000000 0.000000 0.001353 0.036536 0.000000 0.073684 0.000000 0.000000 0.000000 0.000000 0.010526 0.073684 0.063158 0.214894 0.000000 0.000000 0.000000 0.000000 0.043302 0.000000 0.000000 0.000000 0.000000 0.000000 0.154263 0.000000 0.000000 0.000000 0.000000 0.000000 0.000000 0.010526 0.105263 0.031579 0.000000 0.131915 0
0.000000 0.000000 0.000000 0.000000 0.004216 0.000000 0.000000 0.000000 0.000000 0.000000 0.000000 0.000000 0.186341 0.017241 0.051724 0.025862 0.000000 0.000000 0.000000 0.000000 0.000000 0.075472 0.000000 0.000000 0.000000 0.000000 0.091062 0.000000 0.000000 0.000000 0.000000 0.017707 0.000000 0.000000 0.022766 0.000000 0.043103 0.077586 0.043103 0.077586 0.000000 0.000000 0.000000 0.233962 0.000000 0.000000 0.000000 0.000000 0.101180 0.000000 0.000000 0.000000 0.000000 0.000000 0.000000 0.000000 0.041315 0.068966 0.051724 0.025862 0.000000 0.000000 0.000000 0.000000 0.000000 0.183019 0.000000 0.000000 0.000000 0.000000 0.171164 0.000000 0.000000 0.000000 0.000000 0.000000 0.014334 0.000000 0.000000 0.000000 0.000000 0.000000 0.000000 0.077586 0.043103 0.000000 0.000000 0.113208 0.000000 0.000000 0.000000 0.000000 0.106239 0.000000 0.000000 0.000000 0.000000 0.000000 0.003373 0.032884 0.000843 0.077586 0.008621 0.000000 0.000000 0.000000 0.008621 0.094828 0.051724 0.252830 0.000000 0.000000 0.000000 0.000000 0.046374 0.000000 0.000000 0.000000 0.000000 0.000000 0.160202 0.000000 0.000000 0.000000 0.000000 0.000000 0.000000 0.025862 0.094828 0.034483 0.000000 0.141509 0
0.000000 0.000000 0.000000 0.000000 0.000000 0.000000 0.000000 0.000000 0.001294 0.000000 0.000000 0.000000 0.201811 0.048544 0.038835 0.048544 0.000000 0.000000 0.000000 0.000000 0.009709 0.096509 0.000000 0.000000 0.000000 0.000000 0.040103 0.000000 0.000000 0.000000 0.000000 0.063389 0.000000 0.000000 0.001294 0.000000 0.009709 0.087379 0.058252 0.058252 0.000000 0.000000 0.000000 0.277207 0.000000 0.000000 0.000000 0.000000 0.119017 0.000000 0.000000 0.000000 0.000000 0.000000 0.000000 0.000000 0.038810 0.048544 0.067961 0.019417 0.000000 0.000000 0.000000 0.000000 0.000000 0.168378 0.000000 0.000000 0.000000 0.000000 0.192755 0.000000 0.000000 0.000000 0.000000 0.001294 0.015524 0.000000 0.000000 0.000000 0.000000 0.000000 0.009709 0.087379 0.019417 0.000000 0.000000 0.110883 0.000000 0.000000 0.000000 0.000000 0.104787 0.000000 0.000000 0.000000 0.000000 0.000000 0.002587 0.029754 0.000000 0.067961 0.000000 0.000000 0.000000 0.000000 0.009709 0.097087 0.048544 0.201232 0.000000 0.000000 0.000000 0.000000 0.053040 0.000000 0.000000 0.000000 0.000000 0.000000 0.134541 0.000000 0.000000 0.000000 0.000000 0.000000 0.000000 0.009709 0.087379 0.067961 0.000000 0.145791 0
